{"layers":[{"weights":{"v":1,"dim":[10,10],"data":[-0.14168846112737246,-0.024156308421718647,-0.18022387556693176,0.20465895700420902,0.20922896009508807,0.3921300197490071,-0.3019682562565332,0.08783563154227789,0.23933070079869334,-0.22743806426332724,-0.04624432474213064,-0.16210309688375055,-0.32180570744015136,-0.2397898935035969,-0.08580720549436567,-0.16000137022907576,-0.11528214600374559,0.11044674084569003,0.3312841683323305,0.012723702686090545,-0.29887030721227675,0.39562143086459006,-0.36203184186457166,0.3903354609202203,0.15943872122100644,-0.38917732093681995,0.45029556316431163,0.15739104156639608,-0.3034381423873994,0.2560336608118097,-0.4181169153680773,-0.3622523804158582,-0.33219723928654965,-0.049743799041733656,-0.002089481761135911,-0.3154136197543814,0.14333979121253554,0.09526029221890513,0.035764268719704076,-0.2768700199830248,0.21218336373963007,-0.1864008119663342,-0.21476415439530464,-0.408968962251013,0.25694281535618857,0.021418550323936372,-0.13661018772711805,0.19918682191692055,0.3690265019297812,-0.3337846688393047,-0.269556704186802,-0.4380497115834772,-0.2897201412559675,0.13286085034145292,-0.3068517658047586,-0.421480519599499,-0.32481011735930754,0.08640372952600148,0.020427788227998903,-0.2065380364486161,-0.1305456079965718,-0.38266046204168913,0.4120630619888367,0.29925584048424614,0.32979175258755566,0.027118452934367057,-0.42804946429275553,-0.20332900720230332,0.03602437724203161,0.0842310820700285,-0.10678839499973411,0.4031369873403485,0.37557519830829383,-0.3309426410988028,0.4126650385627527,-0.3199509557045529,0.15615735099569436,-0.4489220478606744,-0.3358052227907226,0.2085503492167599,-0.01397598160207676,-0.13945231011064602,-0.24935039509936954,0.010846701455652454,-0.002752028993654956,-0.04269205749904352,-0.435630087672965,0.3905452055482582,0.2869835852974203,-0.09214210504706927,0.18898010742865873,-0.4020050596611986,-0.15821746244205756,-0.4336061800570885,-0.26579396860427296,0.23671741541320224,-0.313313912489295,0.3966429603223196,-0.03513782349560895,0.10231637189221471]},"biases":{"v":1,"dim":[10,1],"data":[0.01581034836318594,0.0047548274584698,0.03312306992105787,0.018917931303324455,0.00886141633329475,0.022090271879378138,0.02613301918566436,0.04337497688867445,0.017163943767173742,0.03637643437942507]},"activation":"Relu"},{"weights":{"v":1,"dim":[32,10],"data":[0.3005132743436222,0.04513087235520325,0.25567496229907155,0.4324344971718955,-0.08594688182536009,0.04965076642531204,-0.30058468958760454,0.04144325747434246,0.1928990777810082,-0.1920366635465445,0.4473534266703395,-0.43442042438130235,0.29503529851914345,0.016386987055471296,-0.24317931921567354,-0.03734356234040891,-0.1165741234729735,0.418248015339378,-0.2244693822346564,0.07203226259811318,0.3552907463731278,0.06158583620531589,0.30418193586541276,-0.31866589407887014,0.06722918191104336,-0.034319881932899275,0.2831672590857979,0.40613490308081435,-0.2566408259949897,0.448761268181124,-0.16746332030581704,0.20629083066173504,-0.08098372778591838,-0.19937531821453178,-0.09641070682518385,-0.3944288128342416,-0.34789499754477926,0.30208997719713404,0.10847971552747261,-0.10531251849174816,-0.1587385921599046,-0.41989873550695933,-0.05371203829075888,-0.29126075027651804,0.36280149308971266,0.14055703234897685,-0.21339108382365327,0.23711353469973137,0.07489221502318755,0.44896374755869767,0.44270300155488274,0.42985036447187175,-0.36425016990539427,-0.42487989640875995,-0.18100720869111023,-0.06059732420621447,-0.42369571031177894,-0.18812470613202728,0.27522458914371434,0.25223449477730336,-0.25169832855958935,-0.3498802532619576,0.031225350638137313,0.39544934725508263,-0.059115352300511716,-0.19639332986402624,-0.059012699020924674,0.3558511015448071,-0.3573134905975866,-0.3119571673061761,0.32677709791364956,0.10425441619853384,-0.29601973157729,0.13541229023189524,-0.07383451738367611,-0.3836709856875407,-0.12156717540900508,0.140053369510529,0.169741013678555,-0.39236301590828276,-0.2912845793869486,-0.3253955111733027,0.18490160154918572,0.05277046322066353,0.19953130973265185,0.30774803046199295,-0.3127931846107728,0.10682556916199452,0.39293194047286717,-0.3966028627736076,0.4095161695406704,-0.3022897319496139,0.4045310532697969,0.4055857954115902,0.07560149607569028,0.43004685921984104,0.10908927902868558,-0.0682122637317228,-0.11251466729825554,0.0026906274870935323,0.1506059678377446,0.26077203954551564,-0.0934437872456007,0.44430776324044025,0.25741060011253947,-0.17109565338481597,0.02147680040427292,0.13785145619292363,-0.3724013825333666,-0.2804748263708343,-0.33561927649581674,-0.2842030696972188,-0.35385615111354624,0.33813078535834556,0.42717840229537063,-0.39352658955180125,0.29718009562994224,0.10390846656357701,0.33978565898173085,0.3728628076434974,-0.13428140651476286,-0.07295049705450164,-0.40840122327797485,0.18378346138722398,-0.335705872293107,-0.2883502921138517,0.016733742299198634,-0.21000060917405564,0.2943386657431466,0.20534261713223176,-0.22077187292528608,0.27170172791154507,-0.2814044051452253,-0.4371846599519851,-0.29386440497544497,-0.2076948267086747,0.26589104478233266,-0.024333257948026127,-0.4224223101482102,0.17816128438129403,-0.30084557504766957,0.4302230621156947,0.01802561636476939,0.3456149953030116,0.03887573485197573,-0.3632573581366443,0.4184982830115942,-0.07702320563776735,-0.018876140716455155,0.24759726047007663,-0.15128691003795205,0.3265873538861351,-0.2259313765685466,0.06449145075403881,-0.24138614826305207,-0.13739717244988095,0.3457525692153102,-0.00020533953307487495,-0.20225013639754388,-0.08329946346335548,-0.2557908208761021,0.3007872993784481,-0.13203931010028888,-0.01972380714426413,-0.0296875011347928,0.26334301815811306,0.3321723525954267,-0.09081246889095258,-0.3219974600781741,0.25352524940669524,-0.20623536802732842,0.1836599556633697,-0.19167868496327314,-0.3675424762524903,0.12455943385329594,0.350390361036965,0.059763532172193295,-0.27396137272706417,-0.3612818772806838,-0.20545931738837866,-0.11622889830230676,0.20087680470846828,-0.15956685550896219,0.07383876513693018,-0.39078489639970543,-0.3042324238446376,-0.17308341795078602,0.035013524507717116,-0.17782505245381935,-0.25000664596314914,-0.14651847276035643,0.07590847980481272,-0.15419368908470335,-0.07975849814734111,-0.39550544415844563,0.06548557987861317,-0.3483844114090956,0.26330803726897034,0.2033236304777349,-0.11586920203108969,-0.013862159146189646,0.007828927842506946,-0.43285961969718995,-0.1420057448157575,0.3464804287541326,0.16831674197819219,-0.44077523585407385,0.12498141521589712,-0.40536107139574823,-0.20582839743005787,-0.09881264885295507,-0.3862202562864895,0.329292958871335,-0.24994645560824194,0.2217414199917422,-0.13958932169735394,0.31661510127269543,0.4575524355084359,0.22576443024981255,-0.2706421783942803,0.037456912830571995,-0.1643471642070528,-0.20548091762992282,0.042629434528763395,0.4272742625238143,0.38559499258417196,-0.40331500632629425,-0.3270245823622746,-0.04782238775705693,-0.21235575829106,0.41349914920348824,-0.4258366262216841,0.317271021651875,0.03887343820710007,0.430600031557307,0.3687340587648369,0.10126847791269203,-0.40249494665303404,0.3981437223748786,-0.3332523462279499,0.22241227118847948,-0.06241776076860038,0.14395481005363928,-0.35816920504972977,-0.3335210371071284,-0.27124303144457823,0.09878554204396868,-0.043193238496327606,0.36190623416995177,-0.19267731798875234,-0.12931604376802558,0.1507852382520775,0.3286823118270568,0.3526951417922144,0.11117890946068823,0.2555671480465832,0.27689459064336036,-0.29196144254965606,0.3514686843240307,0.4485358490092657,-0.39332445548602185,0.29811813526828046,-0.36581731650790256,-0.4029925742265611,-0.12238175146418358,0.17324933832987208,-0.013725592385416605,0.4001113435944413,0.2511114510132147,0.11559047174798781,-0.4247258279394003,0.2852520433866431,0.30608767915137464,0.39234055648942695,-0.39586772740066156,0.15037499480485703,0.07815852617623756,-0.10739937500896692,0.3852199049712288,-0.2860503383904018,0.10251323820482462,0.42714203246538757,-0.4385622381946569,-0.25308663957709526,-0.18455699403462722,0.17788706456316897,0.4173226875943037,-0.22666543795079863,0.35390936459781225,0.33599907849006,-0.19554561559575154,-0.10803412512786391,0.23533207757119062,-0.3838365620990516,-0.4113935841521482,0.29934520643362816,-0.44274570448924055,0.30846107552971946,0.3289604975985368,-0.20162855751906011,0.24359825671349464,-0.0801662058522926,-0.0022437473676954318,0.11235381094632006,-0.28225293646727284,0.36159460540834765,-0.0851076242197989,-0.10620922055276559,-0.36098538571283595,-0.03491284189134985,-0.06082697702216613,-0.1097405883851171,-0.37941558861105673,0.060360814231570116,-0.21898919293544022,0.12356136926703279,-0.1932284307802524,-0.2260093713804173,-0.2440844981204137,0.2173694095302545]},"biases":{"v":1,"dim":[32,1],"data":[0.018185880072305673,0.0445039393876328,0.01622697540754004,-0.0015198666191554332,0.0488770206167985,0.00819923042930405,-0.0011555537305479972,-0.000027061366797575434,-0.0031670996070712314,0.04854269497895073,0.02903602717266769,-0.004718908697690735,0.012779216062640661,-0.008956885080429959,0.026642314784528054,-0.010763970975633324,0.01295038522555071,-0.000916338966805086,0.0010130464654901298,0.0005573871386273061,0.0013420807712081807,0.07245311827472532,-0.0021370738851665028,0.02277361910436189,0.002228561472713165,0.02985869739827347,0.04336573448235507,0.0028472097582470128,0.039568896764691934,-0.008233562997361481,-0.002713218693274109,0.00036826179169426683]},"activation":"Relu"},{"weights":{"v":1,"dim":[64,32],"data":[0.24477707909397134,-0.015373848345492042,0.06103242647062725,-0.09676933962599964,0.15477745394998246,-0.22451441150039553,0.05276693297497316,-0.12035325360244513,-0.00062289519496756,0.1875486151536344,0.2418342630555852,-0.04213195835782026,-0.16372812772276707,-0.02721816725459197,0.15888111377171857,-0.14140942203650153,-0.12397348524147,-0.02874343959648311,-0.13199201046857972,0.05356022620938768,-0.20693724714874248,0.05680474433947171,-0.12680055192126125,-0.004222951642350916,0.16458563947611698,0.04611455009975779,0.2534441232480316,-0.091716657776316,0.22122081826213622,-0.23997886401333463,0.023615252645605912,0.042871615907475374,-0.20805264442131177,-0.08184562457605729,0.004509417918891911,0.037934714362188114,0.046999363368002006,-0.05228447905215651,0.02803827655163861,0.07173342055761245,0.053277864969753515,0.11645667833264162,0.11342578566153688,0.029728583607957326,-0.23528914264263923,0.1430244614300037,-0.22781273855143216,0.044471656295212776,-0.2385068816109515,0.12706449385986404,0.20897872933001238,-0.07998758300160219,0.11919157581578489,-0.0924464522168813,-0.12089675089437568,0.013019032297534022,-0.2463674865544869,-0.05068545680052289,0.008299540304351608,-0.22190644848103452,0.21308779213354445,-0.07979583798072858,-0.10252483569763986,0.22659646544699313,0.17765699096589027,-0.17491090112274532,0.15683630500942938,-0.17840804213842956,-0.21943757010044898,0.21779582711177656,-0.04877004669941844,-0.07406581840530346,-0.16430315884246813,-0.15656408662261892,0.1016367446002541,0.22677763005899795,0.10914911114615544,-0.09667146553556658,-0.24416553635889982,-0.1509642189832307,-0.10374949306307678,0.06231505669892251,-0.16222131839778725,0.1594661037346367,-0.2227091030188634,0.09774236462883558,-0.22156543186772665,0.06570818814495763,0.07087420718756875,-0.13886246899836852,-0.14931701610266776,-0.16977147793338407,0.23778150025923056,-0.2440068035593545,0.10653359474241622,-0.2195959505713352,-0.17857182609919905,0.10486632164660073,-0.19837041619559237,0.07350434019691941,-0.23591137185628913,0.17260927901695736,0.15352915112246346,0.08121179317456649,-0.0432005766282374,-0.10091986422878306,-0.2223576630234219,-0.051923323029645585,-0.10461364524931924,-0.11512261020141033,-0.11083271187899459,-0.035583524270968885,0.24292535728701792,0.040116414334232714,-0.21753952544583421,0.022370464711263582,-0.1985729590476222,-0.03506849222083134,-0.12116413809983097,-0.15217616059780154,0.04446651857174734,0.21246952138148023,-0.20461372806780886,0.15088954083123463,-0.15875603968430133,-0.2361746619911285,-0.08019791530056514,-0.184621322173065,-0.20779418943858918,0.06562662037193998,0.13102953099209785,0.058022591967264864,-0.055338593150828286,0.08173956091278466,-0.17254412225358573,0.04244899568410906,-0.03971418362110296,-0.2147460442280253,0.21236125158912275,-0.10928428227005754,0.10062656987989946,0.1717765500069862,0.18449133255724948,-0.18131008375546412,-0.23344434542701317,0.04985288813603915,0.14545903076218056,0.08206656020242495,-0.08995943512853984,0.14405792892240663,-0.1726439415065146,0.16156805110047393,-0.1928386046457752,-0.020030733728306545,-0.08113625291176343,0.23415191602772717,-0.0831449396683442,-0.2410566642726837,0.17889569528817525,0.2196529240667921,-0.1776522986635619,-0.21294142456275503,-0.20071361862552856,-0.15332341818740225,0.23870140659930655,-0.20582826836031048,-0.1829689818595814,0.07222432033256355,-0.24085048453544508,0.21294755657259792,0.033860547340410385,0.19357146348050788,0.09380234815490132,-0.05371515334797143,-0.04147086870328035,-0.17741130702856814,0.08403903215722767,-0.06261656670125307,0.22765151622816818,0.07536746844555225,-0.210630590525637,-0.024285037957913834,-0.008857628241663263,0.15177207164787931,-0.06323055463351909,0.24540535405725478,-0.18752004568903252,0.11669487858748027,0.16535060539204027,-0.056461632151535164,0.02862366311672428,0.04945334559985873,-0.18522653404336448,-0.21474379810345046,0.23328715427754126,-0.1598342611715647,-0.18592607949428824,-0.0032833441688792336,0.041414605285209426,-0.004152248831748525,-0.10377177304423892,0.20674390342051718,0.2320719640773009,0.005534474977373973,0.08896643453713775,0.08685899205231479,0.009454670601849142,-0.0004377056128725945,0.10242746879246178,-0.13219149926980403,0.15673724421519536,-0.01648831567020538,0.15260764288728176,0.19466230543579985,-0.0059731027096656345,-0.04549081370856637,0.06371240592394625,0.15671617249770975,-0.24793693805398181,0.20339315464664065,-0.14888447974043995,0.21096520699663368,0.0014534345914750764,0.21077893618356047,0.0017467561956258683,0.07278235078527553,0.1489088001586934,-0.006851393447913951,0.018895625461567245,0.18642502074036243,0.23215342731215427,0.18517780804393608,-0.10693658912855171,0.06973110013799139,0.16467721467353988,-0.054665317489985495,-0.07465188662644097,-0.12921990015591145,0.007198731914857256,-0.2283435856617814,0.014678396631822034,-0.1688308557638038,0.08030238572163356,-0.055057522491886696,-0.07533560813992585,-0.22106863639485114,-0.1912169845674712,0.1261937184954898,-0.10407989405907334,-0.05591322626754747,-0.23664146599729202,0.15759370774204745,0.11637194740622223,0.18243584227473242,-0.19920646864309055,0.03912755631737726,0.16810366208832986,0.13764997104863602,0.24944230773770537,-0.17244322920028093,0.14802129924438834,0.04995065601331326,-0.12399590358554508,0.15536459124429122,-0.12618191016867386,-0.23121267824960695,-0.1149103667682091,-0.021378155892668692,0.24133232933901322,0.07778543246541018,0.04038998282855677,-0.18027947010515966,0.09308990395385666,0.0783989488451206,0.13782305081169474,0.20747005867069365,0.17736282901681924,-0.13224139038181493,0.1823932496094384,-0.11095207876943458,0.2110496496193471,-0.07070982053169221,0.2024641830182834,-0.10174807506838215,0.0775196295342165,-0.1630385779514142,-0.20842414146464244,-0.20239400216572448,-0.23810478158169648,-0.10767295052300788,-0.028902766518117462,-0.12922587958544166,0.07192155312262215,0.11418312396050119,0.03552239622501491,0.036735302206586336,-0.2230886736160052,0.18230341800786717,0.14153013774070883,-0.23800167850853465,0.21602796773209193,-0.08668345724969898,-0.14242542217593188,-0.06882140453335268,0.026197747846135513,0.08516427243871515,0.004600025179472024,0.020933169630476953,0.17584197151919628,0.2005372529413173,-0.13036472797175191,0.029457631074321276,-0.13850965659502007,0.08474884121730639,0.12600187253352507,0.1912222173891549,0.08700782135014236,-0.22250898293770918,-0.13131010397691262,0.09244416272269239,-0.17643865488233426,0.12110746916586156,-0.24902740401164974,0.14011340906433237,-0.11797667532432145,-0.05437329840741372,-0.0853858059757931,-0.06770894877082476,-0.17608784697648266,-0.14176883636246337,0.09017475109175212,-0.06228633829983335,-0.14293030640597246,-0.022534127986548996,-0.19825851554116683,0.22248450803273417,-0.24551939146118348,0.09130741222534373,0.04604454738453203,-0.10761493786690111,0.016863002769574177,-0.11339337643272474,0.029363044619495814,0.13973563677663306,-0.015069900483730496,-0.23138446639112087,-0.23060438899520724,0.06055019486643714,0.07118239903823348,-0.056915331220577625,0.24173013169823596,-0.07395987504606692,-0.11572180383079016,-0.12191314232576973,0.2187395129420462,0.15386353407317807,0.10629495586000193,0.25022751702531043,0.250709096422385,-0.15753330744306318,0.1691541410940598,0.1582448388966644,0.22633200493603706,-0.14336873417250812,0.03539833245249004,-0.09313574414321245,0.06975033144942845,0.031383924007823714,-0.16653740149879434,-0.024318507320043155,-0.11555071779548504,-0.1780881182181933,-0.05303907354528068,-0.03633790780962462,0.2377147400169725,-0.09222601151157278,0.08455223457200513,0.045109486293673416,-0.04960362297712697,0.038437329518739814,0.17528028337013635,-0.09296921137042088,-0.12504028589773603,-0.22974210187803246,-0.09715081497570933,-0.07687038740694294,0.08647330797442827,0.08612925226219748,0.06280689730724388,0.06930695941660461,-0.23612800690096142,-0.040513417884318566,-0.05689706326107379,-0.0825134541011903,-0.17624230401789717,0.09249107758656948,0.12182543648008727,-0.18253650403304295,-0.056542064425527734,0.04088567214764442,-0.14491411679140417,-0.1237400640067374,-0.028609352431233886,0.11788657988661337,0.17342008209488952,0.1967505681146539,-0.15042203503312437,0.06466890553485975,-0.01039844620075231,0.19939329332230823,-0.14548192188913553,-0.19594266901616883,0.24372904742309337,-0.064236480287712,-0.1944665505905285,-0.15223482523861803,0.0114395814163369,0.12217352568806625,0.08201168612911995,0.07456949889495729,0.23786996554821555,-0.23330765568178724,-0.08076310625481602,0.09564457473103818,-0.18503755315662238,-0.10517898162578661,-0.24891589909119183,0.10687169253796157,-0.08667955141261274,-0.07012271781999055,-0.16026013230342537,0.011214979727677417,0.014048139035387139,-0.1246106897669698,0.008053987384643906,0.038601335214313706,-0.22902632909425716,-0.24903621880021656,-0.22300675544653403,0.08432796583715654,-0.13141203747315847,0.23529926437706947,-0.15193663290757695,-0.16042533254374455,-0.16317008976653538,-0.04859213926864681,0.07305174093995852,-0.24207359433543832,0.021937493376535097,0.06734323502698018,-0.11593955032596699,0.049186630416047344,0.19146129254217722,0.08265530528648869,0.20698642124037905,0.04961113550227316,0.1722569754997908,0.13018811181661752,0.1538463387163992,0.20552189650050326,-0.045131878142078224,0.04950833959417587,-0.1837131523276696,-0.11873873591828486,-0.15384825595571933,0.07421015796881675,0.18490734849894958,-0.22159825461229915,-0.1882879761810031,-0.22853886094996187,-0.21701840111412224,-0.05987035470997523,-0.20086428528284594,0.21030213177488388,-0.21278135672937312,-0.20219037363415449,-0.009954736352317941,0.0063522350114689225,-0.06982468552345401,0.11384163916996475,-0.22178324218216564,-0.09598048572970182,0.10222465454097798,-0.15687628701694717,0.043963421453610915,0.2450422511490441,0.23628835583144525,-0.1437976405470878,0.06378523997180706,-0.06211644843646413,-0.19833407786701887,0.2437657947060928,0.17725582198783651,0.2157958404600479,-0.10539773567290402,-0.020242590148091284,0.11985295062496194,-0.2398396014665963,-0.17221511225511624,0.24516266579397128,-0.04353970182715369,0.009106583859578184,0.20259696542723643,-0.17607196837338887,-0.23286641383160134,-0.027449495579626046,-0.23083737322239484,-0.03282645931487642,-0.12682188227086108,0.24053106011640288,-0.09507647484036497,0.00498130139437433,0.015179164048655503,-0.17470954950899475,-0.22229403223555766,0.008647613091381907,-0.02935784958855181,0.02188465858261722,-0.07356057255252779,0.19444129239393973,-0.2067536875290368,-0.229998690486124,0.19423905895080107,-0.1334348736986643,0.004690528027264467,-0.08339033649949637,-0.13336104070393892,-0.20737040259348108,-0.23713710346344333,0.13225839711375484,-0.07580150176063451,-0.22341280576384864,0.152410285664546,-0.11605730658780349,-0.0626163119757071,-0.13013240085321587,-0.01789797875307756,0.06468430878238828,0.1806978630346066,-0.20090448827369,0.1869615607032234,-0.14919390936582147,0.07486917457619063,-0.08518142032795975,0.14439075792257822,0.12733659889766571,-0.07683599229118937,0.21752286244757923,0.2449943561842701,0.1323589108750115,-0.037833743321770884,-0.09247203841774164,0.08377333479464726,0.09784006301284788,-0.023771399901196144,0.03014489947096071,0.12270324002377146,0.007507044595526852,0.18978628283244955,-0.20251224674841595,-0.10049128130656577,0.16970273169421618,0.11482108896847032,-0.0068706735300345535,-0.05719526738365018,0.14823001076166725,-0.1905516064682166,-0.011908302416792532,-0.09646469296972228,0.07713003159188186,-0.006386587116763501,0.13757230989237634,0.09144402231439841,0.04499353236967795,-0.029467549653313743,-0.067577674042657,-0.04015143576401677,-0.012878052642384117,-0.17040868750753715,0.18516266487078745,0.02079451387269569,-0.2353961372149139,-0.13893939080400752,-0.07396979039635934,-0.16970017685440908,0.04566701715867726,-0.2470067914309,0.04559261039584662,0.05895903510270085,-0.06631027214619231,-0.030908953064687772,-0.14031624198320922,-0.18426290638937526,-0.20179737789162952,-0.14739470276701855,0.16511058017913438,0.2334266267923746,-0.014436972720984181,-0.08996626097653698,-0.13581504566584232,0.09293565241892568,0.01790101962957173,-0.11709151880104189,-0.050620707085769344,0.18595562600339255,-0.22318914482093613,0.2403341828827361,0.018555652223071806,0.16411741974182356,0.2323766535079732,0.07076615686153613,-0.20492069154212303,-0.062163838791913686,0.2025554929219887,-0.07837926417419332,-0.07519398535103823,-0.0860519043221465,-0.15684375424888286,0.1727014336141583,0.17657199555582798,0.032306265170320786,-0.042637224979285716,-0.0006704444921906558,-0.08956074230095123,-0.20648551700809706,-0.1710185817859589,0.11193042591312036,0.07471629691117672,0.24751064125253372,0.09361813084100079,0.13644900205746038,0.011300634316538945,-0.06831163479965716,-0.2311959179167683,0.17073971264300145,-0.21534073765943706,0.21994189994487567,-0.005911983031197979,-0.029733578096764218,-0.04257458697961171,0.23977784035475405,-0.2173171438627011,-0.18277130237058295,0.17367133991179345,0.19552592455893236,-0.0733380832851232,-0.18606641987097053,0.042332341384614995,0.0019281550102212021,-0.14146458664406042,-0.02715645757562797,-0.12707199686736026,0.03937388597583727,-0.01933388540529839,0.036746252730914426,0.14165680649585682,-0.042199048576178205,-0.16150386329705452,-0.06279812835517104,-0.1437211018418587,0.2188015959344489,0.03436494086174618,-0.12963157865830774,-0.1267446584594721,-0.0839631988495931,0.23662702629134066,-0.09164589920283579,0.23393691975555522,-0.025046433169138002,0.23553494770549765,-0.030263002008849606,0.226332126153623,-0.0857812495106448,0.1798723866187358,0.017881602624322538,-0.10597859479678196,-0.09657044670270785,-0.15612682639301778,-0.11517875815176525,-0.16523426936941932,0.10045503728258534,-0.15373026593952666,0.12796144378277363,-0.21205954424483406,0.16997659006842936,0.22681727513073613,0.13980849649278315,0.2130921637386918,-0.08593363530437227,0.21178324660229322,-0.16309467710283831,-0.2487038930689269,0.0664010126929371,0.16616576856153148,-0.20646328046623433,0.11394388607411145,0.22468513301636375,0.12591099034058229,0.1689031410093092,0.11558376520008055,0.193458230701369,-0.09741792248044925,-0.10196130105554654,-0.05919029073093857,-0.044283226306496185,0.24721795345979075,0.21095045110351993,-0.09816980496576339,0.18061674454653118,0.20957832493569498,-0.24455945028026527,-0.02305533769792967,-0.03855487473905069,0.0383812441099716,0.02499375113563481,0.22643052272153136,-0.09051547703314398,-0.1168476032431861,0.09338621779983779,0.04609795535426221,0.04533196817218493,0.1423016005374249,0.08471685334010873,0.2316659357012316,0.16152956201672988,0.22623878911538095,-0.19946547288785907,0.22264623242405993,-0.018744617096864476,0.10269902824409619,0.0816110491508759,-0.18306828331472216,0.007163553518948733,-0.09571373952907135,0.12640699047817863,0.1326340432660724,0.1673813930370305,0.22908141292516787,0.24631917558063066,-0.20399875724565933,-0.1357463766738291,-0.23543048930698496,-0.1182116243272267,0.02238586545744555,-0.08350400171474835,0.06367279119428684,-0.22120717009396415,-0.1806490652902391,0.23485091241871528,0.14949609851160273,-0.016599405333821083,0.10243560315418226,0.016671445748255867,-0.2232280342368574,-0.11180612024257137,0.007758684107761022,-0.15423680473159299,0.15659391172219664,0.2004095372436999,0.19042691075878307,-0.18998766636121325,-0.16605718167099573,0.19169160229995436,0.2163640850603724,-0.047800180880778864,0.01716087607730628,0.24916895221986118,0.03533957420741763,0.11181719219343005,0.027403162886655327,0.0474834718273771,-0.15627005961081503,0.037232550721254094,-0.1411191364615253,0.026839045951450403,0.1172401695024327,-0.025047188441323025,0.006966822705517542,-0.011515643087864078,-0.11763760890305291,-0.008988311268984472,-0.03953204157594195,-0.11519486052216925,-0.05809719400246795,-0.10853358110267111,-0.17337903087579512,0.2169570718423319,-0.14217672074088283,-0.07883019352187026,0.20293552774159027,0.1998534667383162,0.2347273940840094,-0.16070164728892472,0.08247242938577175,-0.06930602022402198,0.04821598482559213,-0.1785925273064793,0.045925013502751,0.11325565671300869,0.17708883437400819,0.03662256797153073,-0.12286556965612955,-0.12013349779231246,0.07583863668520731,0.05333538317920859,-0.1066984782734693,0.22984909617869298,0.12309936390803275,0.2483248640718585,0.10495774613857212,0.010357637915901285,-0.1020352907117105,-0.22521132061817845,-0.21708531295836583,0.07397350010794584,-0.20356624066829965,0.25263833989284823,0.03973309980505873,0.18677719025240994,0.1232841644043239,0.06234723500869393,0.24721785268795474,-0.08356861187278308,-0.009223578433256588,0.15494026043507014,0.12218569563431315,0.15804839904129858,-0.08946858718925724,-0.07555817803552023,0.21373812502673772,0.24215866812515838,-0.043619311409710274,0.06002305571063793,0.006930764487687912,-0.23039327309443267,0.18346465121813543,-0.18204973667708307,-0.24121907917638274,0.16337312223396333,-0.2078676181639531,-0.019181817976028092,0.08965281431057746,0.02591611756905086,-0.1845892602119316,-0.18009401504983047,-0.22625180275322623,0.042216708168628506,0.02273471179334539,-0.11219046839354847,-0.17567540203739151,-0.16706562559111773,0.16213299259155997,-0.14667170223557077,-0.014082656310564805,-0.03651416865804185,-0.10730160291413467,-0.09385715563451505,-0.10074072181535598,-0.2168844665225291,-0.12128847977244735,-0.2318526706935443,-0.19395338945118595,0.031894458817118575,0.07349338113580411,-0.11671717028690846,0.22651983380920634,0.09923097185988404,0.23310501421536733,0.21460326594985285,0.016916834991550344,-0.151374717401462,0.01905534645943655,-0.06175745697157079,-0.11497835731643553,-0.10598109043949161,0.08073585458514343,0.15314843863834196,0.06462926516329931,0.04828633797251274,-0.07117721515337111,0.03247930113335069,-0.17013793226118873,-0.11420934026620917,0.13459188768480998,0.07209796775455454,0.13820550738403223,0.19230724511842487,-0.156678603041158,0.01025432280672426,0.08849221191410955,0.09564474488533678,-0.13972413673415338,-0.017538418270437978,-0.058843471261736634,-0.12948772951871224,-0.12657249029312426,0.19470550886884624,-0.07529078574163874,-0.18903010582778296,0.15042625935417225,-0.12719907816465734,-0.058044481358551676,-0.0706719909477284,-0.1030976019925499,-0.20600199367014474,0.13268997675547078,-0.1009607351081509,0.050467509283690315,-0.00969798937530637,-0.1264634683425507,0.0908478351704068,0.05069061907217508,0.042666512648074875,0.22736365192539074,0.004683669302546797,0.01897541805483087,0.1402911674960142,0.22116003656000233,0.13761572271900022,0.0049385350069466065,-0.12458004747981367,0.24201110428966027,-0.19009249217658847,-0.12348350926570924,-0.25081134232310554,-0.09327117120176232,-0.04128891758311466,0.24626248060109912,-0.023474275897384225,-0.09464771660776937,0.047453423649008786,0.10287139314470446,-0.061108420666297854,0.00729863449353694,-0.0524768035818604,0.10085408106004744,-0.04115557955211682,0.10143883321259899,0.14687353174687276,-0.06727847800528075,-0.24911582784659173,0.24725979224765537,-0.0399677264217056,0.002113941519167266,0.18413732208985298,0.1162637267639994,0.19190897767854967,0.014319570196917139,-0.03983414180722354,-0.24253915923033234,-0.10693717842034643,-0.24272572254602182,-0.11250608666703124,0.1746495180336838,0.1923212565368538,-0.10560079154234982,0.055879169141933624,0.09930144237337918,0.17450519795562858,0.10930907631568505,-0.1317798994523539,-0.02150584726651537,-0.09210152473454902,-0.10545819392896191,-0.08165373748686673,0.1394777536921962,-0.023948178141804097,0.09062189225401442,-0.02653270621145624,0.0453543077837559,-0.11851206351502364,0.00906341314449453,-0.1677681432536263,0.062074863047345864,0.2252875430077385,0.02922687489537276,-0.07379039044850892,0.1519765222771263,0.18403226744737536,0.20497842415714215,-0.018720000146145842,-0.09173060765542748,-0.22276649150694353,-0.1355634074829761,0.02027942847651254,0.23344504003461064,-0.06438396869681352,0.21594466846336116,-0.1610696345315103,-0.1498875672498714,0.02572022775679358,0.20311362076623046,0.03316280245259688,0.2439656921182283,0.09619921017005545,0.1411409731235311,0.156450746151454,-0.05402774328603848,-0.16325779978263683,-0.09147395544136463,-0.047984065498444646,0.05993961694554753,0.14119702646956256,0.039451759380354806,0.016158134377253237,-0.11982177737015044,0.07708516890301088,0.24748925168343378,0.015957963930812682,-0.17078084851144545,0.13368656612862237,-0.23151958858467403,0.017019055361276722,0.0699568616995773,-0.17352786236182954,0.10397893795271564,-0.12022845858116833,0.13869314311006736,-0.20654521348846172,0.12401478666260275,-0.0019753994724250445,-0.11819582147392527,-0.08178138121682561,0.21027082469028519,0.15371145515251516,-0.02293278851472372,-0.19871172043703192,0.23699083885451933,0.06571947301295979,-0.07092649168823578,-0.14158988871169556,-0.08591799615807046,-0.20923549623920162,0.022863634205796474,-0.011913983548353472,0.0510042821403177,0.16531436087984114,0.24454284244406294,0.032039508532644895,-0.17007044942904184,-0.17221038016402374,-0.10770437371319268,-0.2074353020343613,0.06304539574241831,0.11064171450097053,-0.04353920906086309,-0.19681521400670982,-0.055702233957253676,-0.14293304274802007,0.14478575952074538,-0.08538258860537286,-0.07524402594822506,0.10549947265023225,-0.022377940093692768,0.09605769389750471,0.002193948344692671,-0.1675493983034041,0.05496597329821315,-0.2019233503743253,0.10994098351526964,0.04301058541198891,0.22974586420299306,-0.19285065787142217,-0.06930324984433373,0.10777806344980208,0.08471671234536876,-0.18266044892960115,-0.15657449989413855,0.009507764062891444,-0.018684195688123177,0.029875825658059612,0.1663742130198807,-0.11802531796312442,-0.21016443341829857,0.24512408366939575,-0.18498615440471022,0.11065161231470526,-0.19536844860232672,-0.0774730422707125,-0.028663766816869902,0.09578067441956598,-0.15351942777316346,-0.2000017129121369,-0.24647167817450644,-0.16945730920792806,-0.07392855269518378,0.245532571813603,0.08505801700797329,-0.03964605072708005,0.15726916216164977,0.1622542659304974,0.015732396706519963,-0.23190517213243483,-0.18348225897955175,-0.0966599603343068,-0.12337274433332408,-0.2427145904374235,-0.03196389416030525,0.14555304329512367,-0.20511675425311984,0.19211445005526512,0.15891025528989566,0.02878889511965944,0.15757241695993937,0.22924825888304226,-0.13923505966325148,-0.1793541426182146,-0.07897695782911279,-0.06638960435637732,-0.1822323689097664,0.2169691108597137,0.1442176628574428,0.08203720945299163,0.0769654880544635,-0.24357907433726758,0.16185155243241997,0.0318491579673027,-0.17976797938971356,0.10670379622247105,0.21693453649814698,-0.08699691870420606,-0.018181036777206335,-0.0012050224385178577,0.08382708977175808,-0.23647682279359417,-0.07955443342241823,0.02548886398163901,0.05552943792877543,0.08763288862222271,-0.20715436603933657,-0.04552612428058959,-0.019675934230800003,0.14775294761545207,-0.12031840496649088,-0.17439633273154803,-0.09377497962997396,-0.19280882468337626,-0.21943803189723718,0.0704424679000022,-0.02909710883812643,0.2147871956912902,-0.14504640404203323,-0.21951847743716643,-0.22091815023650938,-0.09943263664784996,-0.11378528561336661,0.138220956654434,0.03536368598997522,-0.1302304447508878,0.11633515528382175,0.019811502839445883,0.16304078243809408,-0.14786441735649314,0.18369968162392628,-0.01931900121128541,0.15395868134479024,-0.023662043416212104,-0.05698223183152078,-0.12410421775567376,0.14004530263914064,-0.2214724323443742,0.05616200149859417,0.03410201072340732,0.1239090411383688,0.09094711998650687,-0.18230530063624747,-0.024505991021185992,-0.21930339073603092,0.16526392867274425,-0.059174768524403884,0.07783193110108089,0.15114284888402857,-0.16147593856272652,0.25615051477943823,0.13091292645985056,-0.08946395103702078,-0.20380291784811416,0.0344459636127643,0.1890621437161322,0.12913547217571417,-0.1320599863591004,0.02475395384809633,0.13405367344823974,-0.0544158876070031,0.09343790709480371,-0.20933779067141384,0.04253450630972686,-0.12312835453968053,-0.16652275963166197,-0.04700958699237526,0.03807678293720022,-0.19728657857192247,-0.05944064775090114,0.12527264568801433,-0.0437797132494952,0.22680809042946953,0.006994458877060263,-0.1403146949535842,0.010294525119017895,0.037907560848476914,-0.11577483318658885,-0.08726935789512677,0.09805488668529021,0.18793790621040665,-0.0013024072317394174,0.12495150533291788,0.16096056543706283,-0.20932293960126916,-0.1908025958986079,0.1894481148205789,-0.204568771225389,-0.11721520229703508,-0.09830348051995617,0.14225213818143115,-0.21296776282853672,0.24786475269778097,0.14509480137584432,-0.03684674114139971,-0.026031299270897177,0.0722322755055389,-0.17645825189491673,0.1832156609894807,-0.24205689755801488,0.03395609894882253,-0.22329528145247088,0.20179844572018807,-0.05276091381767821,-0.15187601502968998,0.1516124803856223,0.10324266212032646,-0.13728176001920586,-0.2412745867618907,-0.1735981248113653,-0.1287088264636938,0.05730685234336445,-0.09511727425732852,-0.09191404106423302,0.21560812604982801,-0.01173071354642361,-0.058077539220914215,-0.08060470043100787,-0.1474937145336028,-0.11335615349382099,-0.16590055580334861,-0.07185053364271433,-0.2181084697871178,-0.16199064767038057,0.169754612360137,0.22414508809778455,-0.11927124425897208,-0.23164986732537915,0.2305690810266549,0.011879982739964406,0.0027389614159632975,0.16856982969258988,0.06853155735263682,0.11485172912790394,0.0761963913480219,0.21654703505572975,0.1923159015600307,0.181468668096041,-0.20929108971159868,-0.019795982067562088,0.09474725666738777,0.000854440602376015,0.07373709655724356,-0.03668112606626814,-0.11337235366218533,0.12187182404045174,0.04076435139008828,0.22181025786775319,0.16032713413228109,0.09358109339639135,-0.0468544590379254,-0.013074931754078017,-0.07833293030767847,0.05690945879965694,0.21452008634818398,-0.14592282216042893,-0.05792556218461396,0.009069391829685858,-0.05265475406617748,0.22899252724336006,0.01958683373533637,-0.19461514723862053,-0.04565539346119432,-0.04925497798867059,0.1166564014421168,0.09268874116185853,0.1977373437433603,-0.12746583490764285,-0.2186841746845975,0.1489463944142422,0.07521586346434983,-0.12154350240260918,0.08629427290827717,-0.09801714909241023,0.16885811805888928,-0.08413871796763502,0.07154707157926421,-0.11345941581650239,0.11224506236299095,0.22319288558475256,-0.16866459644742973,-0.006342699386452386,-0.05405776122244443,-0.011471956755012488,-0.01187528500185886,-0.22220178146954359,-0.11900550530334704,-0.004232735332720492,-0.11621787645138394,-0.09887998116226768,0.1719953017235103,-0.16955769208329396,-0.1309890794095572,0.06456514453524807,0.13032761367506354,0.12700260555451304,0.15076245941793825,0.0586154111594531,-0.22558156111315872,0.17159803060663067,-0.24625939271511096,-0.018429778451864328,-0.10818336735577849,-0.045874237812980584,-0.22068449915975596,-0.1659150429296221,0.11046815779616817,-0.14016214445980124,-0.11611932751826119,0.01956009698541657,0.23868561258880452,-0.08755293706212326,0.06114062398966408,0.18132507532326936,-0.045066956169840244,-0.1466385854386343,0.07838640110803312,-0.11943620912918888,-0.2384440208234316,0.008703512699989471,-0.12147640042614938,-0.17163085733154076,0.20562225787100719,-0.0501647089178825,-0.01867257113140852,-0.10593539993789237,-0.19173987042525725,0.1014051312395613,-0.2264196821275905,0.24350438526732732,-0.007788332298880109,0.16850986352703984,-0.21560948149721268,0.08702075386373907,0.16670603448025448,0.09625622550972675,0.11306745836835279,0.14809319982863975,-0.24020186530760526,0.16780264296013359,0.07612775065805376,0.23642868979223666,0.09803874135179104,-0.05782413836590249,-0.16228714678818865,0.021394590656223542,-0.06826408488383051,0.22658603478740053,0.12583950603115568,0.03308028856723391,-0.1905819327131062,-0.11279304336909936,-0.11077929352050489,-0.21951187317435555,0.20822786757309142,0.257683765605399,0.07106375372438103,0.20204604035046742,0.16964789598625285,0.0684143923453798,-0.16596076549234645,-0.17618436653022182,-0.021605330250672655,-0.17634652163121484,-0.06267106927401374,-0.023956342610878367,-0.11718556105506212,0.25133309841501617,0.15100263960589136,0.21273914130534854,-0.14311762283426804,0.19980536586375636,-0.0014909295839615718,-0.15260656849739143,-0.011925155178958313,-0.013833892384224196,-0.17207981340019554,-0.08481735534771576,0.14603080467487514,-0.16287570443852717,0.005818778495600832,0.0968917605654889,0.03963109694625336,0.027113566999754337,-0.08150833627660752,-0.016725433612524803,0.15278718330888633,-0.21486106504804048,0.04148753330968016,-0.12023727112251831,0.07012002493911378,-0.03165531679409356,-0.0830242103150463,-0.1781107578904691,0.18577932124447208,-0.025332873761379993,0.020193025130838618,0.2394072669723959,-0.05400681699562627,0.15598273089130618,-0.15392516983625262,-0.04402761335216834,0.12906198140626363,0.09470382842380344,0.12168804446298417,0.0572178761210137,-0.24294426683540166,0.05651437093683547,0.07205606791870649,0.05208930317153242,0.22791473781302646,-0.2331874012606229,-0.22911840798708455,0.0744110447583396,0.05756960191633194,-0.14970930753379838,0.015083708909549189,0.23813582744180445,-0.1327064860164826,-0.03764079460372335,-0.24534248188720384,0.007293447408022718,-0.2250291679047559,0.07209423845009785,0.15738912302113653,-0.01455826102615401,0.2512377222324871,-0.14345060684769229,0.10734134685629992,0.07188709953166435,0.008686599377643045,0.15037717329917374,0.1973651575718978,-0.08470685393570992,-0.1940180842614126,-0.04311879902141114,0.16959921576919804,0.2308958724033074,0.18074707767413487,0.17309083244139978,-0.004443232538069994,-0.1271010187700594,0.14836904364224926,0.18774087051066807,0.053971850134119585,0.22406399250829553,0.1530270509313865,0.10025579392621191,-0.04090726389531719,0.17221014120891806,-0.2119404030109978,-0.21953309417283448,-0.08898783614959757,-0.12658603578454397,0.03578321079579596,-0.21786454104789632,0.08381540701902594,-0.07565953842265302,-0.06983114914141225,0.2299381017113515,-0.08309367654737639,0.20467459193046258,0.10940166964557634,0.1257147600236464,-0.22031283009577596,0.0685358993763962,0.003194805284662416,-0.07179487678320291,-0.020777679953927992,0.0815104787449318,-0.17100783112950158,0.2133669304012366,0.1902912697607666,-0.033358060136144764,0.06313020952542979,0.11600081241163751,0.15497953517142818,-0.21849762444612492,0.10219524351108827,0.026164548889902516,0.10241849403218191,-0.114819391585981,-0.00998225312282263,0.20203422141850055,0.17346503733059435,-0.08392213838453064,-0.049201650265194435,-0.1732653748118605,0.22547227346706541,-0.05476656855776763,-0.18992504615232048,-0.055523069604945095,0.14261776390300793,0.08579831266028902,0.1671863792072267,-0.18444758356692212,-0.22238692352544745,0.08293959592654955,-0.014266024770753602,-0.05741126871971458,-0.18548980273472362,-0.10638927658140829,-0.0013546944490953807,0.09368756976188367,-0.015204380040056531,0.1322243919959839,-0.039825151679594696,0.006235540284386611,0.12951541886151224,0.022323682899845494,0.16335634969706234,-0.1292948226892662,-0.0008065576238936391,-0.19250098853865227,0.10792783842477817,-0.23281878040643467,0.19655934967124555,0.18180796899322937,-0.03494307830642236,-0.084067457358005,-0.021307676346858755,0.03544573162171807,-0.2025448324782753,0.15069734461958723,-0.15333843050346177,-0.12614008113264916,-0.058794052699733076,0.20146389702955952,-0.19354383931608565,0.18285510244110564,-0.18014432115805812,-0.019466057984072183,-0.025112857644026588,-0.16113354132760968,-0.19251325502153133,0.10637206431536096,-0.2326368246072137,-0.16226589135189623,0.004156535971603887,-0.07940674408697758,-0.11006767447383789,-0.11290096540930024,0.1911948775097407,-0.021134944157114952,0.019803902085842637,-0.10584724377465649,-0.0016211748821094228,-0.06330790518622523,-0.13734199375183023,-0.2351050039710505,0.039089744143762144,-0.004771598634031336,0.21640301585053723,0.11075350569941754,-0.23186667761584143,-0.20009785823795587,-0.12810818464042187,-0.08982734683272364,0.16434525474532394,-0.09148007775868346,-0.025354510051903336,-0.18226686570397316,0.0733482846203968,0.07736982274324997,0.17343552625520336,0.12545138943001666,-0.2097753495321986,0.06203514929959801,0.19479672513590734,0.20477903313419663,0.17808488393554353,-0.09451841595576989,-0.023993687515592072,-0.1745784505446791,-0.08087738181527084,-0.12660108178199034,-0.11894241667663942,0.09357340413413952,-0.1788522634912137,-0.1302092560444389,0.07228687317784464,0.18661194260493036,0.1892643137302802,0.029266743684465833,0.15843328001265822,-0.008339213885195864,-0.13558041391699685,-0.003801350982636021,-0.19722873668706276,0.16327284498133104,0.23392159223883394,0.017989804627834696,0.24760436100050168,0.131097261047626,-0.12619305313095466,-0.010118916262910147,0.20651442906838602,-0.07265563509114245,0.033491853598833464,0.14935625041872538,0.19679411753234957,0.10499979404014748,-0.11570112922212625,-0.051309697399001354,0.1768793358477281,0.2180900488911373,0.04020306950150227,-0.0508195651054312,0.1764724894388621,-0.16794248975228712,0.11351077869259395,0.07289263958329935,-0.20200832860081633,-0.0779583309417909,-0.12753792140136921,0.06344830005335259,0.19269947644517313,-0.115860664779041,-0.07472839809318314,-0.029666246804635806,0.17758353731369764,0.10604450160204087,-0.23457800757694738,-0.2363677955355658,-0.10827386504680264,0.0575838057750114,0.21941560676516406,-0.11531088999027073,0.10351936825451478,0.12158672748251026,-0.10580200818859942,-0.23563170260021352,0.1758975378682266,-0.13833844263114886,0.23109820270893755,-0.09736122539456325,-0.12929683487108198,-0.09087690510531805,-0.15875321019979396,0.11717767271305021,0.122034076197359,-0.09674473875380106,0.03538270191630138,-0.14391073707312171,-0.13513717624107022,0.1444982285701757,0.1435361431795512,0.12489894287539362,-0.12064531227371315,-0.11505107209638048,-0.2143989066713306,0.19041730280646996,-0.04208969681611856,0.24878595119200045,-0.0172504588745211,-0.07630464208028005,0.20641400702046334,-0.2195172983225136,-0.028563755410247093,-0.03308309782084322,0.12112992354526288,0.037128890606859845,-0.0987648974011389,-0.10068768616610133,0.00987723910511683,-0.14776791635624045,-0.05137674865537322,-0.07988176663649399,0.06497933749002997,0.16336621182606542,-0.21590216524248712,-0.14327114901144933,0.15861915095709914,0.15559343094749903,0.11093675891033761,0.009841418294470248,-0.12363332473136487,0.03933095156269841,0.01544250875349312,-0.0894913529067494,0.15675832763079775,-0.07214692697490521,-0.15271912905372897,-0.13519705812562136,-0.05777095647798512,-0.1799474347379213,-0.029214460293481573,0.22099199012464527,-0.044535160797867845,-0.24822703475331645,0.0626914415178599,-0.2415047922225907,-0.05924585921231849,-0.03237961552928784,0.1758361633656941,0.0032822130519398404,0.185926909076533,-0.17413370710020235,0.036274315675878833,0.04971128018668435,0.24297629663704484,-0.15950080552925455,-0.1763455852229359,0.06682872834911184,0.08158045836409877,-0.0894335623478022,-0.12819074006396944,0.15799612539100052,-0.09295297317926185,0.12061018612500292,0.013721147937500086,-0.21167083199621162,0.19011017721301043,-0.24893061531122523,0.22507142104278685,-0.17386263302691413,-0.09411265116991946,0.13063865205245323,-0.21819998943972627,-0.13430727711404347,0.10021647322830358,-0.17726654630137806,0.09760096366335017,0.0072154878070032225,-0.013545335109702843,0.07070647119230779,-0.076608721296027,0.1787418494501628,0.10164203305667222,-0.22889972356361088,-0.1706215389990077,-0.018490367691091216,0.2303577624297573,0.1834316347209493,0.09541311710775187,-0.2186223262176033,0.1065553812544755,0.20176464087179924,-0.05160011642550022,0.15154429617328435,-0.13616503488092002,-0.15782571609415372,-0.029709312622184725,-0.14622069167393464,-0.24101060348139008,0.2379549787567515,-0.0455017715855058,-0.03745822792950496,-0.13284080886563268,0.06157647932753701,-0.09182823175857206,0.24746374963907858,-0.22654097400890294,0.24311495132451233,-0.24894544520322115,0.17466552900031784,-0.14479149959225623,0.10689889535972028,-0.02784901939650542,0.05867593828737902,0.12772051067996434,0.17410283425599535,0.08442361377674454,0.12207345702925752,-0.03957029379270108,0.17919284643029376,0.08721122550283125,-0.0404976113234684,-0.166267335307592,0.10126269211695241,0.2108057955178592,0.04550485576577283,0.11727919134138436,0.15841313978335914,-0.08529277867313204,-0.09744181662188468,-0.05857746904470717,0.022488411142914822,0.23016717674219037,-0.1923043212672866,0.04902148713894013,0.15631926566799292,-0.04693596635724716,-0.21626508359117405,-0.24204521116495548,0.13186577756870452,0.015067462208935038,0.08750825939493914,-0.12354146333094097,0.047403672974095895,0.2113316278391899,-0.11104473028310527,-0.04324267075555194,0.11092314243993033,-0.20477393328957083,-0.022452708249511365,-0.1735232608990097,0.05182704529771651,0.24344829389034361,-0.19753302785648894,0.018648772574535198,-0.16383071655706452,0.1026205328089536,-0.20468310012020743,-0.23184528464458087,-0.07829298311503191,0.07357291318023018,0.15577240697952247,0.13179907777813626,-0.11260273170017808,-0.23383258149956637,-0.0826120710316471,0.11222050751800043,-0.05602368066831121,0.17712544002097563,0.20067995148676823,-0.08192108078444846,-0.015233989443417415,0.1658987043180062,-0.15981560213433152,-0.24922929881403633,-0.07607387467122553,-0.15806355260614943,-0.15018802605965084,0.18116607026333273,0.10220598098300077,-0.11989122531932987,0.04923551456783152,0.062353784184327,-0.1800788936979529,0.2088687687135868,-0.22531124419962015,-0.04390211599590992,-0.176689847063276,-0.04948138150260618,-0.008875773124531222,-0.13354981596549217,-0.0718582137699789,0.19131184716148908,-0.02752525168142739,0.24665350361723737,0.15519357480615492,0.051145396128801035,0.02576720271490658,-0.0870496014878346,0.0478496548727157,-0.14046238932391206,-0.1831029530540896,0.14796378587113837,0.19082683079408594,-0.017176127017851577,0.10352789305181305,-0.04915360649298519,0.018700814243282207,0.2520922586436541,-0.11186150275136807,0.18206846652150221,0.017249474192855958,-0.16411894491544587,0.16292364980822102,-0.03721514910265734,0.1352971451160276,0.2270647671264728,-0.1310642731386021,-0.07771188548304434,0.16468673417044935,0.25908237052483096,0.14732482291881613,0.24786854876321252,0.004668992185710931,0.11149703770164542,0.10480990032887912,0.104767226183331,0.09322374676383378,-0.015108316901920498,0.22192736123712625,-0.153721326737422,0.2027919643058384,-0.18369178306200973,0.17271296199315062,0.17650297830634704,0.0004694878555456628,0.13081502263273795,-0.09029770746678926,-0.1208598073454496,-0.175141604298806,0.24418450279864276,-0.15051156411872685,0.139693860287354,-0.1587022172838624,0.08707830601296553,0.2345977932592336,0.10275912444575598,-0.1441104397912148,-0.22094356763838938,-0.1067019047839147,0.1946127279095397,0.18961529032591606,0.22464690000098278,-0.13284084609715469,-0.10405272354344003,0.1599983183602017,0.19089882061327906,0.10269342590069948,-0.0926131494873457,-0.1507129074171057,0.15332876521519426,0.03545484440057737,0.21329386781266021,-0.20315597461974533,0.004883119469510301,-0.16808443525871483,-0.14077163854134858,0.14961854280070214,0.08397721755211883,-0.15695040251725187,-0.07907930874716416,0.1227163868758951,0.21716004391177499,-0.15461510763951902,0.04823584367234875,0.19184644621416558,-0.05400881133422648,0.24900203140263555,-0.12307920863364119,0.2069239050318527,-0.20105553910762658,0.13238574853020416,-0.13046005266926902,-0.17988265581158744,0.17054116970934344,0.19457680001529692,-0.15547041999490308,-0.2483402260032044,-0.077728025880523,0.2212334549169477,0.04732628852250535,0.12707035758149915,-0.07084626501815747,0.04584973086040088,-0.16518748094405739,0.05632326814372062,0.03604606032177512,0.036175997232408524,0.1253803405171441,-0.11834983620199568,0.17843954542760546,0.19229084764304197,-0.21136170618479966,0.16685520661030406,-0.22859393223052993,0.2496688002392905,0.0029879747362125276,0.021326073069263873,-0.2118246674356331,-0.06299678025009621,-0.008644587538355158,0.19316302526695706,-0.1421356044986348,-0.208995843525679,0.060067016197700426,-0.15293504197241123,0.1442336802274859,0.13172213330810437,0.043250350046522626,0.039327956638172575,0.09199580925022774,-0.0524703441217884,0.23200280497088366,-0.1874048716120664,-0.026232791916542268,0.008122472103086842,0.16878547684170922,-0.06193103355998667,0.13673246199055164,-0.16656498152134983,-0.1980084640166977,-0.19185207182522018,-0.11267248567282408,0.13869445099248337,-0.16564615801419877,-0.00908335083993285,-0.19529155481594682,0.05422952267506904,-0.2496464171943166,0.13588156307627125,-0.2332046008708266,-0.04411382309291883,-0.08980591524366469,-0.2275060358071018,-0.16264995188130493,0.10858646677049963,-0.032733446334722076,-0.14095614169628637,0.0413541366864397,0.21027431160414278,-0.04580831149288161,-0.24080621525386595,0.018307375601986323,0.20738784905938404,0.12226193265662533,-0.1581346105009132,0.16345104449965225,0.04048929305947483,0.07699792770231303,-0.10120947372212022,-0.16645817938965668,-0.007617318720524445,0.011392167102767537,0.23325470303889745,0.22659923954863206,0.07050211877606656,0.03813377544969498,0.18876342140580107,0.13887609257633138,-0.08303440833605256,-0.04691894583188424,0.0015407289115784064,-0.19322888658224305,-0.10577201890480638,-0.08616145688960172,0.12116137895557645,-0.15792220696668555,0.03421225809162079,0.018739393042539857]},"biases":{"v":1,"dim":[64,1],"data":[0.0672313802318627,0.004749082603134911,-0.008636976153070918,-0.000026172930505933423,0.010041876073844725,0.03668600008495318,0.0006796014704424042,-0.011259765705443795,0.023198329925720004,0.046523925678073466,0.0,0.05168485013172451,-0.0025315919684349647,-0.006646073328633734,0.008486705986612787,0.007529225984530583,0.00012287342214433673,0.05276033817615329,-0.00006054156599622392,0.03966052623771778,-0.004997098144396326,0.018609737852235544,0.031480467998340506,0.0005861511550777523,0.04362532633195638,0.034177318100523754,-0.000051074956313887724,0.034996610953959055,-0.004434844917329777,-0.008822166643102534,0.005162389186318448,0.01949922853494606,0.011400582855747746,0.00016327183183691284,0.01972436497803457,-0.0003203957044604553,0.03248326418899809,0.0037967890873948974,0.0013120152788454835,0.005490331793547383,-0.00021464752795619593,-0.002174401861178613,0.004946265828134346,0.041070611624463516,0.01447752988091082,0.0484235495909596,0.010638249437478218,0.007366723889378493,0.00034346987098891706,-0.00006879752090228769,0.019085579776778636,0.00891585809015944,-0.0022580296399686236,-0.013944311454741414,-0.000896541139267954,0.02327899897540062,0.03250265376832557,0.0000442990800284076,0.049150052950299145,0.06441766376963078,0.06655880678903624,0.0016529372893850504,0.00013143398693796492,-0.015635980357631956]},"activation":"Relu"},{"weights":{"v":1,"dim":[128,64],"data":[-0.07506026077500536,-0.1764384106647852,-0.17180736488867882,0.03615688534838096,0.07544532115350441,-0.044816642485886904,-0.11529164735339291,-0.06287023293694709,-0.13735752278163124,0.018413883223904675,-0.13229875146647402,0.07284463882378696,-0.04628982275895355,-0.034808011238328794,-0.12390325357607809,-0.12364212625724338,-0.07122375716989435,0.1698299383637411,0.06793272605136974,0.14699943059090456,-0.07130818407739117,-0.0171596970230217,-0.12077563782002966,-0.11248472564081795,0.03450827943336234,0.003915782398297189,-0.009486230527699042,0.10196382190705677,-0.08579682466631292,-0.06945542949603085,0.009539264150022002,0.1580829021272321,-0.0965120787945632,-0.15797530654332095,-0.13924889018007713,-0.004036954319498606,0.15367712297445982,0.15211903000207413,0.02750605846580321,0.10338312157211375,-0.17368965761371416,0.11691364765634144,-0.08652453137358963,-0.15922866096288257,-0.04281497147769213,0.15722738435306804,-0.013351774552614293,0.17027448056286854,0.09749848754864711,-0.06179567724525769,-0.017944935462318637,0.03454242769320597,-0.12126526231135447,0.11369100921466145,-0.033427988989078464,-0.14379683947112357,-0.0003641594180201412,-0.14977424511528678,-0.0982376912458125,-0.09915811713307264,0.0607377017357894,-0.15938968542273246,-0.08801322624915393,-0.020497352621439105,-0.15279315167814436,0.10091255686196748,0.13838108607741684,-0.11841756823047248,0.12191024538303108,-0.024689323426164086,-0.16091628877057024,-0.13113410314804327,-0.09779640834811244,0.1277908624282344,-0.12869743078142656,0.1529444871508478,-0.07256024791440534,-0.10682777494650914,0.04302248376320735,-0.034576178399819926,-0.15044441908237033,-0.13679626656061306,0.06402954912588456,0.027801811219822177,-0.10663393201726178,0.06582116860945039,0.06467848128916484,-0.12678809853492146,0.13873339620539352,-0.06053313716196515,-0.10205451305164921,0.020715407909567125,0.054973863243785955,0.15964819462406782,-0.04839733865760515,-0.17539871561145864,0.09694022722852971,-0.12507448138513014,-0.17487094537171843,0.1403345749877611,-0.13305143013372359,0.06307857040628406,0.03755760754632454,-0.043722845731828566,-0.05121334055343237,0.13357126958274956,-0.06486026777978521,-0.04795702741610438,0.01749678329786653,-0.12030305637344048,-0.17617790674193373,0.04945880289588192,0.1367364347664329,-0.07471071138986646,-0.026530404126530113,-0.13733846207569553,-0.149130149766953,0.12603093166718102,-0.162809448469932,0.020515035786169283,0.16954328184220144,-0.02593544674329795,0.11317732921482204,0.06592917802676117,-0.10207322039630355,0.1183034735028236,0.005276048282381867,0.026355491404205005,-0.05886388247465009,0.09335189944498329,0.1061280437899642,0.08623585131243457,-0.14019824114349072,0.116737760145201,0.06730014722575119,-0.03757281637785851,-0.13050467789864292,0.048844691017599924,-0.11145687400514563,-0.012586461720872228,-0.15752632355287816,-0.08438410195697699,0.010297863268889497,-0.1678656681036578,-0.1111377710456371,0.11416339825717492,0.1506937951114926,0.1388689761156565,-0.04174959707031912,0.16032659662563245,-0.15293077254557869,-0.01962234383700678,0.014715751641272583,0.14468840436639155,-0.07951949509844364,0.11107256381237104,0.07382611632172917,0.016609211477158634,-0.10054546392570056,0.0771705973401168,-0.0381166575029379,-0.14095215154698887,0.13728523720783245,0.15639655538008757,-0.13423493718390866,0.04552449898963674,-0.05456849993969842,0.17878981369055003,-0.04784902634173211,-0.05156988515082275,-0.033568725857914726,-0.0057936283513900615,0.12010399242793368,0.06713882285206903,-0.12875296945220505,0.1389538678808674,0.09096814464679087,-0.16356145650723308,0.14043640857497738,-0.06410714264200582,-0.1623066658524603,0.11129265911280599,-0.09135872154729735,0.08572764879063045,0.13556970869272483,0.039928936185117433,0.13597359151273994,0.015284453358217735,0.043679122524634684,0.13341609471712768,0.12516431514750304,-0.1652075749712942,-0.09557187660653452,-0.13641141936545984,0.10278796187874262,0.1058785292909014,-0.09975854836437452,-0.13013495925606713,-0.16236957753519732,-0.050731445895447175,-0.001791627500041208,0.07617600166019799,-0.13948832543743983,-0.060285924864231386,-0.0002954873364620626,0.03769130107154872,0.08439975128852929,-0.021784241619702768,-0.1296500569518112,-0.16867258807962207,0.16504966030755083,0.08724993936486508,-0.002549050734641655,0.04746018892094814,-0.02839554779389241,0.15501525062965857,-0.15578043967102279,0.16236766236426614,-0.131666503325853,-0.08457292673287503,0.15497742845794096,-0.1270637953265934,-0.07907091798846669,-0.13122784961651104,0.07924745584733901,0.07807655934106021,0.13290625177366672,-0.018449439578919903,0.07141956360960428,-0.0318192447620038,0.14761718837876625,0.07934564827373378,-0.017351550278169082,-0.1655024776689394,-0.1647253685831955,0.08314787100272877,0.11260668036895918,-0.13251151649814186,-0.069941536177899,0.15722976446980755,0.06217414817733607,0.13438179041836645,-0.0012549811848335283,0.17068540335125473,-0.08939229594233186,0.059632513854044965,0.13119147524882543,0.05882255497766627,0.10454108849529527,0.019019374135751527,0.06536394955264749,-0.11130086610721689,0.12390493370751263,0.07393748371504118,-0.1478016561881239,-0.04899859301574386,0.04571516348946707,-0.05203183060558357,0.16756483516036513,0.17657992764350122,0.08684349924647332,-0.013802210355437773,-0.06711770157033321,0.016657871271605007,0.11149800608905018,-0.09175313166237567,0.04998651852503553,-0.14479063127977249,-0.11231928484754079,0.11705795394410795,-0.14592132984198425,0.08575052205711822,0.011366087005163842,0.03260997194211195,-0.14236193104544304,-0.08210799679409175,0.1718649716784382,-0.1016234680183999,0.011771024479206613,0.023865254124849793,-0.04009362692850522,0.09668361257253136,0.11327312977871551,-0.0500437373637685,-0.06858720872933403,-0.14085067133270268,-0.11355488003393875,-0.07700876687135114,0.065332837831869,-0.1655123178261616,-0.0680537273153938,-0.09045720882000967,-0.16057227026478263,-0.08108965394517927,-0.0544792270132504,0.0825006484725646,-0.12149544961959714,0.05102700099517843,-0.0994051758261767,-0.02369393122984472,0.15449221064648702,-0.10893992149694542,0.053560631793545636,0.12368895255688246,-0.13659326357239848,-0.13332713898004467,0.11176717971955302,-0.019037643999332502,0.04832266907589286,0.08875173699490292,-0.10048945710706039,-0.16056910726327894,0.05143751341988229,-0.14276578858450895,0.07712312180148174,-0.011668293531546173,-0.1706726412914873,0.10891508833145694,-0.0029532235192633455,0.12265099610972513,0.12297437927994144,0.060153365794238155,-0.0131656080521652,-0.14468481779988732,0.15468319426341148,-0.059882903822385376,-0.17333304913661698,-0.02769150639157401,0.1256283014611479,-0.08835072967640212,0.004143912559722173,-0.08755809391397862,-0.14239275213172078,-0.08708250397911642,0.07996582454547574,-0.11265557831234607,-0.10632309029513191,-0.022885902110820994,-0.14210475894219868,-0.1747696236261,-0.10226470868096238,0.1731658168047954,-0.03573981011363394,-0.15233358972388675,-0.06389042232932814,0.05207788897121418,-0.12893468252619908,-0.012062058387277592,-0.09081233462949273,-0.07672735589158519,-0.111304583654822,0.15627516497686553,-0.00293559212445506,0.01622269508487219,0.011955588351554048,-0.0213739381380386,-0.08618581801418579,0.051085206222344436,-0.07809180158087278,0.10890926680089785,-0.01175886700680681,-0.09890514534261699,0.1410266333972778,-0.09316790798329407,0.002375944309994745,0.0911960873141632,-0.17337831237407017,-0.13437360994956316,-0.009859489991365884,-0.07097493436613049,0.0015583130059561375,-0.05562134635118831,0.10077969873558931,-0.15518475908518614,0.13092558791333406,0.01986604159390219,0.15991087644427115,-0.12297424232563829,-0.1092569758166197,-0.019295436588236885,-0.08532665941278286,-0.1068662888674941,0.12775447836629664,-0.0840655240535353,0.0944423896060567,0.15710403475807322,-0.026955543806941883,-0.0825174633800507,-0.009354896671916897,0.09565952828628183,-0.15950319410477323,-0.13610755197728608,-0.05353667450564033,0.14311957043111426,0.014325531582580419,-0.13842435742120693,-0.031505165570564306,-0.040257044424959275,-0.06876794330120796,0.13159415196266344,0.13427988746254002,0.13944775280972702,-0.11369007147941738,0.02069820318139749,-0.028083224882134696,-0.010582916272295524,-0.06381024956699356,-0.07062526103884675,-0.048445469274225765,0.14092096630640905,0.13710629882219633,0.09684812047918637,-0.12187498848432192,0.13830901454656072,-0.05929593310389727,-0.14540302114116657,-0.14006007345398386,-0.009836062869641083,-0.04862930517946441,-0.021356277845340384,0.08854206311073176,0.04831647568622187,-0.023698738444275294,0.08240554393800177,-0.02852193716915119,0.15403595318870472,0.07906330349265259,-0.08934454067154693,0.15622587370425184,-0.079854886173833,0.14845212605281843,0.12273501126660152,-0.03644542019927199,0.03784460997099106,0.15156877687347675,-0.08125807420979798,0.08476821693894158,0.044282958779606765,0.10575987558527145,-0.14070006542770355,0.17499365127904082,-0.10822089876520068,0.17202207956469195,0.12120985536240964,-0.1155132020235414,0.07980042530136558,0.030517150099580625,-0.027806419382218422,0.12487010748115124,-0.0711599878653576,-0.03929840378628726,-0.09469162601466805,0.17037129682207955,-0.12250670116611262,-0.09754922906558433,-0.044559014801523245,0.08345773597131347,0.04450620532356487,-0.105815610495881,0.13878136815675646,-0.12648649440047272,-0.138904972956958,0.02221014546567507,-0.09696091539911705,0.16885016042803497,-0.02937668099282158,0.03203561672921262,0.11259275944818344,-0.04748582247678779,-0.03703779774225166,-0.11753577350474449,0.13116389846342852,-0.019896732425854515,0.017335968069226527,0.07322750919485063,-0.1545285584768893,0.033353852367103615,0.14418198226055168,0.1134990304309851,-0.023111444622090745,-0.09579525006182793,0.02860594049058358,-0.011348729108378912,-0.009147340583115199,0.03395166319636168,-0.012998642485697482,0.007914125877399968,-0.14645363045393928,0.14613162000069263,0.07559106106523573,-0.11348016799890778,-0.03162799987764698,0.09013550499201932,-0.0025484358676083545,0.06254853188085992,0.16495252169761776,0.04500768271049443,-0.16872992107758614,0.10432690496138414,-0.041231321747319014,0.09523662478922816,0.10352356931966951,0.08718933872097595,-0.1486944499236609,0.09137591607546793,0.14723420647819876,-0.15695987958907853,-0.1578481144025203,0.15104257493691522,0.010875307304595749,0.13892479608671768,-0.15558239024682627,0.14158747766516072,0.13473552245673404,0.16117914357344112,0.039856693795553524,-0.0765927220940236,0.09189133364368031,-0.0750156607123888,0.17064105118137282,-0.08184222615609012,-0.11916832160171144,0.13410097226612563,0.018206304904348054,-0.057056921567440924,-0.14300704330015246,0.07936072828797344,0.03828132075577161,0.16439699322868995,-0.14033881594546918,-0.06731140898289045,0.03208467386754911,-0.011601772435459692,0.04325362475379929,0.018429899338982307,0.03912637305019633,0.007986580460192357,-0.1316603834371378,0.1496632425094447,-0.11159142076310435,-0.12227652799504177,0.11669835809790705,-0.13986121767686663,-0.082857313583055,-0.02899881848325703,-0.02705137796975434,-0.07530447170760111,-0.053096688392341565,0.10306832617589412,-0.013066108234348903,0.10509192403914375,0.15646909508034584,0.07615991004871217,0.14652600996545362,-0.11876056391170607,0.11916780354790084,0.11710848468995164,0.03266633911247494,0.15838496349609735,0.11443106106693385,-0.16669306387898136,0.11799782045872649,-0.13728883083507087,0.056409349302918486,-0.008704341741583195,0.15871055930293784,-0.0661391490389772,-0.10599012645975885,-0.05718942757176773,0.14966135198189412,0.04495065615007554,0.045566187127154545,-0.12857836572260176,-0.04104815968187317,0.1712176170134106,0.062083000387481595,0.031525638593054024,-0.09622123136952122,0.04628877910105558,-0.0811005845538032,0.025839349767620878,-0.029297771853518596,0.12060510034761271,0.1487778999010266,0.11682698262663116,-0.13497431240981506,-0.16924653245991136,-0.03691599927796713,-0.0012958314252036758,0.13711679586455724,-0.02956474978473874,-0.026251401496335435,-0.15001549933679614,-0.16320476546359983,0.13575902852526936,-0.06259771722965204,-0.1579804658649788,-0.034694671084140295,-0.020802524277734238,0.023267196537918935,0.06821649988647024,-0.08275994998541733,-0.16866788524952728,0.0435776527703933,0.15614754737992434,-0.17189346681151466,0.011021639985203883,0.1647708664896593,0.07646793124695374,-0.09089774009962398,-0.15432490668658047,0.1421365254750414,-0.02369088473488596,-0.028342142869881733,-0.011778643647173546,-0.10195408666877961,0.08807325491326447,0.1511010070219715,-0.08068555599134576,0.023062531595175073,0.15092724136341595,-0.17701141495222025,0.14562251848370508,-0.042596802033920196,0.14076170850054162,0.0582821077155879,-0.08446623245434871,-0.11143833099656207,-0.05297169541863919,0.0496371174401529,-0.14971004347437483,0.00438045998509092,0.06845881847057522,0.056804605868753265,-0.17220629209258356,0.05950022056352486,0.11590354821256721,0.10899547740135618,-0.13005914419114437,0.1100670889045142,-0.07395150230294475,0.046698022356608394,0.17642933557339596,0.05948368327909099,-0.030114358510861895,0.07139299229922089,0.056582595945052376,-0.15845631385789688,-0.14978201601285002,-0.05433557523199484,0.0821888604987798,-0.11529690587799364,0.03935028295984291,0.1440533134776839,0.010211626619700615,-0.03817713229681482,0.009842237079304043,-0.14197724325960348,-0.08351514671200257,-0.1415437501913942,-0.17157388606519547,-0.07311463380295342,0.16223924487462854,-0.0206760729788354,-0.11042468833804983,0.08004329802593073,0.057584934025253345,0.133700015528756,-0.16976971576493494,-0.12860052815692272,-0.12232296459657449,-0.08798809783109171,-0.10626900728276234,0.0481934268903183,-0.15018255735142277,0.10971794825678022,-0.13330542163586118,0.002479214961466395,-0.008882424408046017,-0.0694227924495181,-0.00822785811371929,0.131249401275441,0.03329856170725126,-0.023872467147579516,0.1252428097039024,-0.0695940719739791,0.15646974614130138,0.04126585148593698,0.11145547379441319,0.09434586956350945,0.12175982475971045,-0.1240737878552562,0.17214005107144778,-0.06587032415497121,0.0854490784678802,-0.0978976068899536,-0.0004307395670672657,-0.06890771564009804,-0.1392726688411077,0.021070636435101642,0.11403043418777452,-0.10463230564089072,-0.11221957409733765,0.12758833469485134,0.10986357839347408,0.08578885410484309,0.03432417307690153,-0.16877197104218414,0.08784616230308387,0.06462996892243401,0.1699770972573363,-0.15895307638824935,-0.1343280548085542,0.07198532581158995,-0.09171449698316488,-0.017830744523859812,-0.057350148840578014,-0.12146274847702276,-0.07671227476409803,0.14542546155400607,0.16171162485847054,0.08829731557958044,-0.13959712626596985,0.11425342233090645,-0.016190341358738654,0.019698863655582502,-0.016301994781396288,-0.05489551384782722,0.09766578033183942,0.04619610832908617,-0.007312225311216362,-0.08686038942310886,-0.05691356117684184,0.1358123415071299,0.11567418832523627,0.10800374410079329,0.1691935747760454,0.16682382788685304,0.035982723514186986,-0.10245366723083549,-0.01940543433628631,0.061369505179374166,0.021689559525140612,-0.1529646735503327,-0.15073234435686014,-0.07596005836023392,-0.1611285434064279,0.18215800519156375,0.04432462476144853,0.030546620537012598,0.16186860481541038,0.005223360955568668,-0.03140053077028426,0.1710748794998793,-0.041848828789122966,-0.0016182596819132838,0.15476651481160303,-0.0640095953080803,0.005902170253942108,-0.05964517856366028,-0.011624044612905827,0.16445273535452024,0.15028636283124672,0.10072449068485345,0.1553605235039722,0.08063779919527977,0.16096198492964325,-0.11461133895047293,-0.017179762310790794,-0.02749569530351752,0.04285197337940447,0.009220272893578425,0.15942197801422883,-0.173940659903671,0.15989683800937732,-0.07628836091722417,-0.006882075366608527,0.14904779158924236,-0.09504264680701535,-0.14467766278914757,0.10469744433807396,0.07054947940308931,-0.16857396384776102,-0.16040725778302817,0.17546396785200688,-0.12232726827414489,-0.15781966932334207,-0.17548683448021518,0.07624368054449039,0.042231885865244796,0.14610851524253812,0.14598324538138205,-0.12119423183599622,-0.1603931193993404,0.014903701985509188,-0.12768454245087232,0.11558839526860365,0.08451123244995151,0.0184571755670644,0.12441572130248822,0.10760093073567555,-0.00621192900641072,0.05839442003437498,-0.04297181164039792,0.020117169784305167,0.009910585222681118,-0.1258913609611246,-0.0387061333854971,0.09480155134620581,-0.007705069967670227,0.0023221302278541487,0.1506790345456597,-0.143599283068071,-0.08655648452009918,0.11375438783785354,0.0035372502855703764,-0.15544633219079612,0.05245615161997425,-0.009614418470378725,-0.14171050474373992,-0.12122423622405243,0.0583123343854838,-0.07445584630566719,0.02180149660152548,-0.04801782584916805,0.03109022415522893,0.0030446332747321734,0.08864068681545223,-0.013533531745197482,0.14033971739917056,0.08632403575361092,0.13753733569797466,0.08618310303494295,0.14996940519990604,-0.029853551585189795,-0.08287633909739417,-0.08171276582553168,0.13233400715725405,0.004608064862362879,0.03445786036755323,0.11714139920765315,-0.08457178897227935,-0.04056945250912379,-0.0016562386298439337,-0.08642885318465221,-0.07869923986135796,-0.011377811362185094,0.14984319176941954,-0.008304022400942766,-0.12184660104850027,-0.09176214602194943,0.13469695817318314,0.09751194337713998,0.1770651577789767,0.09074580101842236,-0.10897757709813591,0.023459933114421773,0.0814806914401969,-0.007947841912105524,0.15726392446229048,-0.11356262870634946,0.08551282939868114,0.12268953774564885,-0.03756343513176368,0.13769762695284465,0.170723663124509,-0.038692824978260355,0.16908666617309095,0.14884085817428444,0.1427295209702571,0.08601215875221487,-0.16101790314033737,-0.08871766830570514,0.09783603346412548,0.09557447348637121,-0.17280151647992145,-0.16030872809887872,0.1214559450132178,0.13580620368463156,-0.09576317918754403,0.07148376511346237,-0.06663210144168229,0.0009037392540004794,0.03184529648269621,-0.012535977765603123,-0.1499850990376718,0.07823338202783285,-0.1651775107930438,-0.07420907870685285,-0.13236170275716602,0.035342315220272716,-0.1050902184811414,-0.1277790334062634,0.06616557859808682,0.023758867001291976,-0.011515192875093746,0.16501682551486013,0.07870181798386357,-0.03713474107284629,0.04899056685716902,-0.010038453876913786,-0.020348755486237068,0.09234268458427218,0.05416093881611711,-0.09704139249310628,0.16437368613622358,0.07948755769897321,0.06994424138592618,0.06349933601947925,-0.15788282197991244,-0.06700658443876385,-0.0010199370170215398,0.02606124101852932,0.028256381205126628,0.10228789414128234,0.1401597967735974,0.0708387828779674,-0.10726738067461011,0.08562400369799827,0.15558064819586692,0.13606557161131363,0.03764853690391809,0.00003971825769645235,-0.08224565379441916,-0.02123838425950656,0.14177140657176493,0.001456439430926212,0.06923792567312971,0.07485930178508905,0.06365525759070015,0.11008559355918993,-0.1361584856827242,0.018099779699063175,-0.03107004131373716,0.06031209528847877,0.05617554832243332,-0.11007936586971016,-0.15181829950545148,0.0585702304407151,-0.0015384746939488421,-0.008991434099619638,0.12392287770178392,-0.012645298912937098,-0.03882087268339424,0.14291209401524804,-0.11758111773310588,0.1453550503010421,-0.13970119885775029,-0.1256277702649932,-0.13273287374867243,0.14444648547736097,-0.048002313804545484,0.006297122197791241,-0.05501852756915478,-0.05298388989386008,0.08796493103633901,0.15191302697448508,0.08932781680160279,0.006536512661255676,0.05403313461382076,0.07958262460104279,0.13632721204748277,0.13834453915666015,0.025234362691862897,-0.11546193417603244,0.11653938542523085,-0.037277198850924884,0.083158369932019,-0.1486640710881118,-0.13110893965424056,-0.12518552238907915,0.06849382082648048,-0.11131073677749719,0.006684028993752548,0.019212168723778116,0.014283673650501877,-0.12632492264010195,-0.04785185204000796,-0.13526650463020054,0.08291732702089168,-0.17411831341438186,0.08026532345487844,-0.17383766692605554,0.14677115349323608,-0.09533568105731034,0.018811782501319034,0.05357626874936809,-0.06141173230005723,0.03528761351694098,-0.15152112576311025,-0.07153505994802307,-0.16020804160425958,-0.12842941066188002,-0.0162599562972903,0.04526896368837593,-0.0037696656018726894,0.15446851543308682,-0.030387630314194686,0.03265306202630827,-0.004629819655687261,-0.1586062807461388,0.14876869354703048,-0.054705883953332764,-0.10227667344116961,-0.018736262572114828,-0.06173788931867807,0.059221268129452914,0.173665118654651,0.09546647001709324,0.12532215299466337,0.04195194803154972,-0.1718997476974075,-0.011248839414875634,0.10193991950940995,-0.13045146937707175,0.08421964504490985,0.09076965032614633,-0.0028269978172860977,0.17605657423498594,-0.17012671490083078,0.03942971632396664,-0.031165356184343594,-0.001962199286404145,-0.15114540748620403,-0.17270732081261092,-0.034626678699192864,0.04183041212966578,-0.08111364951835921,-0.02285902917073079,-0.057262995112127964,-0.06954030105536993,-0.11821661479154957,-0.0301366728858897,0.06278827615651296,0.03609617177627849,-0.04123933890971321,0.05071012775129085,0.09670124874478783,-0.08860216402190106,-0.17427672551632162,0.09462850547086452,-0.15114510462482403,-0.050964535401301574,-0.08159577813106568,0.05271948049901017,-0.05185497887092387,-0.1629877753292909,-0.11981695429568219,-0.025223359949896468,-0.1562595908045288,-0.04574023927251735,0.0857861211328805,-0.11137208643600047,-0.1040614285303284,0.16394536954412603,-0.16305525257727632,0.009465507308539584,0.13773576653458386,-0.16869175379060236,0.0829521028294406,-0.12217846956994961,-0.04939500920008039,-0.08488736168466382,-0.10920520888688491,0.03359318275819335,-0.14524242437308724,0.04149179164973923,-0.07821794925631384,-0.09431066891673627,-0.023166305171141762,0.1399953296785501,-0.0833719415469726,-0.1623191086408378,-0.05527292076794018,-0.07118454735797035,-0.10984155625830942,0.062239639126136746,-0.11872469335392233,0.09479167985438852,0.02311268196347941,0.08145262180785116,0.010881864284142954,0.11682155314717665,0.0003931847768717468,-0.13927114611007604,-0.0037405824848085385,0.045138626858534696,-0.052078203790499294,0.005703853112179299,0.0764269935114497,0.12837342919394668,-0.17367491319231956,-0.005528408301581382,0.1449192559024239,0.06117527640982875,-0.11711158634915829,0.13257346744660783,-0.09332597106337433,0.106112248244469,-0.1302795506883751,-0.1044168493433685,-0.15503467133609591,-0.16114074169808038,-0.10508189864906278,0.0921183626562388,0.034684667437655074,0.07511571712510204,0.16242551833731,-0.10863875194497441,0.01979007053943775,-0.10505279557016067,0.07378856121864663,-0.058684974689499056,-0.10641692280958578,-0.08652277597128169,-0.07828356074516246,-0.1495766296342729,-0.0464980942283472,-0.01859709036679994,-0.11087968038654361,0.1625562970079362,0.009886307195925188,-0.04835299117117606,-0.039051693740789796,0.17262696891902646,0.09176893378481339,-0.13479918652947895,0.12396040857298603,0.032569689340050625,0.05371839898899685,-0.12388426394826897,-0.026338476514580406,0.05061364683187087,0.04245821700329285,-0.158651072485121,0.03191436967621389,-0.07768106833896223,0.15916769722012314,-0.1234614636540068,-0.0697895613866038,0.13457972847839217,0.08394226951525449,-0.1414609785827757,-0.08955195002090109,0.1371614027018481,0.140650913563384,-0.15216774377360487,-0.05027725704906529,-0.12077406820318462,-0.1670696595647287,-0.026644840959704767,0.1605193232347468,-0.014698709892196444,-0.15464291876493752,0.12275046907293902,0.049524113414608446,-0.1679113204747113,0.07656286066019491,-0.10384267675812107,-0.11284991141426348,0.16987180070329844,0.003284335297302749,-0.10101002355579561,0.16701117747261207,-0.06399045853059489,-0.14159389761774605,-0.027602283096335417,0.05349066917123543,-0.11991040515113116,-0.16026493360319832,-0.1524351317006916,-0.05938263508773842,-0.14632098595718646,-0.12951535171230166,-0.1745463174179016,-0.16958902140555907,0.02150291044878852,-0.020215799690457142,0.11881319830788524,0.044827007098720555,0.13141611481368773,-0.08718106536810061,0.14977375013982172,-0.08340235105810466,-0.16375353545026838,-0.12194940482290688,0.052143988074498625,-0.14700863582964974,-0.08158503600504552,-0.11617664303180648,-0.03835599206360066,0.0745556273957507,-0.10278212471411091,0.16626510942022885,-0.05449171146906735,0.02752731037760428,0.1327306211522189,0.17629448399110795,0.16498443399484405,0.0849394243130454,-0.12254475921491287,-0.15826184517512107,0.03975005206311946,-0.1514309810702672,-0.09354170667813949,-0.08523387022980515,0.17452918408928345,-0.12624189669193314,0.11263030959505937,-0.1302711827551033,0.026181961679259628,-0.03813958351943086,0.08558766124861972,0.10062783231709588,-0.04112580696448678,0.007935156149198194,-0.13183275071652398,0.11202714975682133,-0.15392020274859303,0.00988109529988816,-0.02096110227726266,-0.04812069579409375,-0.032028692218679426,-0.10282796645970084,0.1527737605142265,-0.05240564922810813,-0.019191774187118427,-0.10765572839768028,-0.1754948303457735,0.049921422013776945,0.14429060358852008,-0.102727900943424,0.08973362276411662,0.1540907319689745,0.05709862842549798,0.11162403543583846,-0.06906625795666689,-0.11091228228065064,-0.14595623437631353,0.07207521160281863,-0.07191178673829751,-0.013921327224239072,-0.11700594668947069,0.04581956576913083,0.08409770165881036,-0.04033307341976232,0.05496873797303864,0.0966032151189858,0.08874219758157287,0.10821942943280297,-0.04654963017944223,0.11643147774485238,-0.12735489325424562,0.09513969520909575,-0.16076665101710444,-0.12572227121416685,-0.1607968529640435,-0.07778399420325488,0.12761848491653538,-0.06658148936601689,-0.10279481437098878,0.0758665791320021,0.10774382903969931,0.04518150554227195,-0.13171502044793312,0.12766702588155668,0.1579736347192659,0.07875652512196579,-0.09053227170275974,0.16092919341849238,-0.04221990564050507,0.08479536533513794,-0.13334896489828116,-0.019989899682821662,0.001738332537648422,0.043190883434397906,0.1716405315311847,0.08549512640268304,0.03972872754065617,-0.09035357201545277,-0.14280648655834524,0.0796162976691103,-0.15431909495484505,-0.07797051910670152,-0.035501493471859276,0.13417908628327127,0.006446320154832937,-0.04154843136958597,0.13261909665880106,0.15249763354323706,0.07548852713413609,0.10330798069378007,0.036741151990679746,-0.009604009796189427,0.0313853129048209,-0.0465672412367001,0.16846229480734085,-0.09341104852343059,-0.007074506347677181,-0.022415682266684906,-0.16452757039783727,0.12415114726039675,0.01650293588527878,-0.0613866449380617,0.01992347629368288,-0.05659325275669981,-0.014960329320759228,-0.1514960434666572,-0.1353321059829188,-0.1643020156662469,-0.01755610918528634,0.021931175233041438,0.08970896125892347,0.07790388896354897,0.0468298807256482,0.1091955204186985,-0.0663161142801099,0.1106269668097825,-0.04288847250083337,-0.02743702591522645,-0.09001511699216612,0.11894336041141866,0.05877140443864926,0.02349595700625485,0.1565329940059636,0.09910852565479712,0.05635604288558427,0.16949637371168738,-0.03671187762913084,0.09999605529122646,0.16172627730729472,0.15055768674428907,-0.11528416675482799,0.1235381155529593,-0.0702910036782524,-0.11499790707729206,0.10779163670533566,-0.07025860461214073,-0.009422517668793203,0.1371955426368334,0.09167130538411682,-0.16542967139995704,-0.15363037276616698,0.1649335255531887,-0.10082592568205316,-0.08327494845534592,-0.005999963128071598,0.05264619451116729,-0.003386760244982503,0.08842758491356482,-0.15801728535490903,0.009327636169762222,-0.13795052753335027,0.16392344138707296,-0.0029920538176601203,-0.13690658153119717,0.019107879173703466,-0.16076660009743046,0.02727656061326036,-0.07697534405029868,-0.10639067571614931,-0.16778409939057548,0.008327926967692488,0.07863723350899895,0.16789430281357434,-0.16362649533233206,-0.16226853327674473,0.03134170763115917,0.04198762252657914,0.16523466809377774,-0.027661540732396194,0.04290258744381183,-0.1259312094011815,-0.08765516351923378,-0.11803806562199863,-0.09616164834521487,0.1160856532065027,0.07058296492554188,0.05163854099269281,0.1063827124273749,-0.1261811210254729,0.14327260157362517,-0.03573131962491271,0.043243737795504236,0.005500196940758657,0.12146524861392703,-0.14408554655935848,0.1277767912033833,-0.16240480307525526,0.044803641404174185,0.04253036862799519,-0.1049840622523931,-0.05864645606030254,0.1667328554018112,-0.1530746654526052,-0.15329699558470639,0.10654964354370045,0.11763790780982664,0.08056523382594626,0.11735592654920673,-0.06799427010407424,-0.07752356969329732,-0.07802268693282825,0.16180901836693035,0.15468644989620978,0.08067557703019305,-0.056118583848666796,-0.03919822575669753,0.10023810944774231,-0.13855958754425754,-0.03932769120212307,0.129004904466798,0.0900573100108086,-0.008842467405730255,0.044250637173388264,-0.08959884823542742,0.1359081050237027,-0.04912699693640382,0.0667170300722426,0.009714738243470111,0.04662704304940263,0.08658672071923322,0.16898485805834518,0.1708870699685044,-0.15928152489552092,-0.09537957606891505,-0.08503144309439162,-0.15562472954266152,0.121816810557322,0.11645403934340928,0.1492719153207711,-0.12800284257231145,-0.019844432853971136,0.1688952963915648,0.07056421161102017,-0.08159056565871768,0.09084479950613329,-0.14584139658575085,-0.06330191244519676,-0.1057434773948168,-0.014366175284449542,0.06961362965439,0.14462276174334457,0.04273680399226434,0.10392868215846644,0.11834495743142355,0.1440462429429449,-0.01100310816773959,0.10377004355332795,0.016010935930474722,0.04914328445271474,0.13060856925265604,0.083769792106229,-0.1365522240414234,-0.006550207841069611,0.17271391215475035,0.027140516119875027,0.02702543611898008,-0.08225940163551221,0.01069429065986595,0.0885943290723338,-0.07742589092651721,-0.13682833550830995,-0.15135844628206593,0.08884810539084452,-0.005681575928827396,0.06243846501792473,-0.1087358846534055,-0.13675363150580583,-0.10574109557549972,0.1090252365700697,0.10924456626100008,0.16847749754105004,-0.04383551823936659,-0.09804275417826959,0.022548055236324725,0.00032326882557248275,-0.016749690791570224,-0.04813533288785983,-0.09135497339858151,-0.09077720573266582,-0.0561222615561758,-0.03225682614622133,0.1230728601757893,0.008426426809874397,0.019544007477801377,-0.12610002323516503,0.0816610402002755,0.07835898134313664,0.16018613247640467,-0.057788600253878886,0.0844972099795481,-0.09869291381038683,-0.07669462062871317,-0.02265787328604508,0.1650943629983313,0.1254184602209256,-0.02393138511454594,0.05692175023038518,0.07942905176304742,0.0743029300576175,0.1297694779123542,0.06987098753337828,0.12101465338673921,0.06377625851025727,-0.03158044336009135,0.08439645341541593,-0.12624538757639706,-0.020319345369544363,-0.004872219139964874,0.03247798280738523,0.13419379269326326,0.0784195898866578,0.11876913236612699,0.005970042098611938,-0.020994602733369287,-0.05247529046673981,-0.027149462053768243,0.020021199922756156,0.16745946161792696,0.09560188924267501,-0.030719417644833817,0.10854766895141381,0.13743101709199182,0.06839906671903315,0.059785725198383606,-0.16000603422358797,-0.016333636237610825,0.17608561999718933,0.10168051693293383,0.15828595588751837,0.10956494942252117,0.07988356417619406,0.11533228027287645,0.13302471989646003,-0.1045160913749548,0.05865454848705004,0.09150807396750935,-0.1487941948730271,0.00462572018801746,-0.06650470152700666,0.1676839971804993,0.03811754886598522,-0.14690774413569055,0.12379004768284765,0.000491436301746599,-0.13189805071745897,-0.1744034453886917,-0.043247993766068187,-0.027257607151329587,-0.01946089374068517,0.10200386057906255,0.10075542585786458,-0.14852140069392128,0.10805866288829212,0.15235603312330198,0.08904430404063689,-0.12111804774029307,-0.17336000315687108,-0.11865154791930847,0.16089042781601345,0.06968763194543154,0.14870916536947446,0.029582968554505942,-0.11629748998024776,-0.002568715849889366,0.1667003176727794,0.03465790092899661,0.09333929483275184,0.1358219255333232,-0.009555375906160584,-0.03414086186490362,0.02037000834343921,0.04107622471365238,-0.17196835769669888,-0.08372140507283711,-0.10721418894223748,0.10919349857579626,-0.010649112042331706,0.08176388788793776,-0.13931885653276393,-0.06908323137449619,-0.07186411965653058,-0.12912916820896098,-0.08003201344976478,0.1327962255896418,-0.14929135053600012,-0.06526945233109975,0.1698163385364626,-0.13087286893196434,-0.11789152404506542,0.09568726692154098,-0.15364697914896266,-0.027887083805366707,0.06598333968452602,0.14483200815761066,-0.022912603999195782,0.09265245964707065,-0.14962221835483416,0.14987791496092653,0.15770586865057168,-0.03381244434203314,-0.14581055882744312,0.12433061812323463,-0.13943737032399997,0.14490320564356535,-0.1347638398268924,0.043798209880930465,0.1338490425970207,0.1303041632725946,0.11075851280456103,-0.004512118302455085,0.025263285216045123,-0.1234933681875128,-0.10143108768209831,-0.1106126715739688,0.13701284549825488,-0.01848697932964963,0.08297065595119672,0.12351178014983309,0.03139462611693923,-0.1255601652036737,0.08797078806232085,0.17278360405110924,0.14430699334181687,0.03126336525969055,-0.14229041360511588,-0.07134785988266905,-0.058665474070757596,-0.15746572992743593,0.06789215378058178,-0.06906202047529875,-0.1705021891375502,-0.1716697861760312,-0.001979769388369029,0.034154428153617876,0.054727602437350205,-0.02402948038510228,0.029909596278548407,-0.01816947520814211,-0.07398871884822496,0.0619051216306988,0.08195959824778101,0.13609164154368586,0.15273816173102167,0.046061613156042513,-0.007592721918970361,0.041383975807989255,-0.01688268883128438,0.015937705783072905,-0.023165360225013858,0.17650352591908094,-0.12530249947003225,0.04298416798642496,0.07409958916210967,0.09168208854419094,0.14075025904313598,0.1548904974132897,-0.0007413241307867157,0.0525212124813101,0.14516543440582327,-0.11858169712617662,-0.11440583785901583,0.05817252390524999,-0.11617830544019014,-0.04761662529558092,-0.1511865198421779,0.10047497298630634,0.1369712135929778,-0.06679634076363074,0.04120838161153795,-0.16984422732046237,0.10160417873327642,0.03176006129538036,-0.08069354746124971,0.10771533932895601,0.05009056052368082,0.14063503013306045,-0.13732073605022665,-0.14349671325075067,-0.03482314638260305,0.06268824060712819,0.06749463065833217,0.08017898169838429,-0.0715107279730185,0.13213951704269256,0.04206482889303833,-0.09596715334706576,0.08173746285205787,-0.08697313865278374,0.0394704492860104,0.005785393542706307,-0.16846483555244296,0.14319634790371766,-0.03137088305503136,0.11472688867131384,0.028475131166651887,0.15235727438315766,0.02865202194316207,0.07427656018674883,-0.16386780470345053,-0.09767051676753744,-0.07952637162891085,-0.07878539540714394,0.08899807586357059,-0.05002924871076684,-0.05291107633059472,0.11165655154194874,-0.14174350755404336,-0.17147366676552828,0.04087969139705392,0.014985167203902494,-0.09209485940704777,-0.08278555659592843,-0.14120738679965286,-0.10282742455924798,0.08476196288057757,0.1039255981812811,0.026044309103146153,-0.0608715883095786,-0.14903566770435323,0.11871258536356018,-0.05800148076618903,-0.04144043460495759,0.16659455555407154,0.08485417780330563,-0.11028242332634432,0.17904613469354885,0.011911830141444058,-0.02457700189074696,0.07808883948447722,-0.07277890258268047,-0.0971088435184491,0.08269895731938029,0.0028339468264192815,0.12041640918009516,0.04228052554925625,0.024874435746538266,0.16547168646366914,0.03760947628437048,0.046642747214518374,0.044793121501657436,-0.028045709732477497,0.05905565000000402,-0.005337020174244162,0.10023177058709973,-0.09754840495979739,0.06594565117715463,0.056125438890590115,0.027769108051958848,0.03737207953279711,0.10710127014638474,-0.13772410954542985,-0.09698500647735796,-0.029892190678836656,0.08434685978456487,0.10362645384693517,0.029173085461688116,0.05282665764526738,-0.09819257020582933,0.1418225219514968,0.1537904584646136,-0.16237895094582774,-0.07464837693294875,0.07074962894479189,0.03189021284854366,0.12586018823361533,0.011091319853270451,-0.019845564201399983,0.0013376898645265627,-0.09543543545952725,0.1714979406002853,-0.16129405771165056,-0.1002915299013766,0.06096601599388258,-0.1452249618606274,0.10233274127085755,0.00903510953894537,0.12474840074678004,0.09576550558950793,0.06382145516115534,-0.06761914294491242,0.08170957631327753,0.06013707503783735,-0.17262192198062928,0.081104361309081,0.16878426562945367,0.13010344362213544,-0.14188040535765703,0.1502586945814476,0.10136205503181976,-0.02545817076406199,0.048200049291628085,0.1135775923676824,0.13293395927691457,0.024873051420229827,0.1401752330310024,-0.006299976895797307,-0.008500895677835563,0.05773147092703754,-0.17614167185488436,-0.1376633434553727,0.11929079054585238,-0.1396033933529943,0.06851468405314379,0.05113854564241032,-0.055131969828323864,-0.07835174786376194,0.09359450937045259,0.11516447894838819,-0.006912018342599167,0.011594091601943397,0.175197256585808,0.052710657392736754,-0.08503767714984374,0.14535934681212637,0.16814888229705832,-0.001983433163451011,0.163810750305696,0.04711327889903923,-0.006303426828875198,0.13507907882837106,-0.059441823963826856,0.06892407171496845,0.10638918307134708,0.1381999236985156,-0.034708210254072176,0.038416415599069866,0.018197202028360202,0.05866017475502065,-0.11913873244385487,-0.09944857489273656,-0.13577490094150374,-0.0927639215202161,-0.0123899647956666,-0.07731008064765754,-0.14243122979413886,0.13590579422702395,-0.13483425048971742,0.10118163936374684,-0.08143046526148938,0.0753469755409572,0.17449056037596825,0.09592220196672903,0.035919054603509235,0.11093329543051776,-0.05183080110129394,-0.10197839637119646,-0.13986626168319063,0.10854624346767931,0.07799606483465382,0.01984760760072486,-0.11494926759065356,-0.04999371161851875,0.09284382159469444,-0.0697511740825441,0.005730613182604837,0.0871031462160257,0.08430894964072558,0.173323408932021,0.1455441142845187,0.14358530112549678,0.06752644717017627,0.06970954853619751,0.11894596828455466,0.11655534212243568,-0.09962003555569669,-0.1235314580863132,-0.05405932150802599,0.031183884003441326,0.09542564799613555,-0.1763303312324918,0.09415959816850594,-0.11185903214794889,0.10897007163049033,-0.1295212598874228,-0.06927839826109218,-0.0314724094529467,-0.14601604619260564,-0.03862892526317163,0.08948027260026074,-0.16223252258049714,0.07424719849382895,0.13293982920179345,0.02186085363751821,-0.14468024354882553,0.13605677825381843,-0.1569096857517255,0.1198722509646007,-0.13698820848171614,0.06577311396872772,-0.02342318997655509,-0.11152561521240656,-0.13677633409529172,-0.12806361355714824,-0.15771098166756806,-0.08335678701894574,0.02193582732824008,0.11720508679620406,0.012057089718750403,0.1302042576784735,-0.10215310681729657,0.11334000644134835,0.12275930566743459,0.029849074544704188,-0.1586890697938022,0.1280611721792911,0.11819994436884104,0.11751744765068599,-0.005710321105580903,-0.11160164234795429,0.03832862221782046,0.1556681932068558,-0.018513413339041884,0.11832441718848224,0.1278003942136799,0.03607348316632792,0.03453233094162496,0.12818376242428234,0.11359532916320876,-0.14836198889191907,-0.07002058459108756,-0.03872433909867779,-0.002755914967361104,0.10024195988631902,-0.07386231734162667,0.15665328125431327,0.17016050688744538,-0.08885305099434576,0.005456357786822177,0.07498249635582269,-0.034996955260617864,0.037480804049912296,-0.043344397779021215,0.09171650250143819,0.006994155801349117,0.1394281414201029,-0.08417193616415838,-0.10808462513689944,-0.001649896006926654,-0.16348291627562286,0.15666056136493067,0.16197333381357276,-0.05422791217668343,0.11056232895358376,0.0692022938073639,0.14859917574015077,-0.0658472641875607,0.06284635462498561,-0.06212229629179721,-0.1454385383032693,-0.10964333717566543,0.04943199609270844,0.1608110038129939,-0.01189422075459281,0.1168971841299113,-0.1572435582306071,-0.043247197063652744,0.032239811724162966,0.09535891949780241,0.11897091908774557,-0.07336624902441528,0.16835874453181002,0.17209746823237765,0.1571592106104602,-0.09081125891009104,-0.1361093092690169,-0.06438846750077572,0.17253442162309138,0.030217384126597063,0.08625551725456648,0.09983812640015845,-0.03772752555360349,0.08667698730403542,-0.15790123401157308,-0.17454954572580164,0.07092652894789685,-0.134273625547209,-0.04156399621570919,-0.053701828077181976,-0.14815817876872042,0.07438877173382838,0.05975025999755327,-0.15188873961137997,0.17405959245603497,-0.06088288469731458,0.040347096641532056,-0.13617160238451181,0.13823352149393145,-0.13595563931216434,-0.15736672449270245,0.02263552633650902,0.1464237373873054,0.026329216714390265,-0.01866245368906768,0.009126052877317716,-0.1494737138219467,-0.14598143731385976,-0.1217294564492508,-0.1085085897027025,0.07759093230349587,0.07242698344749104,0.02078548110613407,-0.1457241388646232,-0.11706252178611687,-0.08266492938475883,-0.13578230857693138,-0.0913950562131164,0.07236417837004926,-0.061964686960269806,0.09451529009320077,0.025696276543377413,0.0553223906056464,0.1766757999341571,-0.10950390247608667,-0.003606930437206181,0.06971694156971057,-0.13669103905383864,-0.048141563220867885,0.15364488501243168,0.16643984152903943,-0.11973192544811984,-0.019275046679791637,-0.11889973933445915,-0.02964464994588936,-0.16560003864537506,-0.10248333316215258,-0.0047250178229014655,0.13511083624517756,-0.11685407830976399,-0.1601942656063959,0.11349789563157002,0.13073821155652177,-0.025632457163973645,0.13445394416173667,0.05025798655556064,-0.11912150627457621,0.12558988145030917,0.10584165296767563,-0.0490609469522701,-0.10531556574957102,0.17524377893898663,-0.062432882333826385,0.03525467574043789,-0.15546300749352615,0.16162803064710585,0.15164825869677148,0.11265867032692276,-0.16106404455709197,-0.019383662189125423,-0.08674256393716852,-0.07992255745184755,0.10542551312217342,0.006555017866216129,-0.17137234577013644,-0.1571022816669666,0.14653259986287628,0.13991247850915745,-0.01211538571712455,0.06257573248189276,0.0874962305717443,0.033654809877133894,0.14646252330659254,-0.029734389927216075,0.02656440481980051,0.12248682465065648,0.1578227325748497,0.07572464183634987,-0.10257121285521162,0.06488040027784013,0.1710327029641367,-0.044415121456451614,-0.08848746196407509,0.012723734513334655,0.11170092166155976,0.01675717674865071,-0.11672423825820626,-0.15476084554898265,-0.1400498909152808,-0.0800369649391401,0.015172336447666487,-0.16628139253843105,0.07285119999426659,0.15003276641803917,-0.10598679086725409,-0.12244038990538768,-0.14673502139225816,0.16834540497377748,0.14051052487550242,-0.08024604896873812,-0.09705261042832494,-0.12555627987827483,0.15269286911159483,0.16931714840229495,0.12253032141496613,0.14104064263332589,0.16419801436741702,0.008965760754417289,-0.024643583137076094,0.002940698068394662,0.06076889696405828,0.04493564700177401,-0.1114781460643298,0.059473805328236505,0.15339922024472033,0.010849673388824171,-0.07298407722674853,-0.05187367224936433,0.0920198439397065,0.17665056388287168,0.11183552531742544,0.1468176193263044,-0.09844317082783942,-0.03708012532077964,0.07483768634376556,0.07359261752012858,-0.025252051404549707,0.13714837548605027,-0.053078857684076414,0.06371803012627499,-0.13102585364244201,-0.14495180775743938,-0.1293723617330203,0.1348159711295663,0.12152547183890634,-0.06618961084423299,-0.018055788822481426,-0.13193985122479981,-0.13587383749863352,-0.1737168748667573,-0.012557770396288572,-0.1529779292790463,0.0904733333957422,-0.07762904538368483,-0.166651647947899,0.09691676228091259,0.047303187565368,0.12253464162872663,-0.11977549555507364,0.14352121014821995,0.08701011879872668,-0.13047122311845563,0.13602832578516705,-0.09109888655932935,0.057187937264319054,0.11384162461387934,-0.04829864782897496,0.14961064634190654,0.1502263331150793,0.12438729114971361,0.039245254601825735,0.17046622413120463,0.14950505839336395,0.11766878477443336,-0.07008972345498847,0.07811585860005361,-0.16731714086741503,0.03352431107778975,0.050027721726220414,-0.07257178806524744,-0.057380993727152906,0.04798815042420824,0.08686538425269658,-0.012069891543176765,-0.14616086521468552,0.14418124578535554,-0.031062093325183986,0.10098574909190615,0.0246592164971676,-0.14899879423399115,0.01885664501407878,-0.09660242477208414,0.09298699476427888,-0.09129991658267965,0.04192370044637439,-0.15203689004166562,0.18065170947892298,0.09391817662329721,-0.0037622753612680674,-0.058625726152493736,0.024424675309509425,0.1459395780430165,-0.07510950635995495,-0.050572507270183004,-0.11992636502884438,0.016147840225707453,-0.02444170703092548,-0.0119631138532647,-0.10403958649922583,0.1317555476273588,0.0509459160162154,0.12051189374687864,-0.04647240646714016,0.11979522770402329,0.07855715148217525,0.04792280631730406,0.1750921449101571,0.15059243123490068,0.18583758041005416,0.0058244784417656615,0.06091820233899022,0.18527904659768699,-0.1401068683538134,-0.09035606938258867,-0.1101970926357941,-0.15078816934873857,-0.11189413018645247,0.1289397541273952,-0.05392462156339855,-0.07204300093512044,-0.10586253526008588,0.1375898134305839,0.10456187351781127,-0.07300167921781148,0.05529529023041901,0.15331784434160783,-0.03946173434969298,-0.10003267292010928,0.16118806455646364,0.18731582050001427,-0.04860668931658834,-0.11257937175332625,0.1578247635025334,-0.09339245127523137,-0.12274232514776771,-0.1092625202888801,0.07514776718308457,0.16864807232354037,-0.11504733995323282,-0.16662117886925906,0.048756288323995645,0.013163163475626138,0.09712485874600355,0.11593525099466748,-0.10168795040580494,-0.07851564133752431,0.1028499286042781,-0.057862288000531344,0.013935587833990466,0.0819900594780007,0.015036108163343503,0.0743401694604001,-0.1681086608161197,-0.03886609388002145,0.04205053145636626,0.14278559678275057,-0.07776001420980747,-0.05785133560362716,0.1225505016101002,0.11370533147755464,0.0006318754422444648,-0.17360345052992202,0.09281465267514587,0.046627250852841196,-0.09225807036425789,-0.09716254126881826,-0.09223924989286926,0.1395493641854334,-0.08346119418482109,-0.02232330729063697,-0.0635431329130624,-0.11974192868904013,-0.024939914230935046,-0.04544614902675457,0.14303860179837463,-0.15915790942843383,-0.017345380171421596,0.0982721660032425,-0.14902125596785115,0.02700657963117943,0.011893625313704363,-0.166439487681396,0.018404276081087353,-0.05676341013660049,-0.010885116624544288,0.05352332198328208,0.16621962901630605,0.05166783253843363,0.08146738615405179,-0.14357090511422804,0.1252803226560749,-0.03402409950356547,-0.037774713065517766,0.12212937251651008,0.17002066689382045,-0.03821922016301165,0.07544095345183914,0.10443299761219506,-0.0021514685704409294,0.026885380561387912,0.06117509090866199,