{"layers":[{"weights":{"v":1,"dim":[10,10],"data":[-0.3597516522902555,-0.1176870528101968,0.08224129289529077,0.19369844299187075,0.029237725742137254,0.3152750867042339,0.2626983021635731,-0.22606371891480848,0.01814538279279965,-0.010326643284929606,-0.053336648763244995,0.43115100291305986,0.40326591396209405,-0.29585910483271116,-0.3795516551579997,0.2935214708708575,0.10658084736291831,0.3561165835254797,-0.2962556484454602,0.28073760816609694,0.17287675052993465,0.03125065541972796,0.38003418397424626,-0.27855761823531394,-0.14937721217383954,-0.3489834537895577,-0.17719383790789095,0.03359217681234372,-0.24491220096255303,-0.05338564021491851,0.05718235272689698,0.18907537490685633,0.16733476023547111,-0.221556799321515,0.24149405321002101,-0.3050974273892542,-0.29812319063303555,0.4239959098449433,0.3150101289169097,-0.1116842017973189,0.27895504692518125,-0.028754380013628768,-0.1807958720804344,0.23009242575197372,-0.2441065888124493,-0.3470030901032432,-0.3288205014596827,0.33435356426069784,0.01944688085302055,0.2665597962287371,0.43291663080265014,-0.39760758452598954,-0.022621497770703426,-0.2194441918412279,0.27125553831295174,0.154030846134383,-0.41690520344605375,-0.20855408387260221,-0.13091447404338244,-0.2605950707813888,0.13534002653833468,0.20570840947970162,0.014466248531695503,-0.01498633392711892,-0.07211388084554463,-0.16300097297252514,0.20406888239098456,0.2843877398694849,0.12985364434452015,0.11409864617692068,-0.322645912861044,0.43436842834850226,-0.3067791935384815,0.2317259282961782,-0.30805688930731473,-0.2250599041655216,-0.14331814231030618,-0.0826286307807728,0.20498717895243265,-0.3408852323703783,0.345473373666909,0.21757968199002053,-0.0367563926965299,0.40547589181909854,-0.29713785912800733,0.11118086159837373,-0.33768654010506893,-0.030438856563930746,0.08762152041237484,-0.10659879832076018,0.1288290319147689,-0.19600204939880297,-0.18370719516204106,-0.04160315060633694,-0.09399688725421272,-0.20198331208269854,0.4465580981660007,0.06735495567134935,-0.08982694069591834,-0.2038086998383898]},"biases":{"v":1,"dim":[10,1],"data":[-0.00040302211232729005,-0.002056907158645332,9.929119767942926e-6,0.0015111604960838343,0.0006023638400418481,0.0001479627447402679,0.00006215239259628816,0.00006345242618188992,-0.000628021904808912,-0.000248790111930609]},"activation":"Relu"},{"weights":{"v":1,"dim":[32,10],"data":[-0.07558094750576552,-0.13910008154624212,0.4363671970401642,-0.3119010827357287,0.026637375534598565,0.2552358974621498,0.058271473153541864,0.26474095646969026,0.1602755304804607,0.253539887470162,0.048228858964156,-0.2680326138685292,-0.3248707897107698,0.4015022130866675,0.3281958359573157,0.3053572280528544,-0.042691948561162985,-0.13303219198521313,0.35628561843520673,-0.22855374574393147,-0.37982993325034675,0.20022326101533486,-0.15650278953872476,-0.19914400450955244,-0.09185729290589725,0.2963133109068455,0.022798047243222496,0.4114094557649719,0.11296891720939012,0.028370354157937722,-0.3421464899044854,0.24996438281648434,0.13631784765957242,0.18173798454308096,0.38047807041346765,0.4438445698797238,-0.005934244569155049,0.10708470851710178,-0.4067649263625827,-0.19582285081579434,0.04411245260698268,0.08708447698111958,0.4307853982825341,0.09040046718782721,-0.4049668405212731,0.09590622758467249,0.165294966437216,0.3454156406293341,-0.010090132357245115,-0.17548391084285908,-0.4229624174213044,-0.36027521155095393,-0.13542475974169785,0.3182126906282314,-0.40168226904858023,-0.23655170715875107,0.3437531564744645,-0.08202240969274073,0.16179782669966053,-0.33028652988215434,-0.30735857048539034,-0.4105821682494894,-0.1124909200048055,0.06258335683805537,-0.286690363761705,-0.1262630912668552,-0.2659061164839499,-0.04376939468992832,0.1982530401547978,-0.047179710896372545,0.18729867237740644,0.09211629499741408,0.2470333108309784,0.41663669272587567,0.155328170761496,0.03648092895671185,-0.01854845803949522,0.358069282091073,-0.1422696895785864,0.12936215965475226,-0.18585320057113383,0.11061420348667468,0.018284844425390804,-0.30470252478527876,0.016242855131831498,-0.4114179152410463,0.1794049165308057,-0.042407877594158434,0.20368277583259126,0.3740745344689341,0.3895048371230363,-0.09701036265243689,-0.012921421598821734,-0.058994816955281026,0.4329054201006549,-0.4110374130313923,0.06894197531378007,0.3537868064158185,-0.07174022350515985,0.05793502562114213,-0.34900330889088216,0.404690291010783,0.04462749838960396,-0.1763786609085017,-0.013869864515803602,0.15518294397250582,0.22985754237887449,0.026496786292121297,-0.08799323330625901,0.378889998431823,-0.36754912929330935,0.30753959770008327,-0.013781534429977498,0.38019570541447834,-0.3925833402683351,0.03618726660423127,-0.15972112696212484,0.07618461249498491,-0.1730060792943318,0.10317607641216722,-0.0007969435351888373,-0.41245212424191535,0.37096913623348077,-0.4002014198961565,-0.3433923142884949,0.20327012431024383,-0.21847313632281995,0.16435543258168775,-0.2946190699493737,0.43412890500378193,0.3884532208226429,-0.3808261002270424,-0.1925914407693374,0.4277770842884729,-0.08333301700117829,0.015751566890886765,0.33126797713944495,-0.10163145417303991,-0.2737699265308707,0.27275370884902317,-0.2266541209106642,-0.12264424261644884,0.14058608888314145,-0.36629925797848545,-0.21833016557895296,-0.08988009789370711,-0.24522587469345133,-0.04702263112779903,0.11161851916159923,-0.10234703229949545,-0.2887388063860573,0.3071197138456284,-0.3718354311119556,0.03577660214805513,0.17918565396042904,0.01494975800782359,0.1952186884357845,0.4006806408761923,-0.1685049040105008,-0.016732850713647152,-0.43316002750383775,-0.068581099443693,0.09491937598988008,0.16383447214131128,0.1086560335631593,0.43765562661204993,-0.2854709143878206,-0.37078551837910945,0.23138218142140146,0.4318518789498537,-0.0371802973023931,-0.3875297899748427,0.4106971033437244,-0.4391986373382383,0.16749988307447622,-0.07439621468602606,0.14518788687402806,0.3967578132408744,0.11808306419764145,0.2664933140041594,-0.1226081674278634,0.3210635927552556,-0.1047832804195494,-0.203499895277849,-0.39453539352388006,-0.13638467969895357,0.32281722951697284,-0.35961827146990455,-0.10608963760054396,0.02996223942149775,-0.3703900904991898,-0.08449701085751042,0.3466178922775742,0.06107221829497027,-0.18706477238597716,0.3592333684280418,-0.08874893414245068,0.07340275721007407,0.30929354159396266,-0.4353939171972346,0.36668152861453845,0.06297155227694128,-0.21339843334497258,0.2623294834166887,0.4170834200599753,-0.0010508655060266576,-0.30757967661590924,0.32657569103958234,-0.24732528842809,0.21960201594332876,0.10481532099349,0.44619088824674114,0.17899429968488825,0.3724442228473465,-0.3031386264633297,0.4347443050534081,-0.106840187194255,0.4358975150423961,-0.1806731133934641,-0.05265696605201005,0.3818224097495633,0.04519884327966775,-0.018511727206452833,0.009059674856615277,0.09938845132517922,-0.31470870012268426,0.3510539568721208,-0.3673703679207273,0.23768338385165477,-0.2884852362598437,-0.40729176715773363,0.32421377594512213,-0.05172726034239031,-0.11500787866461759,0.20919458105081298,-0.03212689893142464,0.09249383249838881,0.0690271295791062,-0.3706421079781727,-0.18773160300885858,-0.16376349346154098,0.11963798593816395,0.08770605123856888,-0.2976541415389922,0.4355069817220744,0.21944043680134762,-0.08891737429066918,-0.2147494929304574,0.014131891831512096,0.19600686308663995,-0.13772880199958845,-0.23172910332530613,0.20998392621381548,-0.0026061058112759623,-0.263874885595707,-0.023094492622643802,-0.24751201512434093,0.33660291752553906,-0.3256043989401435,-0.22616617663025812,-0.4389314642657724,0.2932527423947141,-0.03282561554877861,-0.30300975317635387,0.4294347923567822,0.027950690499449628,-0.3071979665103412,0.18167909289832107,0.003303142907633725,0.21818761735629752,0.11808184577758181,-0.06040497542428565,-0.3334166558664557,0.3431146907457176,-0.24933575648041084,0.22155690576599635,0.2071095054645508,0.4039130796673945,0.22263941416892047,-0.2717750523304414,0.41326800493777877,-0.28915925385270846,-0.18344701602143207,-0.38635940429371907,-0.1360527419102583,0.2849529056998225,-0.18656939974386905,0.14371996586528318,-0.18295387038087177,-0.22918087633182851,0.4173720833963043,-0.4212001464730344,0.32748879656848656,-0.1879318105391256,-0.15888164968423757,0.18007552919640232,-0.2710583749084449,0.26597015095772775,-0.42654814987849476,0.2743764576275823,-0.2661287590665955,-0.41157037290371185,-0.19078453624027436,-0.0754119875714402,-0.030885769229183825,-0.2646118361677112,0.3423349357625446,-0.4248914928054832,0.16682900963302097,-0.13513882487178833,0.3026889910420577,-0.19883227986438512,0.29541099432409224,-0.00016699951715091782,0.43326064628652133,0.4322346064263826,0.21597650957460818,-0.12400501798712876,-0.23447989922363893,-0.02633828379821858]},"biases":{"v":1,"dim":[32,1],"data":[0.000060686258193957955,0.0009387243440238459,0.0007001381229463437,0.002176351397804019,0.0023606664227047392,0.0006278338965519654,0.0,-0.00043185242041947797,-0.0017507699549545585,0.0005864822407561924,-0.002299889113961731,-0.0014776205402951684,0.0,-0.0007372935034670726,0.0,0.0033678667525437675,7.387575882836811e-6,0.00003400219087454031,-0.0017659671930663418,-0.00024575674972169426,0.0011643085629980368,-0.002101721288593148,-0.002104877310267235,0.00029172468506390354,2.2512959501100006e-7,0.0,-0.0012056801786317483,0.0018520606823114135,-0.00004506654174863511,0.00007144989832581642,0.0004179709992318107,0.0006737944567751155]},"activation":"Relu"},{"weights":{"v":1,"dim":[64,32],"data":[-0.0024755505214548003,-0.07022083787430347,-0.21780974395311956,-0.18870256008001043,0.2466274870617194,-0.012463202045605453,-0.0613028430228855,-0.03585440953340434,-0.004971093983229849,0.08865530128994499,-0.1242827234658657,-0.14502248763568415,-0.1890238589911439,-0.08075116686851196,-0.10063376932392187,0.23530628750653035,-0.007839300204809557,0.23864026798885277,-0.12111591560767793,0.1223208536326883,-0.15056401333142816,-0.1829579024707715,0.16219728674232184,-0.11432480897081229,-0.1855992704417791,-0.21979447821069442,0.07038096204422593,-0.18304738538197016,0.17889323216320666,0.18452423093402906,0.06869496620816033,0.035366556449126806,0.18569839901848093,0.1679334253300749,0.23221635494421486,-0.15053430357385184,-0.08679383868377805,0.03573452446514688,0.03559336062446848,0.23223113405637022,-0.23189165272834608,-0.11053766359086678,-0.22520974588501153,-0.19146393709419812,0.0849674161978102,0.1852226061312908,-0.14827665899761674,-0.09456506288698001,0.11640496014504523,-0.14468005043230892,0.17322031455055398,-0.23468083053607067,-0.15482439236927542,0.22295356226025073,0.12036966503142485,-0.047385622921825854,0.014117528626077328,-0.13457263905759972,0.24833368548417376,0.10127754998986079,0.1587678053163315,-0.22085806527374685,-0.10959623155282697,0.09727846453196357,0.2367768802853068,-0.06560415678458542,-0.23846708804550826,-0.19448523226850886,0.1311987178140157,-0.20627607236085677,-0.16678956624988855,0.24931480629874062,-0.05830634842323039,-0.17624950813492382,0.15813496055581258,0.2151535503028375,-0.10754653487620738,0.20550332242156716,-0.027690403138073954,0.03503821757898908,-0.09500685346709425,0.2470364331617617,0.1370866194438185,0.23205931780964362,-0.10394368288476849,-0.0014598445397765718,0.15294939130632138,-0.10941309729326693,0.04884239476318537,-0.036114489909712943,-0.19565590831460303,0.010411986591351056,-0.1193835463371003,-0.22115860881519014,0.07282842994101633,-0.19659658528577728,0.0998427274957918,0.221056805014478,-0.047891381447781864,0.20414267574268855,-0.048865096458090417,-0.05816111933041173,-0.09436888844719897,0.16031346602246782,-0.20112623699923968,-0.17364604908592995,-0.20336937571008326,0.10825617584491919,-0.20560971273962264,0.03459587975541715,-0.20134020892607882,0.2446806945404438,-0.03940474619604878,-0.045386812054243844,-0.198122657946833,-0.21984561496929977,-0.17949305067771484,0.22430830522558837,-0.22497164638575962,-0.008246984093849222,0.15262515476989583,-0.11461785001666082,-0.11407557535733316,0.0026447870497947083,0.03549310024108853,0.05557852978098055,-0.1482937492253106,0.052350520372636156,-0.08408643374638171,0.19740332392252707,0.0919530189584207,0.12140592231045999,-0.03013427564596321,0.036737368524509616,-0.1276381436446173,0.08183884754988449,-0.2059184621341481,0.1923415553847457,0.20535751834437505,0.13779956945626506,-0.1776900437032711,-0.22203893103910977,0.1823931930124086,0.06436745643983112,-0.2052930714457695,0.136634658018008,0.12012363005579274,0.07970724188907483,0.11705692191584562,0.0250940467170213,-0.12545786302143433,-0.03658671970227832,0.24629172335279437,-0.13376458818246412,-0.23185659352667534,0.05212046118616698,-0.23875803002162393,0.043132138739641945,0.058818331882994256,-0.05804270839108018,0.16167956742418255,-0.2025001022629566,-0.03572804831808718,-0.16043231315861503,0.21303684878086598,0.0863880807637056,-0.009016572744904881,0.05484362340150469,-0.23719534909981943,-0.12033605940349779,0.0025782100230979104,-0.19876699805795034,0.24980695824874286,0.24230464730433823,0.17808420264426789,-0.14564224987129323,-0.21203534303605273,-0.1897049628229652,0.13853459524974115,-0.001994400354415797,-0.24161441429844505,0.030579405529215512,0.023545934701910853,0.24430760033756937,-0.09943798146118117,-0.21477206410276967,0.04186107907417196,-0.06317977024693501,0.1700479831808486,0.16280261344919789,-0.024390111787372205,-0.16778539417270066,0.06411011567903684,0.13164962804202981,0.0863592297699765,0.10206273974539001,-0.026862827336046273,-0.06392843902258293,0.1892638482867736,-0.23838394155224746,-0.22566702328816163,0.2155951150734057,0.2285886496252876,0.15157313306154857,0.012164320985917193,-0.08540146434322327,-0.03079669378417828,-0.15325910930212092,-0.13984551163376163,-0.14750228301951626,0.1639559454375976,-0.01868851330050634,-0.02290207220272675,-0.1377938742998747,-0.2434860952207775,0.21561526007851115,-0.21253898192676585,-0.11478666798774695,-0.23506928316264747,-0.1281890344353234,-0.009918976602610841,-0.16457303936680157,0.18974967582840258,-0.23992470014697184,-0.16721253144830484,-0.052975513311593614,-0.11852073601911126,0.2465875793501605,0.22284375869456685,0.009594308873660258,-0.05664717548871162,-0.08472954625199915,-0.1729788364234192,-0.05326921547211952,-0.14385419019107976,0.0389626126184485,0.06314734939651523,0.07371093574281389,-0.07359927933455,0.20184153016468454,0.21709973192999188,0.13441947320653705,0.1470473794637187,0.15940496521609268,-0.1325635599942687,0.013671553484356053,0.11237674350697745,0.05784702577188507,-0.17061284813117072,-0.22290165497914513,0.04668900081493978,0.15192219342888086,0.23513782257830967,-0.15999595399522518,0.09386513674468885,0.2098018565927629,0.06841796337145922,-0.2157228482188099,0.045551737269204466,0.11030090653368385,-0.17390258552869473,-0.045289945780689775,0.022988145900058796,-0.12869192660902865,-0.19652694606518978,0.05727667329851268,0.1486183138734951,0.15671916610257847,0.06343680117422931,0.21285098687116488,0.24368915359660193,0.05215539381277333,0.1488943220447556,0.18803579953033964,0.03353508432943725,0.08364729901307022,0.1272313804853324,-0.0643112806768662,0.22766829234881034,-0.029548052229088954,0.02567894066303362,0.17358284835710894,0.08149660927755123,-0.24068342393942915,-0.13179241073373263,0.11614046269881137,-0.1755703048935861,0.09475706756422606,-0.031947876648065913,0.022090599066018898,0.1921409052356648,-0.13235328806066124,-0.07352979854869023,-0.2091446615244505,-0.17459436460427055,-0.20140487753560882,-0.08385269674584493,0.1831035442877802,-0.1675652395689985,0.13939514869469363,-0.0013179663106895143,0.03507590169343568,-0.001053355952405568,-0.24910302886557983,0.12925977530927252,0.09605915553834243,0.09101043864687874,0.03742210416028627,0.06437013536683649,0.12621520459965346,-0.24850927853716578,0.14609131338139011,-0.20791916161842,-0.08312126997337635,0.22319707254693674,0.05308499557087436,0.033203843371561334,-0.23391461428330723,0.06760974114717694,0.11429365944253099,0.18359561089445461,0.04722865074571417,0.031997784981091966,0.15507603003723522,-0.24908655432396443,0.1317102984539092,0.07500749844206658,0.035482862670561326,-0.00055056762656569,0.11406767324767314,-0.10197665271898582,-0.03422487774967768,-0.06227420250083114,0.18288183890784326,0.1825113648039504,0.1488494053532906,0.15940995484194012,0.06945781626972317,-0.06978779449283752,-0.12538133854464328,0.23464224464402497,0.17753603034035123,-0.07793594145458208,-0.10790400362862759,0.029834473174816224,-0.17670613709148889,0.1989497492988771,-0.20576428691802795,-0.07669139838133313,-0.10377171616350882,-0.24151601640141032,-0.22607794646498525,0.24904546320839865,0.20962276487701179,0.17309501050259327,-0.24432866587580346,0.11295631472236402,0.21267268811256418,-0.1915422063096516,-0.12127490266061794,0.12400428033267034,-0.20671709921825324,0.08196218738851943,-0.13788236616650418,-0.16709962663008285,0.0185628178470002,0.06793472584608294,0.06450348844870617,-0.12079411740495491,0.22033189805128994,0.20944677518015115,-0.16915094373709055,-0.13402948146198537,0.20586383929554103,0.06363908407604868,0.15813344748161723,0.18459770243037746,-0.08462264333981329,-0.23725115833135088,0.15855586167753158,0.0864669191400974,0.20338148295672978,-0.2080694280400961,-0.20301547337910866,0.13327878294678985,0.22739621579499333,-0.22082110943321534,0.21160247253947384,-0.059931710124370756,0.13215716751907644,0.11059234806114397,-0.23116067907215498,-0.223490346397078,0.23321590658847413,0.10109437355118839,-0.1740494154999428,-0.01942272188392336,-0.10345263226772167,0.10868908565135423,0.10011498981487096,-0.2192989641906013,-0.10959557134952808,-0.014465026001125899,-0.05528731389185828,-0.20729844194255706,-0.11252390618834084,-0.23441249841132525,0.22569979305045837,-0.038483436869959455,0.08792030574785815,-0.23705262204198133,0.21067522162148614,0.051249573358839194,0.21753599614577704,0.17647718886117164,-0.20149140300377708,-0.11037615444410023,0.09686252160042057,-0.1917946861418624,-0.06405006653884422,0.015303086079646384,-0.14846996959271033,0.05271931277967523,0.08859264855191973,0.15884208174216613,0.23734658495516758,-0.013433438176513757,0.22329345053181313,-0.03846488194893283,0.10099560997885772,-0.2040099601060992,-0.13696008547181912,-0.17302995556504588,-0.023588044265964097,0.037465804497614774,-0.01038142032068616,0.07119471404647681,0.2296853719709176,-0.030704157867545774,-0.041718153598068346,0.10905454451428644,-0.1312270069899952,-0.16703183956445816,-0.24282171135861472,-0.08748118130111408,0.03094057586206986,0.00949816887348847,-0.22760476153549242,-0.06830474903518167,-0.007671238563512143,0.1066173843318015,0.2393342500262754,0.11652302093042557,0.07447972777603935,-0.01580844868707665,0.05007426450959974,0.04431159069203734,0.24765477088094537,-0.20685972545304562,0.023658955907001653,-0.015787122103311017,0.23298556173964988,-0.18020797626772753,-0.015300366056073935,0.16358196172658376,-0.15774754544449202,-0.23110855890930693,0.024943418895827643,-0.050862154459629556,-0.23597326113108114,-0.009598819981236495,-0.13033917013390933,0.10743195247101275,0.13905914061602329,-0.24864024177243563,0.04371721313076248,0.006974805357968387,0.19269651309240515,0.23467530546403417,-0.17585615684044686,-0.1230046182588384,0.11071286635911742,-0.21704511119808695,-0.07748379273749048,0.2347413279429306,0.12579598784803278,0.06629685556723959,-0.013650941952887068,-0.15363174233236346,0.003647140360874132,-0.07464734384362057,0.0627479968887754,0.08226253497818611,0.13041023098685298,-0.13490973212237004,-0.06153608403617916,-0.014823070809311055,0.22064013287143294,0.21130772374515747,-0.23465671201731894,-0.21067610576665818,-0.2225588879549637,0.15039400140561263,-0.13554303467877318,-0.06413140436959355,0.04059885740291187,-0.24542358478889206,0.056484195883351705,-0.2357136391409592,0.14149698334795344,0.2275340594630054,0.2477597053958414,-0.03277244399865081,-0.023330661448723467,-0.09682013201123421,-0.22343893794427186,0.18778178357612618,0.03320175345152465,-0.24933348304687875,-0.2370757675891237,0.19878600425790988,0.17875786475801672,-0.22638343493616137,0.006808161176551908,0.06783319997093061,-0.04084852745963342,0.2017105897035168,0.03338569381869029,0.11968923912970414,0.06304063563428972,-0.24363329971814537,0.04651715853011671,0.23705561543269188,-0.23076830862089076,-0.14286928421817596,-0.0077567145734891985,-0.22331384233888843,0.16186097142032532,0.09540184525666483,-0.19057113951894208,-0.0415987184696014,0.14075781326347134,0.21287325120527625,0.06174789668096381,0.18125260650776395,0.10996633309592838,-0.21569806304315786,0.09574216413545686,-0.024788391269342586,-0.127692295395123,0.009409011340931535,0.04779202677949719,-0.05055807353399514,-0.17312270142052838,0.03523714473400108,-0.15871576551499744,0.12247131131916991,-0.10289286342701022,0.02888186365539567,0.22247648862814792,0.15037771651171378,0.235895217814033,-0.12561207631233073,-0.05307288406800208,-0.13307935395865064,0.21924953218370125,-0.10278109878803604,0.13197584489307157,-0.2017076928561949,0.21160279550159958,0.2157162327535752,0.024327935821616284,-0.009854882076099157,-0.12228678084509323,-0.1084776686764613,0.015511926480035002,0.10047896205516557,0.10370793388127737,0.009436637339571393,-0.1187870582857659,0.2485226361894417,0.006374614373380814,-0.0953357912387932,-0.1937102245998911,-0.12536276218307252,-0.1824598577019024,0.09258406418048563,0.011882319484242189,-0.20237262048820828,0.23314808443959933,-0.2422488074400629,0.21838401286248327,-0.14439854271986233,0.22465744315311106,0.2373385692854583,-0.10215309314464756,0.2159004492550936,0.20479267910433036,-0.15260888880421866,0.0909915626219344,-0.16870229658153915,0.11215038840148005,0.03122942924074895,0.06312710076492323,0.10828377161683186,0.18508916582500945,0.1391553797525916,-0.053839649497226506,0.23691153785336436,-0.015643930188133565,0.08544862586692538,-0.14097274329089832,-0.13085977548605573,-0.055219771111544365,-0.006452698353720725,-0.025798740545239833,0.20234037456319565,0.07082417462031555,0.06500152601326882,0.015374792633324611,0.1167448181993078,0.06709465396494199,-0.23156881822381534,-0.001236347461975404,0.23409318302261217,-0.15878074121958588,-0.007345485437351573,-0.14707237350382596,-0.15361012471618823,-0.20458188846689712,-0.06100234504277638,0.23664265263519751,-0.06919114439374019,-0.226989639749543,-0.003871645754442802,-0.019463671961564625,0.16580028933780644,0.21482418057263705,-0.07731391178322147,0.08975940567364787,-0.2103002444768887,-0.13819461480563477,-0.06839280043617663,-0.052325685772428424,0.20051044059644738,-0.019091415476108244,0.11597173374384401,-0.15934713637209774,-0.0935887682975743,-0.17091727627457495,-0.11253600983676379,-0.049412966808088175,0.04734695983291847,-0.019471750588294718,-0.13866034234044994,0.07957487481499018,0.20091838465025924,-0.23811613283800856,0.09692142602245685,0.1323827578164824,-0.2288374866891117,-0.10754792813128347,0.18431418882231618,-0.21737746639800087,-0.035523746665201736,-0.22075402416094064,0.10567421877287689,-0.22137406156664674,0.003518914167935231,-0.16103923029967784,0.0926188335639196,-0.19874459876922398,-0.03824789354825624,0.010123174245843644,0.135288430099125,0.1571409743768779,-0.11696066094801999,0.19748524578840218,0.06704983578242213,-0.003368570280910559,-0.15137579013913338,0.01102227574797656,0.13682534869615218,0.22136937441394736,-0.004164516520941256,0.04072774999336161,-0.0874049261567608,0.05923636346740107,-0.0036433114753491634,-0.11111382993074767,-0.15266043651775302,-0.13005209518598213,0.2227411922514715,-0.07317276665306136,-0.08254246948194723,0.14059279348088718,-0.21946033098777637,0.2411945117118898,-0.1367237129918514,0.10337395347016896,-0.06710295664408643,-0.019382147847744127,0.045826903791631075,-0.06677366296876798,-0.009951920436567757,0.2123679962046274,0.04278137660098785,-0.14921890402332202,0.05404578992450845,-0.20542335862762412,-0.0744391882675772,-0.18201112754551171,-0.2293138652345761,0.040123230392188514,0.14124684912160634,-0.20860707336055398,-0.21140023901115185,-0.09382829776109622,-0.22728820928226626,-0.07093721310433615,0.23683395904435603,0.17938244920507568,-0.012733341235266179,0.1896109566400519,0.1839932087007502,-0.2444176739080776,0.025874357123567535,-0.11033398168398027,0.19093374817114372,0.13281843277919037,-0.16428834969758044,-0.011612462059051924,0.04922281265458961,-0.18614993574437402,0.18979253461292342,-0.08529404060527995,0.04165178187891434,0.15066523145976432,-0.24794032877971692,-0.0066096074897632395,0.19293661652246724,0.24352943858426215,-0.04630674914536211,0.15283362141703133,-0.08122800986285941,-0.013454508961347457,-0.03304585757974916,0.09535708388418546,-0.0061473737932471045,0.003795114092570006,-0.017015755513189814,-0.08281688979640511,-0.11608732345624218,0.07487078140319398,-0.006168026029092335,-0.14840764770969495,-0.11905245805772827,-0.04708988858178937,0.10726960448330743,0.03124090953297474,0.06712177103194364,0.049901579384294584,0.060452347125785566,-0.23576049952555622,-0.17057870052668675,0.17362216258970606,-0.09908462347117708,-0.17898059689287726,-0.16360358282273235,-0.23235930675735214,-0.002133727639631762,0.15425083582139396,0.21634122914251408,0.10401536607520297,0.23655775606953353,0.18196080586702604,-0.1097468931747019,-0.04309519055652266,0.03931834378726035,0.1046285559240127,-0.015851141756281485,-0.026665859255762557,0.2060470897843455,-0.17088690656576894,-0.12044961313744432,-0.0787983994677695,0.08219713643638053,-0.08897366317833133,-0.12276352381895514,-0.01602086819074669,0.050105492802493844,0.24524159657805475,-0.2308564763043293,-0.013043710776985818,0.1783990581716514,0.17247654634584686,-0.11954649521531865,-0.03652878253244225,0.1548249290668618,-0.15531765632719813,-0.10932024706169136,-0.20038890751963043,-0.09543890100748646,-0.22981820888879856,-0.11177718322771035,0.20167964712862,0.1612306039298062,0.0158283321291607,-0.17710291011161705,-0.2107050638190807,0.09629929556140653,-0.14044241917903616,-0.17308008755690152,0.2364842805734144,-0.12446820534489635,-0.02227873638265862,0.1111281318692961,-0.009107663214300088,-0.18512425186920553,-0.032729042718677034,-0.12534232775367563,0.0009041133838365616,-0.22515791000998792,0.02531693301701072,-0.1678645867243405,0.12141012289448051,0.15165319180668696,-0.16288811105204323,-0.17056967357884956,0.07432768595496904,0.11430246752026797,-0.07601354364763416,-0.09526012720066762,-0.08870506279685375,-0.01580605771509911,0.08571294147275182,-0.02342942797515538,0.2454312805300877,0.08079669273026438,0.1904295718547694,0.07398644840335543,-0.10321091067613093,0.048264516338463063,-0.054654365258582145,0.18187260710772732,0.16785874171349702,0.1423945402784119,0.16459767693324956,-0.050280761236722864,-0.19353034933142818,0.10498982393382539,-0.15917234807943054,-0.2159963939457261,0.1673564456640957,-0.12656193546358788,-0.2063852316274919,-0.08395196654252549,0.022465908305986628,0.0812374861863812,0.1577695152850191,0.20855098945271636,-0.14939648939882283,-0.09129640535413146,-0.21528178313442672,-0.24265549334500472,0.01501358812973651,0.004252034365749172,-0.11544026558316679,-0.154257151730596,-0.11570497599134581,-0.019673612619108546,-0.023558661808657275,0.17719166041498635,0.17894492822462285,-0.15866373580971008,-0.2495705874028741,0.13716104204972457,0.12417436146601823,0.17664477979310317,0.06476793993684024,-0.024674983508001357,0.21854766031954345,0.2346499630578511,-0.09596572047544767,-0.010115932912794062,0.04223403302244601,-0.05813852364626633,-0.14706424262075726,-0.1320233809347891,0.08366532543297817,-0.1175830706228843,-0.17832983064176594,0.0956322355649039,-0.10616706319202625,0.03840984660177538,-0.07038013835562175,0.12391930773233578,-0.24091691927912437,0.2495585386839056,0.1551134922475364,0.0010525273639134449,0.0056595815980883405,-0.0391374771484495,0.18129270184940469,0.17267525643525428,-0.023804577294025173,0.10844019145873131,-0.021652028482601407,0.23835002135886993,0.15885241817908682,0.010269106567008543,0.16040565105562044,-0.003829040325416894,-0.20101745923150632,-0.14349829249770238,0.13764640036507308,-0.024863821646638293,0.18161945220888442,-0.12583774951764412,-0.18806952358579665,0.0368983305486594,-0.023485136148249864,0.09448898148635167,-0.15279426457778772,-0.18141751149641086,-0.12379337690881963,-0.24020937052188399,-0.01971512186234117,-0.049404612659589286,0.21662361247108353,0.240115449468121,-0.02097262373195037,0.15509915977595926,0.14963419665938793,0.01594345530591763,-0.1593855233273023,0.13099077552632027,-0.10647595794291885,-0.12230299821251393,0.1593742882612183,0.15347248221338142,-0.23649788011098177,-0.17849036549022662,-0.18813952266767184,-0.07476752557541523,0.22808893789740195,0.0809588176451339,-0.030664145118936528,0.19417165440351686,0.10383898712664523,-0.04435781423898859,-0.034928709143588955,-0.03210624015349356,-0.13229138349176459,-0.010898026188847158,0.2391149559144504,0.0012635706634210003,0.015789017898405085,0.12660259874105284,0.07668830584788842,-0.23772399320704035,-0.2213925686774921,0.12512960017900535,-0.04510265127794771,0.1754224850122768,0.10564502731160023,-0.03070483391472491,-0.08954797922346415,-0.006483704465542353,-0.09843675628610242,-0.1956772742711636,0.04994915350555611,0.20034738567612828,0.20218657799757986,0.082435328682779,-0.07652438539901571,-0.04462993509472181,0.20904670313264087,-0.06839345999239396,0.22590491108491442,0.1774387275929822,0.22848770115653927,0.13176146047456352,0.18683319955916888,-0.10662537739582464,0.18482612745142787,0.18346230643145997,-0.20528267402740605,0.24515016947690593,-0.12634117546739182,-0.10338788222904671,0.23813558962280978,0.15667232000858441,-0.2094582936881534,-0.07419659244584345,-0.12828969159937115,-0.1764643560536305,-0.14266122193180034,0.18919436510808094,0.19684070895447653,0.02533873431355185,0.2239917354305987,-0.10903495320830804,-0.22999311290330884,-0.07922438107207339,-0.013783509921552396,0.03815766723169678,-0.05951823875042618,-0.13508743817091576,0.10139021244884303,-0.24619117213229177,0.19566750236711114,0.027504344995542402,0.1874918926895441,0.0771357389232354,0.07759513762438605,-0.03796406199689404,-0.09877911561403324,-0.20425596646018856,0.23836769776003616,0.16925376480784324,-0.12117817782718872,0.189464605450982,-0.1094333174808951,0.1723484899806721,-0.0472380113560531,-0.06935285396680015,0.13937164179843176,0.030210093799151905,-0.24394076177258533,0.16819985358577627,-0.22378042154417968,-0.01130476516644615,0.07133349460815201,-0.013937517996546174,0.09241376929087124,0.10679574419811469,-0.20901545407432787,0.23679405874142057,-0.1802438793535095,-0.07484854360873235,-0.04566859354026965,0.22642703979491194,0.19290359763638912,0.018407257760285477,0.020883896469029106,0.08597550082911112,0.16474824992345716,-0.1418127426523162,0.03972342388259687,0.16097539434848065,0.14094766029588926,-0.09882652089278868,-0.14399245479891531,0.07643965280591739,0.048893199925135425,0.1337481306345063,0.014225534760221738,0.048897001111988074,0.08437304439198048,-0.19345052974030622,0.1407564465190859,0.09790074787625842,-0.10228028632873634,0.061580466392748744,0.0021138975940215394,0.05254903654541505,-0.027523653393474123,-0.23877189806924654,-0.19795521473781286,0.08292476329146974,-0.1487303858810111,-0.14964897019403678,0.17282630789801717,0.033665190312328376,0.24511915616133348,0.2202640645495859,0.18303986373542286,-0.0869765065658597,-0.1861790865191786,-0.17847144101680268,0.01203668839772905,-0.21752386365265144,0.19518977767772558,-0.0019394502689513654,0.09416826787054852,-0.23542826357983707,-0.18335683839201486,0.02623856230972663,0.18331908718769382,-0.07750002401751098,-0.1419878782531936,-0.1352638834614891,0.03656566279465526,-0.05311004039534945,-0.13272745584906556,-0.2295733347984561,-0.16911736876970673,-0.05457689346672619,-0.2079224087487788,0.030034796917584844,0.1134208726201576,-0.23242253453516082,-0.16936353094071563,0.16984341497911432,0.07976969215054606,-0.06570903552223646,0.18658141922474064,-0.10454060888536508,-0.061424007165734235,-0.12640092399641611,0.015776626021599703,-0.2146724995974158,-0.14401546226866735,0.14918776826507651,-0.18891471274265906,0.19316790304052564,-0.05689299912954451,-0.07048193481757925,0.03661899412893937,-0.23469138769383033,-0.09174154274579104,0.17532486416800994,-0.047580001483868345,-0.2013052891684459,-0.1052360483159682,-0.2299070968697076,-0.05916450392272965,0.24544548824326365,-0.1935350919866104,-0.21398409042465125,0.22885710259644945,0.23558506901945528,-0.10137638064794059,0.2320730263035235,0.134941498806532,0.18345819642021374,-0.0757041729434478,0.030978255418375608,-0.1868934710359197,-0.0017893720836874298,-0.013058595481219647,0.0027398282602806166,-0.18082959046527614,0.045561704250424225,-0.014778740713139641,-0.1824467412266352,-0.14216583593854804,-0.1573452481398501,0.07546243228342644,-0.13487247012620676,-0.025115436951344904,-0.18895021698563866,0.1550884365653175,0.0688991312674961,0.2101273846890066,-0.06917459056296452,0.21442243325239407,0.12160296518993004,-0.20408385766162543,0.09406099479681995,0.17284039711901816,0.19654646751503713,0.056652724975805514,-0.11521875432278916,-0.2014870747927647,-0.1106412600543073,-0.02693492264330653,-0.18841123406123844,0.030823751709360574,-0.0780503906955867,0.16716339765235305,-0.2332432322257709,-0.0830474487871546,-0.19417660749359106,0.22754284202630082,-0.2265925806274052,0.19953870693146328,0.05853040034823867,-0.03007631295649403,0.09635102616428778,-0.13487622631222992,0.09131571259826612,0.0943982074951521,-0.21983390215371473,0.08694658746559059,-0.0167760709255284,-0.21383411600971808,-0.05900149267107919,0.02523719069284101,0.014757617874637835,-0.07505063325429101,0.14310237909968554,0.048546062754676905,-0.0833537688876099,-0.022998124647450487,0.14774027602203793,-0.13141104058934355,0.012152135015539271,-0.16376099874058947,-0.004375138794620688,0.009249254535174247,0.04044256736910245,0.18356470390213298,0.2218951925166138,-0.05892115753098522,-0.1517966750217672,0.17510147861231362,-0.10639344768294981,-0.1294540134738184,0.014882089590955135,0.1198207848479404,0.24776872948204187,-0.08724054770739299,-0.24221055203443612,-0.19025276142847333,0.24963606790016613,-0.14178495817477982,-0.012163496258016273,0.012260223565190064,0.038450268654172205,-0.09484854931311097,0.2190915667903151,0.014271404386161762,-0.24971662440267148,-0.12906148238273782,-0.15629506098314,0.04119189912924638,0.135512080011653,-0.03661810966576271,-0.15046065359971383,-0.007585279284694673,0.10618540746707314,-0.0939101976016189,0.03779734978935046,-0.06349646443686195,0.04835875078451146,-0.16034356481639997,-0.17527978947650869,-0.24837447336866053,0.08212809446705076,-0.17529892899111044,0.13743108042403443,-0.10001613168009822,0.1646390927643703,0.05913086388829077,0.14242915452206145,0.07499556236366008,0.08585312782026697,-0.1703702400428221,-0.12286226815693184,0.08302415430212186,0.23032920847769647,0.15234632512733381,0.2353188568493253,0.1651345515317337,0.02791099000614629,-0.012104916450112845,0.04659665189715537,0.08915290042726197,0.05983322424995449,-0.22623248597022225,-0.08531588599054793,-0.183540670924502,0.06804247802092392,-0.005160768442355565,-0.07646281949344859,0.09594657353930411,0.19554081791053282,0.14559970587708315,0.09051663593566843,-0.24805769635034866,0.20615918758318577,-0.040969523917694886,0.11331665319570275,0.00847878885695817,-0.22787107088932407,0.2392424063911765,-0.23216224920648273,-0.23232746414933203,0.13312105681121153,0.17955862945350523,0.17213703344094125,-0.003593263687824833,0.0842999905700145,-0.04878897186317684,-0.14778029436109857,-0.11910944326371978,0.18254643781739596,-0.17901594453942712,-0.07700972415998314,0.19223325512680625,-0.018289429083278803,-0.17597571757487016,0.23702454829973144,-0.16320155270796027,0.11083280975185004,0.21252768202838268,0.057164719323525764,-0.10163621103528482,0.08700291140051943,0.18638715106271678,0.04170603072713873,0.13863581158762678,-0.028005771123669483,0.2482743281508848,-0.14435306658441807,-0.1152663934806963,-0.1395837166230027,0.19631060171188472,-0.18103437315435808,0.0501839676754791,-0.24718138745528487,0.06907152275131118,-0.19001165131114187,-0.0678709176807946,-0.0973143429215601,0.02952625583897108,-0.09549129827773402,-0.05895631644954988,-0.08104182917425837,-0.21979357876125832,-0.2391183272362178,-0.03233087991840604,0.20313907596447808,0.20223585796397142,0.0489357194696962,-0.06561257347922125,-0.1948690016691701,-0.23201693613821675,0.20030879955362815,0.13100948992802133,0.2469863752634831,0.22924098438825666,0.16852454635431038,-0.06750388575140218,0.2132673543926561,0.17366239877036693,-0.06273991281088719,0.1052775879262955,0.19305892964069804,0.02826202099826094,-0.18555790819427267,0.13474619781266456,0.12699468708286826,-0.11755009099460481,0.21929320287677584,0.01948077074667037,0.006556663027841649,-0.11395779223085778,-0.24264197008799696,0.04237950363961683,0.012847277321594623,0.14463118001093442,0.20919991100968324,-0.021909824342947123,-0.08801933503102508,0.022268162363535796,0.1326285457360824,0.23531495982779121,0.06426757418023482,0.18493310990953127,-0.007163233500224375,0.013474731634212856,-0.021808601406886598,0.13246942337730327,-0.12317600083078027,0.012553356590442653,-0.2214596454537921,-0.24415334659617954,-0.04317648029749218,0.14440996464261083,-0.24499624346471746,-0.05124375065199329,-0.027732737290305887,0.10669641370787787,-0.11331502770533401,0.24938175489571482,0.03876021354228297,0.07117203656774153,0.24091770812640198,-0.11230401868823948,0.16134736979158643,0.20649871357831392,-0.2267944647563286,0.05083873384558035,-0.22340847330257146,0.12252757390515255,-0.19774109846313132,0.12853994388624226,-0.1819773679707764,0.19411706273970433,-0.05600869182599884,-0.19701546429838382,-0.20363409590743084,0.22442427346750432,0.22818889599816777,0.0901426084180762,-0.18111651603024675,0.20745282155107142,-0.23981785681897086,0.15274568811512979,-0.06425581854817275,0.11331786794299553,0.1217324539200048,0.11072381376128704,0.0803045455494074,0.00979073275569572,-0.06713739600675912,0.15322881171667643,-0.00481195928537712,0.05112957721628577,-0.0017176604357940879,-0.06223718273757046,-0.19530887884267356,-0.19899792538437708,-0.03994012322481614,0.2380654363011937,-0.021043824081939107,-0.02495572450781101,0.07880125100994122,-0.14832923121673222,-0.22033303030140508,-0.0723535246967131,-0.07852461039879327,0.17485826109838518,0.19936260828006375,-0.029435447754893512,0.19719818686544277,-0.11164407781649946,-0.20564331164307523,0.03186813537803895,0.20891164249804195,0.015376457669342402,-0.10756593817587391,-0.1275082982314264,-0.0823987719824338,0.1950594792015214,-0.20000262996819262,0.21569791503213057,0.005082083350499057,0.07667715885515981,0.01623896767916299,0.13376218888894892,0.17265577385278022,-0.1952098203420562,0.20484435541875332,-0.17247845958844418,0.08825993007567254,0.1746956696169994,-0.2292131085215415,0.21457412212043095,-0.18443440906388886,-0.22752807997616822,-0.10349146751424099,0.03972103855947657,-0.18075658124070912,0.02785372672356004,0.03427682437372017,-0.011897514886669472,0.021040224901814175,-0.09035129304812188,0.12174916025756105,-0.10533702576672596,0.19453808093887573,0.0658095198990939,0.10482217795733714,0.023614446492594154,-0.18430822363852153,0.019725938378584617,0.06074802284795799,0.03767016375831633,0.019377477078962663,0.1337596331249669,-0.22536390286194782,0.03280986763640747,-0.06096398914209853,-0.2475693281882099,0.06156804259565494,0.022966235333738046,-0.10264130785983835,-0.13197862329231572,0.08143905797637989,-0.14354101443901401,0.23828718110790426,-0.1254964653614292,-0.011227111863210546,0.14620055513485516,0.03370368396338977,-0.1699134611073559,-0.16831057202837693,0.19143891297821208,-0.14551441595398673,0.1767066074367924,-0.038011611715963366,-0.021539257438487676,0.16688281202825034,-0.12325144859250338,0.22638976286699422,-0.07328050164551826,-0.20758438929031087,0.16566373755989455,0.1512515559264215,0.2026417941958788,-0.08011250080887934,0.0069965865680337224,0.2203256769969911,0.10351131822635337,0.07226802069842601,-0.03749185650985312,-0.24686994187160208,-0.17570780054086782,-0.2333697700251337,-0.04944867991159141,0.11154719201540032,0.15842504312363795,0.15131929862231164,0.1031554322355732,-0.207049355976178,-0.15541917494197086,-0.24017112339293373,0.12431235535144013,-0.21415678012877476,0.12650895983920757,-0.24035324604550407,0.15594630906375118,0.1604328592575489,0.10983915918096074,0.19007884024212848,-0.08048139745429245,0.1216180072140785,-0.2454641694653377,-0.183925822663945,0.1978794776336024,0.08615494374374871,0.09833975163870079,-0.14908876015985986,-0.08443020846941923,0.2330439065525438,-0.1723559457596327,0.1789888305092528,-0.24937588687756757,0.15889527384365168,-0.04645139768926367,-0.03608624894110109,0.22030535742770058,0.1290773950015456,0.24743520919533563,0.22713975671059045,0.043256760346654106,0.06966064233028688,-0.03162405963993283,-0.08542297173147569,-0.14760403580420658,0.19265054081101854,-0.01840602400393167,0.20587798011258754,0.03972293135701689,0.10000270185002727,-0.19497503386777654,0.15232151282531012,0.19977131721848204,-0.23750122501653775,0.024254889854692086,-0.19925614523007745,-0.18284293118181985,0.12893678047399385,0.04778186562863356,-0.21659654502412445,0.1626362430564518,0.233339862724004,-0.1291098014076087,-0.221580934003799,0.2097816908757866,0.11987181103017484,0.06426381480919315,0.22433275404628217,0.08343863147793577,0.21506661889500028,0.15302895316633955,-0.19013496998480892,-0.07655007866594349,-0.08508664267107656,-0.07694193359098138,0.12548316197895537,-0.14655112123821962,0.23817978423138045,0.012726297338933488,-0.18576412929206707,0.23085302391616144,0.1739438320751974,-0.24845032049967322,0.2144301098383634,-0.018741773796247554,0.249224047542406,-0.2047782363903894,0.06210155874023319,-0.1872737854016615,-0.011395775640385731,0.06348530706897973,0.0317814769938506,0.18708039636736887,0.21897931313709823,0.0034377396270813517,0.04958710295872108,0.03859534749999864,0.1575526365643825,0.12532661501848805,-0.1694392514024491,-0.21706863239510002,0.12482941196087564,-0.052294283653858534,-0.11399435488296841,-0.12718160810063422,-0.08584601341851072,0.24975839945654044,0.13543514707285195,0.1834571497428051,-0.13621044982471725,-0.11488762487280983,0.05222231640852711,-0.0003576043382296884,-0.01671522521292406,-0.14758324825200694,0.022418933749935855,0.05102110024982115,0.0933448372116518,-0.10114772151854443,0.04418810678525987,0.08669142783999559,-0.10911826468470148,0.01977401407917709,-0.11085890666721328,0.181906307837425,0.22002708914261568,-0.04450371050650531,-0.1148578086241514,-0.21386305392602348,-0.028965494090861132,0.23774507689994967,-0.13329264962966406,-0.19265770560822484,0.11252077503178042,-0.05890834589120772,0.0983373790094024,0.11673929422586175,0.07586171648483236,0.020253484965704966,-0.15144892453893308,0.204009854946378,0.13128228894315913,0.07670006442231384,0.001929029322427185,0.07626025903242416,-0.12689018918090061,0.11192025981204752,-0.1734425520355448,0.09654078174220433,-0.08693866268162241,0.18235796811923652,-0.08276731061601361,0.021443900703102356,0.15812614640517755,-0.2218342027373901,-0.20298266490827652,-0.22550726326294984,0.033424715442091496,-0.13789782718670365,0.1300275457737643,0.05880618592686543,0.012598530210329152,-0.15988969381964788,0.1306027752037959,-0.08895831613611549,0.1091943192747873,-0.145064332654913,0.08914573697039094,0.13164133266667324,0.19760513512741382,-0.1051284560160235,-0.052295744857233296,0.10280537263543464,-0.13550274430111456,0.04955743357185395,0.05015681565530519,0.09841760684502895,-0.135846728605318,0.013130702433505188,-0.15527071109689977,0.06058160824540786,-0.1213541943105657,0.10684196677738628,0.18745448152323882,-0.21351636572250066,0.2151291345738879,-0.024148916936036744,-0.200346754045507,0.16123441785156867,-0.029729020843778202,0.022121153861384867,-0.014721217352758316,0.08680658630269777,0.227892327995111,-0.22317052698704243,0.1980146247088473,-0.07043108005312858,-0.18250662533079623,-0.22370218341991926,-0.19672956201890163,0.14417444688970657,-0.18184629293971907,-0.06236917095436657,0.11903113337703407,0.07125029750994334,0.209922169310582,0.20473345219856656,-0.09774185206195014,0.1711737452587686,-0.08829571944242465,-0.09722934588217132,0.0064032573518253665,0.12305115473452868,0.09330169449914294,0.06832865561261071,-0.030748470841370504,-0.22504649331656704,-0.06960490968344948,-0.02269329557926086,-0.07990500643241549,-0.11755848243647929,-0.19206580486306507,-0.0807888235487551,0.03608477927947843,0.07461698421870899,0.1981154678980624,-0.015994669619511213,-0.12849699200196557,0.2199226289012968,-0.00453722578006764,0.13032149708225732,0.06596786436398626,0.08395217579214713,0.17286618596245754,-0.11520598454629742,-0.1277561618033176,-0.14181344657655387,-0.026893452875653364,0.02436643334037458,0.22761132370239118,-0.0671863536574248,-0.09010191753765918,-0.13125374037437387,-0.035253747410665816,-0.14760674528923476,0.018176754924868525,-0.19128666778176198,0.03233645728304933,0.2148019753997686,-0.12869337040486145,-0.21947291196576718,0.18434429352017945,0.15870718373942322,-0.15212250287844054,-0.1980885040077127,0.21077963236943417,0.0975291445290003,-0.15494206356090615,-0.09836946970547827,-0.22666240135731677,-0.14023867599341933,0.1859285501400417,-0.15064749599643515,0.07323300326545937,-0.04866294475237142,-0.106953573261984,0.024841378243357554,-0.062005435597625856,-0.16895380521898587,0.038889697325376976,0.1934704134287531,0.1960766483010447,-0.20346194358772585,0.12429177261664726,0.03516951595845594,0.24868940008119175,-0.2184998826357203,0.22236856194964977,-0.16514731527175017,-0.0027961284146163063,-0.12162843836559604,-0.19803588961232757,-0.10044084901874381,0.15100277542870644,0.16270668748551137,0.23668134976575717,-0.06519535539926405,0.21977164109628464,-0.20865996366359837,0.2135163963284487,-0.12534083558183376,0.10468720439973897,0.02646507346921397,0.02571738822811266,0.2068014243254401,0.1786144612572721,-0.09832476169507778,0.22985549580803707,-0.13457344724526335,0.009206265194166818,0.05880990101930148,-0.01369510034474853,-0.2207292306128734,-0.17112202764691703,-0.0069355607532429545,0.20665639629517013,0.15534051050414405,-0.1306594252390126,-0.013529608425265151,-0.03140379594768921,0.21935156558352556,0.09191840000344756,0.18144132143077402,0.19017522610252274,-0.02601272986929112,0.1631914083210855,0.004483178265704844,-0.08215344522666827,0.11847418971270035,0.12951237547802863,-0.13563717039840886,-0.13535310560210137,-0.10903618344275885,-0.07414641394420256,0.18167331062921527,-0.17677632699904294,-0.21642094376821017,-0.12908170539596273,-0.08862233837072576,0.015785869723020065,-0.10498445366351679,-0.11694033652973056,0.1834554469157862,-0.11727147865047464,0.04719965703535266,-0.08870963103203723,-0.18089200419372406,0.23014808078742785,-0.024687835353230252,0.15382918094178571,0.12057899120086203,-0.12641905349702373,-0.24632742389641696,-0.028208158471133747,-0.04934706941297144,-0.24577169319135383,-0.06308490686493903,0.06149550605791279,0.11954962325274204,0.01448814688974165,-0.15428699656160458,-0.05873537881742158,-0.10445879401819114,-0.01736193562156625,-0.1685557866174424,0.16137330494948246,-0.0033759732280086736,0.2229820576257742,0.23029594162876627,0.022009285842389203,-0.23232967238863234,0.029830256316368146,-0.14535847455807283,-0.0962129721118883,0.23377229356634854,-0.09508693023146512,-0.04394196702254159,-0.060829673095152734,0.15084438674536946,0.18372060015093544,-0.0695830822310863,-0.08774740282620172,0.24556679173831067,0.07963614404624235,-0.20991982637128345,0.11529429590745491,-0.13737918904685023,-0.16153517020907462,-0.07126837195128095,0.1093344145416931,0.20959717311861875,0.09917947528131359,0.11665509034809897,0.07908766473833977,0.11845917502045322,0.010006440325609852,-0.22819426271851265,0.04957279636092945,-0.2465643265155789,-0.12399177028248237,-0.0855562922072725,-0.038705385910571335,-0.0050738033394648295,0.07436906790330877,0.1478284893597498,0.03570328747243322,0.09432940593676607,-0.022055504779647253,0.17020018437677306,0.18397509274433874,-0.010909998106762913,-0.19310006444964112,-0.15608227541826167,0.24815128857173158,0.11162430151902025,-0.1459964740690438,0.2062555270947114,-0.013783543464667694,-0.08009687231391642,-0.04198075598933053,-0.0631347460279129,0.22630779504711418,-0.030030911478064196,-0.16146488595306402,-0.00011407887583157097,0.1988463698933916,0.20236869245347278,-0.06251908553083223,0.2192360210673178,0.14689782868138893,-0.03020415911109492,0.17829553005656576,-0.0683526965648878,-0.1446597033795667,-0.23286100899818457,-0.010096197926924358,0.20975653523064114,-0.07598096146760229,0.10415614891692762,0.08985331782361898,0.02548283918947597,0.014648871837629739,0.21871293970179387,-0.24498277688833256,-0.07276485505582644,0.08155601960603183,0.1479690601505683,-0.03299919440263738,0.07493892081592865,0.23431294481640938,0.15491200500896216,0.1763876722236208,0.023633487369494256,0.09459441791320551,0.11558695721363389,-0.05742290533163713,-0.05740091103760213,0.02702380670217791,-0.013979491038171648,-0.0016756363220275755,0.11428344348136661,0.22757204476394546,0.19099526604780406,-0.15678189698190476,-0.23017380447455557,-0.1774961604654513,0.1632424073710584,-0.24738614681230328,0.05005537244601037,-0.1823872108141385,0.1390773578730824,-0.17552668144207936,-0.04157407117974917,-0.025648122819024063,0.07364754685416579,-0.16936329944827075,-0.08397332977555669,0.13889478921704693,-0.19235109682467577,0.17758608893821654,-0.017870118492300198,0.10276694649936044,-0.015342420996865063,0.08652537444807928,0.23893906882572627,-0.17052839248090737,-0.031284451520585635,-0.08753197679452585,-0.0003232393863977752,-0.15129840517167975,0.2282829836714622,0.24073696678671974,0.0985925711169494,0.128932134719622,-0.09997265556922966,-0.041745102998779544,-0.07485989387081801,-0.006901841170768404,0.1473540713170721,0.09804956230614853,-0.10689663377197649,-0.20915091878049386,-0.02618534718397256,-0.014940710748738968,0.08098160138802284,0.16989045023184565,0.21182911433538876,0.1497470125155031,-0.1975568443478909,-0.07753829444412576,-0.13109602761615824,0.13954703527918905,-0.04009578437655195,0.23550121371578692,-0.09401068157316765,0.16693530387961064,0.07952682192910109,0.13101998472182336,0.14095983797445483,-0.02859485135693606,-0.06103789456892687,0.030907350710165767,0.13760457966277162,0.23191727089236447,-0.04361287542012596,-0.04290643869789481,-0.18075868845704932,0.14022502883403665,0.22465497618995367,-0.10719310819018471,0.24154694360279,-0.07570204434271409,0.03975914359434592,0.017198100453413426,0.17966817556701695,-0.20842887399215843,0.005569483517462567,-0.2381395392656012,0.06030018928920042,0.025552741089487206,-0.0529558938822431,-0.11138253171782278,0.24711472729237047,0.2421843069284883,0.19549818700339028,0.0132186432328134,-0.10521732574662358,-0.2381508725847668,-0.02385655248221637]},"biases":{"v":1,"dim":[64,1],"data":[-0.00024409059227771976,-0.000490799220619848,-0.003337847712848637,0.0001627216802869337,0.003504945252276265,-0.0014934348382141997,-0.00001266053276655295,0.004285094631606656,0.0007787943142235928,0.0,0.0005686341728126081,0.0012168308367962568,-0.000012442537096147744,-0.0006468344427542687,0.0001811939113828426,0.0014450629605129819,0.0,-0.0006095661560990813,-0.0006434251548334133,-0.00018877584443316716,0.00010913097920558274,0.0012028021305084328,-0.00001583384915159896,0.002274898801017143,-0.0019717397656492442,0.0,-0.0010422379815008425,-0.000845307602421433,0.0013334434791738093,0.004549941818483421,0.0018769185955266714,0.0002113213407827373,-0.0037319402294941043,-0.00035835753565891096,0.0,0.0,-0.00018400266306023273,0.0,0.0,-0.0023157208682666923,-0.0024365532599611305,-0.0011682178644860193,0.0012330697756420305,0.00021090590098609153,0.00007224943079961898,-0.00041581738943590406,-0.0004886670954391399,-0.0013030854093295083,-0.0010186798928696658,-0.00474696460856316,0.0014732148686936542,-0.0014700312455559641,0.00003110815431739509,-0.0003487845873151576,-0.000032057626731124946,0.00041386910901176715,0.0015472282269155281,0.00013287146658026516,-0.0026745693610988656,0.00019928747238169946,0.0014506853321894053,0.00010138026398366412,0.0018233715654405321,-0.0017771634969387922]},"activation":"Relu"},{"weights":{"v":1,"dim":[128,64],"data":[0.07021943852942274,-0.1097221522363526,0.03312198966233365,0.14751025355237896,-0.07895379693584138,0.06785330506513218,-0.11359592949972287,0.13047737685771724,0.0531908483846113,0.14193000116182514,-0.0006383125606479976,0.1653908194700278,-0.05769338091234035,-0.11404699351936143,-0.028965158765945593,-0.13094316502611547,-0.1598501401380542,0.14390507802289038,-0.052331147347139645,-0.06086247978615038,0.10764311374946715,-0.027059632861307758,-0.16511375982822463,-0.05136069569013031,-0.03374618497298005,0.15816979125846622,0.1632813162867662,0.10099338186291859,0.09792181175800282,-0.08232471239341821,-0.12371670683634849,-0.04383021953794706,0.16723293389239702,0.05660396031158881,0.01681032615981239,0.1385433154514487,0.08722951834829928,-0.07372550222906574,-0.009598592731888202,0.04808357683935866,-0.1746059857793037,0.08597957648280224,-0.17519046504258395,-0.11399276863247386,0.05403477326706788,-0.09466553070344547,-0.0004770756620335059,0.04142403538916453,0.02414402804206783,0.015423171288815606,0.012438318875765611,-0.004836161565830258,0.015512213829320299,0.12398441655306551,-0.07084520898585273,-0.015299506807365162,-0.08201753702187296,0.03679057908798654,0.1325427427910161,0.16705810099053248,0.012757571815442573,0.13594504148986658,-0.039472139934816644,-0.013240373768135683,-0.10162800030163342,0.11975574818949176,0.018125514289513863,0.06582473952562971,-0.058725478978388486,-0.14275618868549655,-0.09144748249319758,0.13263547298320313,-0.05235578094796544,0.14434593028484344,0.0189437547073186,-0.13301649727091036,0.13173117225790512,0.08414043840274138,-0.0625135622858139,-0.1348877889719039,0.17099187376487895,-0.12074784080626629,0.00302696544504379,-0.09146251428280051,0.057386241233192456,-0.14057615939848503,0.11360248749844047,0.021037768837229787,0.14028153970395957,0.07930434123950414,-0.08301619925704434,0.1731427584299602,-0.07750930982636889,0.037575267893706,0.17608447081288878,0.13203658299644475,-0.009169254595160652,0.1421656296175962,-0.14651299639032353,0.07521659641268547,0.1057867652375737,-0.004086119555381993,0.149914318645043,-0.13807960246941928,-0.021182976945650463,-0.06980561696899573,-0.0948427185695791,0.1458239508268899,-0.1531205739062656,-0.10462421614777705,-0.12036079677089628,0.14000289853653797,0.01572947058082726,0.0028718798816831878,0.04267699003042589,0.00513524929176165,-0.058743884615324836,-0.09773243059595008,0.01919248022327889,0.017522189259711794,0.1532814908901879,-0.17442509288315575,-0.006152224711169835,-0.168033859476984,-0.011739122951615432,-0.03762496202905417,0.1647373295410827,-0.07775162401159698,0.17634197352432948,0.10386488656709177,0.1705335877281328,-0.13021964003741252,0.05765958231116159,-0.06748531060913804,-0.09991440695392051,-0.02191864422679268,-0.03535699975200326,-0.037091965789243904,-0.03591784721792677,0.07725956334868046,0.13428721750148395,0.16122353845126589,-0.15748817767478898,0.06709137466397286,0.06482286782993753,0.03450323336803713,-0.13353477454226645,-0.11205006355342921,-0.08807332818284529,0.00106601744694609,-0.1762526282963354,-0.019852997265264682,0.16580982903512378,0.0703574994431942,-0.05944615544847396,0.15940177143585324,0.10960251963907383,0.0361537748667749,-0.01684637018673997,0.08674001585140502,-0.17502518066633707,-0.05741652826103765,0.034102324085540384,0.024886508066759995,0.04970572633982819,-0.10794876822541241,-0.0646890121160793,0.051062157411051703,0.1538367160527061,-0.14414000153075737,0.07667579782930332,0.08682793216404605,0.12672482421778086,0.1145430545678047,-0.061011460594349115,0.053174769491241815,0.14986887917126535,0.1257770010983512,-0.04231996419077099,-0.12411334176651953,0.1329013453780334,-0.14204432586917634,-0.14790750699224975,0.04769782335062087,0.11224356448954019,0.08082148838937213,0.03060021490058503,0.0003382013514411459,0.13606967547007667,-0.12422408302241238,-0.06165805540341599,0.08880742315855238,-0.08226418978920273,-0.14710763573695956,-0.06175976830948033,0.1014489829738754,0.10086883779670183,-0.1389218104341579,-0.04624917474452212,-0.0012545825394144822,0.06829495155405654,-0.035973989394237085,0.1380950505819778,-0.14021815409482527,0.0738062548587488,-0.12991310718456342,-0.08836379420349025,-0.10474536268179821,0.08487248011843551,0.053732332142931515,-0.1584621191715347,-0.1467178456661583,-0.12482029466912188,0.14051104793112568,0.11175730662044858,-0.10222201869317833,-0.13707728210840392,-0.039271232984767805,0.037208632190505415,0.16022271755620573,0.021838779725697404,-0.043964038791784135,0.12269249225760963,0.12180808240429769,-0.03434573162240876,-0.17379853362374723,0.17421313621446305,0.10676705859044176,-0.14042606233042257,0.09347057101201814,0.11398466216198914,-0.17650260123323597,-0.1274494138225648,0.13886505102606675,-0.15712857191900215,0.13145203784802775,-0.1517436244377726,0.13756731800473337,0.02524929488280616,0.08740225750691868,-0.044977250752096784,0.05647827746776542,0.13677224204654775,0.14229010024749383,-0.05779802787438283,0.10893735249540104,-0.07821359399632449,-0.12171250089474109,0.1302482188689844,-0.03804223353088471,0.13743766519049727,0.04891609036088308,-0.12590731934862862,-0.0981612660019023,0.14886744459602527,-0.10425787425015345,-0.08822824448603717,-0.13858559470434506,0.09025315008858596,-0.1034996041002221,0.09440584338530127,-0.06265121966207647,-0.057055050622426925,0.15006744127967492,-0.0611855273174016,0.047169912760231233,0.04710112549613096,0.008242125853299653,0.04855504653732224,-0.0651120844726593,-0.09206019245578087,0.1617174997217059,-0.1517295199915405,-0.05707889858345427,-0.14926218144742584,0.019716271273694682,-0.01790894235778614,0.17532726921576716,-0.033931305945341966,0.15841818129343088,-0.03730977798515812,0.06370789362674852,0.10428341692452797,-0.16029051412284892,0.1730588114757214,0.12472450129963245,0.022636381768169046,-0.08531601128057754,-0.1436825526628232,-0.1012060733643599,-0.11453616403293294,0.13525995542733632,0.06281532791488098,-0.0397230221602163,-0.1263749904795592,0.011390789277154761,-0.04012760067002197,-0.16559137975105734,-0.021283419261231663,-0.0414014253708279,-0.03541256583924442,-0.12547742367035056,-0.08823566622362644,-0.14480259497258197,0.01969651275434694,-0.0566809355203286,-0.10701939324575586,0.05665716251827686,0.02378483755107517,-0.1362834064377564,-0.08442112467958204,-0.020113207222601626,-0.14463471881899218,0.02407540301954677,0.07576556058528029,0.07921923601936291,0.10319627952080884,0.16610785814278398,0.11823451441926619,-0.12037270877813173,0.1574089699615972,0.10840492482695524,0.05526122953085531,0.04379677842447984,0.14492518391366252,0.05919122560696689,0.11840460682845197,0.0358762857717057,0.11811987235989682,-0.10949191116509985,-0.13960823961428903,0.06760098329157063,0.009989731416603954,0.026759007799539457,-0.16154281844622903,0.1570832367056167,0.088223933682504,-0.049943683182759435,-0.17629778232269422,-0.0774659843988738,-0.028000624960105098,-0.17558999996576188,0.014224180247143135,0.11106314820178263,0.07235024367791214,-0.1474918496019503,0.1716447003145506,-0.12262583699031555,-0.12180491055182845,0.019693727814964465,-0.139753023662035,-0.07496289341676309,0.05826787766926058,-0.022225064589785404,0.17318770003340248,0.13092859024110226,0.1359730524914919,0.06697453590856933,-0.050083179539721245,-0.15106585231531125,0.031657948123144534,-0.10720029733213637,-0.16916530036734767,-0.03636446676074385,0.0938312816781944,-0.0881991265246512,-0.07449311151330547,-0.08628516541957101,-0.12755100223248547,0.1545812949374061,0.07798207450847844,0.005246830882377684,-0.007453973702479988,-0.13302577792816905,0.0046572616518257455,-0.00854296025910143,0.03253294587088476,-0.17272512825792669,0.1655383034621864,0.05735209395332017,0.12658929218550533,0.10259447812063033,0.028231002113168705,-0.14139734953021976,0.14418484944572765,0.10076597714204791,0.13412956651982605,0.015439616117481514,0.11448723030708183,-0.15268046525323242,0.0993975683207118,0.09341169678905624,0.07224934109106092,0.14131651523715494,0.06649655494268268,-0.13736857785599949,-0.03366603459905724,0.07211939240596768,0.17306442740998845,-0.04462765399773266,0.08067092976183515,-0.14599238890835442,0.11631780605703645,-0.06930053340269222,-0.03165725473088291,-0.1063816669183488,-0.13791898365777047,-0.02320316626579623,-0.1281484496472218,-0.11320890758651118,-0.05503179650954206,-0.1582261224194353,0.11975047775594079,0.1355556798204457,-0.11330802295454662,-0.0165823633160256,-0.024876543148532763,-0.15343370345639026,0.009138700331975199,0.08120770931234766,0.02804154112061559,-0.06877864994506178,-0.0442295707987018,0.05559651358624827,0.12908456515028727,0.12495862424751858,-0.09619402491265214,-0.12183102995709232,-0.09471996720525692,0.04960464072841743,-0.08350145696213923,-0.10799978043066337,0.06988236471298734,0.15383840970327112,-0.0962800510408093,-0.16359987776101861,0.09469975886983277,0.008161829025070703,-0.12765911000185853,0.09316954500170233,-0.018337768538121406,0.08462860499386166,0.16348142574519756,-0.11781359142700348,0.12216563186838662,-0.030607351007165946,0.10022351819692793,0.16304824730439052,-0.14572742264997707,-0.07612537011105307,0.037927925227092145,0.005270318753475839,0.04481595479867895,-0.03471030582869041,-0.0928287762632755,0.09948862457357721,-0.07987647901793857,0.05593036888467385,-0.15804974652208179,0.004016140062714837,-0.12756593259061685,-0.14156188208854886,-0.08962738839870105,0.037020745692907135,0.17455137557616937,-0.12745285108392237,0.14512091098696456,-0.06987602381083244,0.05439261088226487,0.03432349589954432,-0.11892613381244609,-0.09185403087774899,-0.169651754145297,0.08473717811806594,0.02717058271910684,0.0471948767782186,-0.08021696418040856,-0.10973415564338314,-0.07268309501399073,0.011843525747497282,0.07333390214704232,0.05892939416024856,0.14037211766317031,-0.12030304055644818,-0.14156719135091272,0.04839427629189113,-0.0009419641423916844,-0.06096683825092836,0.053034540041581,-0.1748040475004609,-0.09988877072707546,-0.04829900244437101,-0.06446640320872525,-0.09928395695797612,0.09226464392214737,0.07354846476340175,-0.008794342934326259,0.1388000185806245,-0.10309941720969525,0.04310218195482159,0.09318744305991752,0.08660075506727592,0.061375138161414794,-0.010852844561026165,0.020343614269787057,-0.09882213940569787,0.08641922424335616,0.015189072473336075,0.1012826381481666,-0.16582954574708794,0.05208636294097326,0.030915349979541935,-0.12059073792071572,0.01903841555846453,0.03917229722568555,-0.1405010287628912,-0.041936978693940835,-0.024090171372836273,-0.021656286600866208,0.16838315414484412,-0.02234007128404504,-0.10556140558208398,0.10100450848521098,0.14063594823995929,-0.019703919876970725,0.042434791677214895,0.010668622815982477,0.06832547861390603,0.09754963150744739,-0.0035976461892199777,-0.06074860380568188,-0.12341414126482605,-0.16274480731143828,-0.014221268692729426,0.16039503072557257,-0.15297468277898418,-0.07786684499315913,0.024089197468440002,-0.1662829467113562,-0.060016359494209484,-0.04611422674387636,0.03787352918784613,-0.16015339824998345,0.12689406667610478,-0.1483664376038452,0.07203095201803732,0.1540591874435617,0.021402727320394454,-0.17451397188228743,-0.08732501325194857,0.14219153674893228,0.05671180389313761,0.12538189698818783,0.08063234096376395,0.01101358982891118,0.052155534042490424,-0.1152969051966887,-0.1536248624371648,0.012326201299678975,-0.16763521856101185,-0.13804921603436635,-0.16392654387446426,0.13913627681890656,0.12218019099149857,0.17364350045212726,-0.17385507882926984,0.15986527089167163,0.0982441055023802,0.16906727749929484,-0.0517545408244798,-0.12099646017929622,-0.14006412061779697,0.16615832434964692,-0.0695995450168334,-0.09505719647458358,0.015513161299504107,-0.018062382904182897,0.01955779544830734,-0.11184328658273371,-0.05364328434784252,0.1657014740187269,0.14936069806747074,0.09944230027724886,0.12253664772412143,-0.04612514977081256,-0.048176852999073885,0.06667978207236844,0.054177716568359784,-0.13442050076410328,-0.1704270535751612,-0.030260715813928404,-0.17063922602399337,0.09812793547061242,-0.06203196555899221,0.11319234975767288,0.10264090554802295,0.015971556275030073,0.04863124448949246,0.05979817940452209,0.14537032681391024,0.1195262596450013,0.06266257973285626,-0.05913898944104728,0.07121094365308338,-0.07872374937368459,0.11374923651770015,0.09273948422047447,0.06457292462724196,0.023127661741037916,-0.059776042547589614,0.15721971341671423,-0.11975716470326758,-0.056649733843722405,-0.10056001520172728,-0.07493256371642446,-0.0892851003744235,0.12252414367035014,-0.02029821161004212,0.15845338868840747,0.1118266221758651,0.06603842514561478,-0.16324254533960875,0.11881097207132056,-0.08024091305291763,0.11188274559422275,-0.14680900116789714,-0.009733845115318869,-0.013008162784644884,0.1759826927796094,0.05132560367009209,-0.1696639868885475,-0.0036381144180909508,0.05915851390053858,0.13964841099549932,0.10860480301822101,0.09715087721427965,-0.06480741681567449,-0.029565456149895544,-0.08858086499229488,-0.07834224414465081,-0.09510929000262187,0.0958201821616034,0.16908629305860193,0.10444276605135855,-0.10767921977880286,0.06388777442439869,-0.06100523714498641,0.08029940954368835,0.04593027409819842,0.0650912002152345,0.11441229604984722,0.13980622689817732,0.08223523822787139,-0.1643914616646185,-0.07944698045929112,0.005671185483874248,-0.03426848096266809,0.14248828449902506,-0.15243798671779146,0.04077422404029387,-0.031216389490437722,-0.05960426145744452,0.04855010600074325,-0.10460343160101464,0.04684967803409945,-0.09575234297788689,-0.16598980902899893,-0.11283425495528161,-0.13253599667382265,0.08278090647967591,0.031597805793527646,-0.13344660362418953,0.10970561665959279,0.060419804180025564,-0.05868796428556328,-0.1115022721805371,-0.12183401775959725,-0.0853818706247055,0.10345008758691018,-0.09249619058035737,0.11118119310880353,0.11027025348991062,0.048704943095614926,-0.13411867120922993,0.08491960152887473,-0.1701537916513853,0.1318841422122552,0.07826201776827574,-0.11888198895072838,-0.036575424311728374,0.0773466704391452,-0.03668870967610724,-0.016679137133361863,-0.007758377970014708,-0.16641399259303238,0.05432269471257306,-0.08540022567696824,0.0818622368410435,0.053126987074595136,0.10897025809469549,-0.146006028243574,-0.10593799926332946,0.11403324044412375,0.09663912028391795,0.12013718400378619,0.16521484391633803,0.13307645896774428,-0.10824944742395426,-0.1298059305758849,-0.09744120485751673,0.17522035066190722,-0.09630097672694296,0.09021133787504264,0.039926970376898054,0.09942016520395282,0.04456074899783829,-0.0552804401805069,0.12995187262421035,-0.08923668441534224,0.04272473154166744,-0.1321406464104372,-0.08428203684960268,-0.0875902390951708,0.06414811369433399,-0.09369798454202269,0.03383393595042858,0.052009067074770925,-0.13302360609558908,0.0720685630193894,-0.0033814799888693733,-0.08208378753598301,0.12336824956265936,-0.007776307238616284,0.037379154348791827,0.16846199320914185,-0.07655874295639797,0.02083547635332526,0.006340451049586918,-0.08584371145560461,0.12514373887684752,-0.10626317777229212,0.03811008637581365,0.0006338347610734535,0.14099192730925464,0.009190303507594677,0.023902809849347628,-0.08658298412045,-0.02085537013743949,-0.022772421911381895,0.12066950039164882,0.1288196431662104,-0.002148411860816733,0.09190785802305532,-0.005721939370498498,0.08960950232121148,-0.03392052413997511,0.16652424920870368,-0.005099829929387485,-0.1108202480873029,-0.028261404097940482,-0.0029108574154975324,0.13043371428539707,0.1451185540990317,0.038723906765386805,0.13573065367234868,-0.04369117337170311,-0.12026822754374164,-0.11565459730347181,0.1589286336966979,-0.11297785353579164,0.14297690690185527,0.11803927319326134,0.02641873798771797,-0.03616219880941306,0.027134479253390718,-0.15926238279163202,0.09425734995781146,0.055926114704530634,0.1733407250704147,0.17357160002825262,0.16956202987049,-0.08756151462634221,0.1556644816950985,-0.029764998730668152,-0.1532985303221258,-0.004084113612015536,0.14338144966346517,-0.04449173451534724,-0.0780103346431621,0.09061230050645597,0.14346860233670047,-0.13274170568105637,0.14826218558770418,-0.16611397334068814,-0.1523520558335973,0.028922131500625854,-0.13737283370292366,0.15313876765421272,-0.13807707846288114,-0.13355113820557674,0.10806547870757813,-0.00023143255902935436,0.09000501325037762,-0.07221445226059833,0.06238056643979034,0.020101235713966676,0.14351319675080532,-0.11346791940766303,0.16720189150872014,0.1138219088509168,-0.1725880270365635,0.09102805150211411,0.06719848766323651,-0.0107926427261939,0.10738917767928564,0.09043550761424637,0.01824361119358585,-0.04849960355043982,-0.09561055899052227,-0.04199212576365442,-0.049286402739540415,0.14593330755315176,-0.13270443744123203,0.08841405460211979,0.1022546476825977,-0.04663490912430907,-0.026052067929398022,0.01937706590858929,0.07725656102686167,-0.02148733615089965,0.1581131465348967,-0.02306012604011668,0.15172708523460895,-0.04787080623594002,0.15575915458233183,0.015292091292218042,-0.05461613887820289,-0.16382743041332268,0.1680755574588783,0.08509131455550097,0.027756422297631023,-0.1366621667780617,0.12096833722856178,0.1430509830866815,-0.13800655929753017,0.027640275459615168,-0.01471279600202902,-0.17425452383143278,-0.03798272706189108,0.11044792529854494,-0.13972184644488084,-0.1398168140709193,-0.1663431206882664,-0.0442288094189742,0.0757923879157168,-0.12677676661561732,0.16809847879180964,0.07689413285787479,-0.1316145279496815,-0.09601525409472081,0.11315707429322726,-0.11374455298228375,-0.17372354687918087,-0.1381627106596705,-0.06318314565732934,0.06807860195839883,0.02925300143787819,-0.1590936813919067,0.08898189285944463,-0.10845885810563906,0.13694111644433327,0.0063904442899183145,-0.051898655203210776,-0.028519057751392865,-0.16734921389182472,0.08994963581986984,-0.0009662763910814315,0.029081716839577332,-0.0738460593899797,-0.1573733649229479,0.0224965577046008,-0.10146689499750292,-0.05947632449683187,-0.10674702507633871,0.07341009111014915,-0.10965150168999366,-0.07843091566420032,-0.08901211283224476,-0.17156251507364526,0.15878634750063836,-0.15826779488822823,-0.17170755133466908,-0.17084204812171766,-0.010065772173146668,-0.11911783368711754,0.04808309812446951,0.16057635656608768,-0.030973715151873006,0.09811831424190523,-0.06997331832599914,-0.05512381277191042,-0.06423173987747981,-0.14442007378632005,0.0889218289322018,0.022866987382171276,0.008159245421253847,-0.0308265845255696,0.12215661483491116,0.026086689215618956,-0.16611192248439646,0.0634929934118695,0.05077038306305021,0.11051541401773901,0.11274581901165576,-0.09072770197873636,0.10352720169088478,0.012347482985548889,0.035667723152846095,-0.14531976885464062,0.018801711817915557,0.07364669266966224,0.06027019489643905,0.061284671734825054,-0.04756324764601607,-0.07111396447457098,-0.09229780685350263,-0.0570278770881688,-0.15388381685943647,0.1594901517406299,0.17315398929693462,0.01245392258127292,-0.028389836867689828,0.15475880582822377,-0.17179598240883875,0.08533508443401318,0.04126300584302667,-0.05517404068525311,-0.13925235585300855,-0.16757674476998397,-0.09633773646418843,0.047814191943784265,-0.12316712701841681,-0.06766839224517818,0.11922195900278006,0.038211494522313545,0.09440701512647598,0.13138991703469383,-0.013372311165199003,-0.044485441920978065,-0.04117216030936443,-0.06797016038631817,-0.15681942794490206,-0.0733983771100975,-0.12856926265331603,0.06143205582079152,-0.0069551650063621835,-0.1281849236172057,-0.10810439010873651,0.1023191937750662,0.03660144028454586,0.145181457112469,-0.08690083014950054,0.07200511394217599,0.09720698296168571,-0.11403738498432245,0.16598822991518333,-0.1645342307517379,0.04166442897266629,0.031790978816902495,-0.0019784909943011317,-0.022424520263484973,0.01811117954541124,-0.01313634895709173,0.09353543655082538,0.021527287926311568,0.04166457100092369,-0.06347626904889395,0.12695294340538116,0.11601968912451496,-0.05716280719683449,0.1096115372950052,0.1040321905839809,0.010556274699728982,0.06995971992880166,-0.04367802337438814,-0.1488573153779758,-0.15782707416641303,0.1679607821481223,-0.060845015087592644,-0.09032886118692103,-0.05136437028974502,-0.14716281327633765,-0.07240703963562506,0.03845749792437102,0.006636675357693267,0.025242967212126138,0.024053073286116486,-0.09279134090595584,0.025754933067167467,-0.0008181597193694904,-0.14635773032304109,-0.03646657737419678,0.15832409183815563,0.16234169953593652,0.09030363805300486,0.1552491535423556,0.13305362972543894,0.05184324588629412,0.041444924067752784,0.1421092567480537,0.12198176939466829,-0.03468448952067959,0.15378501111937642,-0.16719938631741682,-0.09520066540866744,0.04304720867358735,0.00556483137969325,0.007787483915267955,-0.1190873691198399,-0.012372790276143988,-0.008948926556379475,0.1509626679470272,0.09396707792126514,0.13547272257313683,-0.10273098926369838,-0.05711994468627249,-0.0994564118102177,0.09677645849790645,0.09218334017190488,-0.058136025219701445,0.0025272850972826604,-0.02744059363859453,0.08685501425021634,-0.07613327928746508,-0.13112254030006015,-0.10271013599376196,-0.03258291323818198,-0.0050238310033304855,-0.14411717939936894,-0.06862170835853103,0.1752922194061621,0.06534706658657582,-0.03844166089903257,0.039771022301063955,-0.003492716931451784,0.11165823862799427,-0.1598404279234022,-0.10516051975001672,0.14477060501292802,-0.10550904467833325,-0.016436889874370388,-0.14981696788768636,0.09362761120126324,0.02246509608909929,0.14703728233353436,-0.10818336379769908,-0.025722282873454884,-0.06963125888261142,0.07205974755192089,-0.16726587878110713,-0.05759834023525589,-0.11128961935891794,0.033461056761149244,-0.13983570733250128,-0.0480675620664579,0.17025097789134416,-0.1507740130927093,0.05937164919654726,0.029329144849086303,0.16380223141053285,-0.011869549545407376,0.13612355374366372,-0.006384873442908962,-0.10479438197277459,-0.07166241440513399,-0.0592007989992266,0.16209740072711798,0.06467923351306366,-0.07880433426694347,0.17405744343355295,0.036596620719608064,0.14874986493560208,0.06402618501867484,0.16064953930057416,-0.04067918896305565,0.09135511575810973,0.028358317306325844,-0.01282059044945392,0.034169923779255484,0.013933383058530646,-0.059706053795067174,-0.08052931667117157,-0.1757884198571022,-0.006469531982883172,-0.12726206225316944,0.01213809931951483,0.17278841892882862,-0.01008594772505275,-0.15133126229812688,-0.057443463927157996,0.025778124077652228,-0.033352919524521726,0.06182819040462414,0.09398893590054004,-0.16385666374387445,-0.08498613166312187,0.15894506113421958,-0.013401983097151232,-0.13093395189046442,0.06480878185994292,-0.08011867353271147,0.16732783412288446,-0.16826607993337359,0.10504359552195044,-0.13716635602159966,0.15027252927353252,-0.01593260161921183,-0.08767465414204931,-0.08792678742325098,-0.10183374606895408,-0.03410982971573146,-0.0060065926957504415,-0.02651939227334828,-0.07198307172842394,-0.10158621537414182,0.10931545013456502,-0.15578003061355897,-0.10832804521856419,-0.17065531742490536,0.0584480012717989,-0.08988832999989456,-0.0925055853523327,-0.06222081155850097,-0.11018869660223721,-0.15352255337924828,0.06100731000531714,0.12278072192632436,-0.10778534736759166,0.09708243199763421,0.014578938845428083,0.030552298471773248,0.13055680262196964,0.1718815705714242,-0.05713502220535548,-0.0982618900754815,-0.10171847691257602,0.04433471660079565,-0.0290788710900252,0.0874829320009045,0.12112338788616664,0.13832920996553932,0.0018002028098436959,0.01899576990992136,0.15963382303595372,-0.10226502468818448,0.14836537485739784,-0.163961873757253,-0.09400092076870195,-0.08002104282053148,-0.08710782737184451,-0.05134244924446207,0.09400731796105467,-0.15176136008331323,0.15719503203065624,0.03713201195107746,0.0770291671683887,0.04147288543395007,-0.09887748879139957,0.0018973057493997583,0.12266331572642189,-0.12508425220837788,0.10970796949562187,0.13344322953371185,-0.05351048985185482,0.02219142254365341,0.1460765262461776,0.03836440198617494,-0.05614602682653027,-0.16447135959113973,-0.005611636368443736,0.1075904971799662,0.016771694653397524,-0.1223351275646337,0.02366655020200974,-0.005594966920578152,-0.16784383550844975,-0.04166470177144859,0.031759988243841485,-0.052482434060502285,0.025149208865301396,0.09502471310361996,-0.026298779712217425,-0.13003338716549317,-0.12433873534948914,0.048937987542343714,0.11919066945698562,-0.008543863293705845,-0.1591418314820532,0.04754436210272246,0.09756856411016618,-0.0007203434357064432,-0.16032471258637748,-0.016229195981169817,0.11860930424648766,0.05661940041204835,-0.07990880071173517,-0.10651992386483017,0.022925564318453273,-0.10087084248983305,0.0009668264074938276,-0.16210960698435406,0.12496348323209791,-0.11753744544159252,0.014559933687338501,0.17446522437866044,-0.12900423801522232,0.06272322711876444,0.16868088987239996,-0.0016524681747756642,-0.16031331909344784,-0.04101618738457268,-0.16245713071602325,-0.1570822363197866,0.1576677861603999,-0.0734998744648489,0.05170904430012675,0.09163809865471692,-0.03528740441049544,0.078419566854905,-0.1525953391347498,0.1137523064658669,-0.09079521849409959,-0.0465997948586984,-0.17599617552235824,-0.11846913166670205,-0.09968993066102314,-0.07996172018792314,-0.04178352251206255,0.019740782069548986,-0.09444912331732579,0.14097847728400034,0.15299905738688754,-0.07838701621749465,0.08195359949934682,-0.15124729532142778,-0.022373346020953564,-0.06396788189300505,0.13228294035426663,-0.011027506104622083,0.08693437424496855,0.07601876488117139,-0.16407292967202283,-0.15470978437575358,0.03155876562299656,-0.016442407462271505,-0.02700249995191766,0.00028522684368254204,0.09372543825681326,-0.15177074422313197,0.0009319792565117134,-0.011624296173966134,0.11635606410928384,-0.05594740725705296,-0.016902724927145275,-0.051301699899765185,-0.0049129747583040295,-0.14435916683187594,-0.019883882044863816,-0.15617949935105113,-0.10449264966061768,0.03021463129871825,0.029574771465976424,0.0607220631694496,0.04244989114278225,0.015226614858030584,0.026662874811414935,-0.17383803691878463,-0.04612983420545405,-0.1279951541104173,-0.11912474362900471,-0.010522214010923021,-0.0024743018530352635,-0.15768005462355122,-0.15367524092501364,0.1461059335007048,-0.13145464521599975,0.14007979583986488,-0.0972952575277942,-0.14927360348424507,0.06425960031732345,0.06300804629565718,-0.07153405204171077,-0.09454647329743433,0.10026682903264407,-0.08804037861506658,0.09964920901128022,-0.09767907989205,0.13316194491558475,-0.10256935316534264,0.07612589437330167,0.14112553109182163,-0.026858384648096974,-0.15006516599867353,-0.058566401080690084,-0.036411151283182085,0.12669000796886765,-0.12362427523600668,-0.03713215387380172,-0.1361616742872905,-0.10131281453473176,0.00199635169579803,-0.03681519172625289,-0.16903405547005865,-0.0780365362986023,0.10289431488892298,-0.03347784677399612,-0.03882155788562721,0.16678062661842383,0.009127329429257102,-0.11926508883697827,-0.13296296746589054,-0.13854247476628082,0.06758574774846984,-0.12720467417916625,-0.07277115477077294,-0.12025867237272862,0.14380589383077613,0.08934631943495114,-0.0880932174874764,0.1419491188422287,0.07494854615732786,-0.07620805449417475,0.08890306585657339,0.06306075800671376,0.043949328929164415,-0.10270600791758461,-0.07237955380413849,0.15051246443358446,0.0599476410804128,0.10758377955448929,0.08781419820597897,-0.07631725323493505,0.006280599907952598,0.09195227775061039,-0.13993556748557953,-0.13133985425502734,0.058997684259415595,0.040955894776910695,-0.04549875083424155,-0.1257813186627651,0.10716501089105525,0.04152382297035281,-0.11284734976388447,-0.052314163123036175,0.059801336390156,-0.00805618851409426,0.1584913931090741,0.04525802839621522,-0.008048978876430161,-0.07631058922813112,0.14647936028650566,0.15095080738489244,0.09651593864272737,-0.04541195989874356,0.0553918607930008,-0.16468090171802133,0.069874132138628,0.12645505035647495,-0.1765283216648467,-0.10912707460823567,-0.15003862642948326,-0.13369374562799524,-0.03675526140696297,0.10257842654283296,-0.08657440891131697,0.04964866618486896,-0.0281772331767005,0.013248966967605184,-0.0894098844608172,0.043172137797291,-0.10578592655954815,-0.07298136680848606,0.004926102497493198,-0.0018542376191799308,0.13038159586974532,0.1566423726903482,0.09568506944956853,-0.16022457655034214,-0.14936078629043228,0.11897831988084981,0.010625294201565515,-0.005671942222409394,-0.08690704100445171,0.17099130477998173,0.12847787047678982,-0.13710612533557506,-0.06691489773243693,0.16246756168192342,0.14695807094985194,0.0075522417878110286,-0.018026882642923292,-0.09542893623077593,0.051392070757979434,0.00873642594722594,-0.07117949566111326,-0.1282077764457074,0.07088137450981699,-0.10700709017971871,0.11599021208226391,-0.1493001632204625,0.09147226331479802,-0.09428390294223696,-0.06818762300744209,0.16407084889040333,-0.0011732410392935762,0.08757582098476242,0.041457731881963146,-0.041849015857553705,-0.01850998859576562,0.12142288337004838,-0.1366380938659901,-0.14020328658122172,-0.14440533249480683,-0.17312798491181716,-0.05286799232349022,-0.030254814810627164,0.0447630507475631,0.04451128380913558,0.013736660572902524,-0.13371985636042763,-0.08427357838102643,0.16936133288472074,-0.01996227235573049,-0.014072266676017926,0.06191919544113348,-0.06747624544087333,-0.05672568578521148,-0.09180911317619156,0.033685220515949646,0.06585436662016576,-0.1038600591195943,-0.061375009327854425,-0.08628043977990489,-0.007970472630563339,-0.034743179900778055,0.07556018229353806,0.07713727552842017,0.1703397061840706,0.10326198347861501,-0.13544182857115566,-0.05383555163409733,-0.1606608368515999,-0.052765681818650594,-0.13595151369046457,0.053249185839448036,-0.14663984520924062,-0.08268185557356028,0.02649062215906097,0.08521531230808298,-0.15244930981404126,0.17672983268506,-0.11573553747200904,0.04161086777492244,-0.10101081833008208,-0.051823266268054405,0.09380636829638657,-0.07024547176405485,-0.09418728823463025,0.16280540495431417,0.13594916408668084,0.09568878816054796,0.07746983487855348,-0.15317141448816352,-0.052849034715465676,-0.0820447450899595,-0.04794352802426997,-0.14476198407620267,-0.050146637669708845,0.16036370954842352,-0.055611218297291966,0.027147590125815812,-0.03304704688821431,-0.03922881305799879,-0.17671940421945032,0.08760782285533932,0.12022133615323158,0.1488779426995914,-0.13672905631316315,0.16041733105585937,0.07789508307370986,0.10163129647362214,0.04169691853262823,0.006439259721118851,0.012050240339462814,-0.13603229928791105,-0.07428551816652526,0.08903615862897923,0.07177659800288483,0.07260331465545275,0.12577047920086812,-0.11812045707608741,0.02110064814648795,0.14762040125866258,-0.032755379510764404,0.1498097099611727,-0.10140384080371972,-0.08426691327983346,0.07468435952393969,-0.05263826203026435,-0.11781878114497649,-0.17056408157230463,0.03790524433694892,-0.1512076204038413,0.1503572685024633,-0.04035768697640268,0.1636202570732919,-0.0463006677747163,-0.1463318770145932,0.11007947522980305,-0.14102723155008515,0.11291732980113214,-0.15207578446735026,0.08551593495053035,-0.17662837903957398,-0.0759226476954819,-0.048815159176129386,0.1250701325910475,-0.10015807719016538,-0.15264106326485435,-0.0571526378815889,-0.15938477044015667,0.1328499887439103,0.042368524155664486,0.055471596260810996,-0.1129167499595178,0.05938130160101632,0.15463660835695733,0.04143078812899183,-0.1030167030902783,0.11573699892390515,0.16207103638659018,0.02589944887801921,0.10294241267510545,0.10535700018437626,0.008594588666249238,0.09523891635548336,0.10259834490072431,-0.05367981970645608,-0.10572360606364457,-0.1189942156499012,-0.11770210349048006,0.09109110743108452,0.034999499010057056,0.048204173312974614,0.0976780115787371,-0.03901116419118222,0.12281979142431555,0.16760983176157737,0.03401097630516221,0.0691799962586222,-0.08586928950826386,0.09413986675110154,-0.13417022267317058,-0.034870171608054855,0.14908319937158276,0.001247902220337068,0.1528316960445595,0.12130329410709743,-0.05010531020577248,-0.1445973612493495,0.17465516567225872,0.09501098622349238,0.10001885826208977,-0.09304295731209818,0.08646972476889002,-0.16951547073101544,-0.037104529142209894,-0.14218752362121234,0.04219511993438395,0.12058709145287053,0.09777762348158452,-0.14554486658683835,-0.038188150720349416,-0.10760825094475984,-0.10906970776572736,0.0977375954192158,-0.08345332373069435,-0.0917781713776165,0.04785726439659422,0.03791546808165089,0.1702530249846038,-0.16661895066036359,0.14454246586735517,0.09862525698355018,-0.07361630630358454,0.008413437622498446,0.007107218894895203,0.03397400740355611,-0.08592338227100065,-0.1657816734278093,0.1509845495160627,-0.13497656807920996,0.15022773357478877,-0.16814478665529997,0.10416716307270983,0.14347480835301393,-0.08332428348747892,0.13210849090545368,-0.03169324636190541,0.05458179632296991,0.06442592397013788,-0.04492357261074255,-0.04131362877909942,0.026939215962190302,0.15451911555368544,-0.03577926686901646,0.05475784130295305,0.07536973687187953,0.12393196873848356,0.0030857011604307114,-0.04325393527177542,0.009549743790091037,-0.11243135502074492,0.09621366388072507,0.1255958456749906,-0.003438623824109267,0.04762805102565423,0.05759873911612494,-0.10432999639911063,-0.0024800663718355705,0.09028663406116821,0.08194330043704198,0.1653200630920683,-0.0315912260514607,0.0045923718583606,0.008058756970332957,-0.07357413734302189,0.028171212859245894,-0.1174800619711114,0.1725444107904593,0.0847672791602589,-0.16043043614720662,0.03581226635224296,0.041654048152594395,0.12401719683032848,-0.13821565895115506,0.07233402498258443,0.09104032311454552,-0.025492542061582867,0.12334826722544788,-0.006556958886873897,0.042699438882132706,-0.06183335777408391,0.14854348962294264,0.10679503082105579,0.09612175809526922,0.13443119648086307,0.12586438948425735,-0.0948598956525128,-0.15407439961027808,0.03547580091864609,0.09799174690653248,0.16029524563982622,-0.07979044302804168,-0.151422381309617,0.12409154936109404,0.0504139402027314,0.10495299655502574,-0.06326519498144012,-0.11401667034151267,-0.0123125968660218,-0.09281907425843954,-0.06992070583834484,0.12293460510137269,-0.139527258108328,0.13322900231215093,-0.006423674729676703,-0.10298003236641773,-0.04043264839734475,0.10393714109068394,0.004346873448768237,0.016779260738552387,0.03393485509482088,-0.11330685472957971,0.16641794206359242,-0.16845528869045168,0.10995341316765057,0.05600535377547862,0.060820545517912175,-0.12289133396822545,-0.023153766803390097,-0.0893852784180944,-0.04149878341281302,-0.011278699706386256,0.052702926876826074,-0.01899310478137776,0.11527118167812354,-0.10328310424699835,0.02306762867823795,-0.09090214161589837,-0.10267604088268123,0.09258202509869327,-0.1144740321586153,-0.10360029257990792,-0.17666631890449266,0.03287483256599385,0.04596175846956891,-0.04251996558778788,0.1402700471793242,-0.024145335970902376,0.08349013903793226,0.08416064173644162,-0.049877497653207654,-0.09880986678480096,-0.016081360280426667,-0.03557162011703932,-0.054445999732481785,-0.06893215838330372,-0.08522431617730317,-0.08021035243202594,0.07949821894854071,0.09163488534465844,0.06193229507762145,0.17554020056075093,-0.13329734421598632,-0.0544526634148758,-0.06593279988609752,0.15694116153294826,-0.09150628889464991,0.1313795659171473,0.10862479170233248,-0.020118617911128844,0.15539308414293876,0.14302707579182797,0.015325369057365337,-0.0013722780558566635,0.14133877673327624,0.12313351509803092,0.15440455176154566,-0.04367776797312452,0.1045498672328108,-0.1643828224416655,-0.11835671458090197,0.009840311552368522,0.14107345409850033,0.03575684269810274,0.0903004982231864,-0.16472036299584125,-0.06300337634702363,0.1418775010208705,0.09014471050312177,-0.07270279866950662,0.08540493904209183,0.029866184822959243,0.10222113852761022,0.1458983667475155,-0.02588643112866507,0.15800640512282688,-0.14300242200717406,0.14778148836796842,-0.16952532853817845,0.040961549246725654,0.12311740361237043,-0.035266666832316405,0.14833167282260756,-0.07037415668404909,0.13147229080977746,-0.13721819158446283,0.09598788043744327,-0.03075048539765454,-0.15188920346773824,0.0010107487515712609,-0.08282250163752101,0.05743315737776225,-0.10356517770708269,0.12945252032637652,0.030749294578258535,-0.15952974651931062,0.10614553509837149,0.12527755926327908,0.07356731832053177,0.1514277988405814,0.04167404916969441,-0.13150485681163915,-0.06047287610542192,0.17165534101788063,0.17021200108764234,-0.12633786094609364,-0.1593726941487109,0.10868324952302658,-0.14473122158148796,-0.1415343766788658,0.15292965379187423,0.11212953310963583,0.16131506221224737,-0.1420299028646171,-0.03851851621306644,-0.06156066856985556,-0.016247397870796605,0.03454611719166507,0.03442390157448417,0.033993196591419556,0.052167873806676535,0.15134196326409122,0.07359313869047135,0.15614114799288326,0.15114587813953112,0.13742733325933826,0.006464268775949066,-0.059563705895395086,-0.08926923201041222,-0.14837402943690556,-0.10762960388507234,0.003916382446753707,0.06980059023288766,0.06859378539307269,-0.04015906876147198,0.1559175753378369,-0.032159216381743044,-0.1565620958703104,0.023904271639620518,0.06066204205499304,-0.14556676794896733,-0.09819878200009975,0.13676425847703738,0.08911101852410923,-0.0801771283591936,0.07201412592606511,-0.08141134527303681,-0.08146910265051509,-0.14158704108736322,-0.17518371508788175,-0.14031107124678407,-0.08633837973191025,-0.019246310169516744,-0.08078762931228964,-0.10107274703088497,-0.1260746712667587,-0.04090854427335132,0.15133194818667398,0.02595645471240314,-0.13618322365967936,-0.06670036577472264,-0.11271598943738953,-0.11570416175439381,0.008514778022607175,0.1571492094557838,-0.12049893474062494,-0.06022815629249078,0.09077212776153475,-0.011031501303723627,-0.13711749613380048,0.09676609566409922,-0.10917603525948485,0.15077897713012545,0.11834324602961796,-0.01907918084107988,-0.1376928650941915,-0.09527510652911121,0.08252406793351319,-0.13815035710119714,-0.008979435369780759,-0.13374525805924942,-0.07766348173859836,-0.09127004708288204,0.16682230750131297,-0.13332702662274554,-0.1414723412863353,0.14033673106883301,0.17195056061186906,-0.0033653645932024277,-0.017130024791372427,-0.1629122489115095,0.018559971803156772,-0.08132715342252941,-0.09740296563564348,-0.14313738533441966,0.10500801351287439,-0.09152877300581329,-0.005388608591192812,-0.1487275935422692,0.024593851371979534,-0.04109883422211039,0.07261090762697921,-0.02004951776639668,0.024555106541367763,0.09641941177465171,-0.10326823424379099,0.027077069333311266,-0.04665446913416559,0.113358434027455,0.10895898070353105,-0.08650409231536509,0.15977193026336134,0.11074107905564634,0.03340761052548426,0.05814588386473196,-0.017653975289894593,0.15780798246633213,-0.14096868222917597,0.037180356547466924,0.06465576137854466,0.12885314760176947,-0.054533976038398435,0.03329373968188247,0.07366109767914357,-0.12790744572073778,-0.14249249018747462,-0.14878867699839857,-0.09384149865257005,-0.03597917855361673,-0.0581947114326629,-0.15180569111468498,0.04926162053776868,0.034760023888719495,-0.1648037112111143,0.019314944070144554,-0.09242186963840218,0.14814927903712405,0.1568570848308069,-0.06569251703754148,-0.123128412354101,-0.12741135904417936,-0.11059601245708761,-0.02930964871984247,0.0017029850087554096,-0.09176059407817337,-0.017802359897022522,-0.13161030376967636,0.16049653313620282,-0.17411567515074405,0.14321811218902614,-0.047556997226648516,0.061667389617954455,0.12480785875736977,-0.0667767286992715,0.001972504201205243,0.012165063595788743,0.10628833017148548,-0.08285344548947246,0.10059293602886926,0.16525241264483706,-0.014556589748467573,0.0012458473797378686,0.009284595791591865,-0.037390080115614316,0.11345312103982963,-0.1390373631809126,0.026518983316838805,0.12310788419706664,0.10463919539234198,0.1630968513463099,-0.0023264091601905793,0.13473186691394426,0.13925702560620226,0.0002539004674738782,0.0964224230203037,0.16163083012826338,0.08603950228475327,0.09514911248990066,-0.06035976507518787,-0.09913770692065607,0.13201113876601595,0.11683994150944405,0.1360729225870418,0.055608851858750676,-0.019682879955364548,-0.09223328296856716,-0.1762962673006077,-0.14878455881042185,-0.16984491188588402,-0.06893381525619527,-0.04304855722165984,0.030896816626965005,0.017757954030317723,-0.023164184508170812,-0.12147370885078759,-0.0718391930955566,0.039815135683811634,0.05411501288722295,0.141337131652931,0.07613154169445495,-0.0150524722025572,0.03838479264709344,-0.04813590532801642,-0.024253959641842737,0.017721586461067362,-0.007887123486286122,0.059034286326781635,0.1432054447071369,-0.12330497476316188,0.17366768141725586,-0.1696942187790351,0.08037597283638058,-0.018731584551834605,0.08929573192325305,0.172911571531573,-0.09273921761994082,0.04762670141835951,0.1620374018229435,-0.12104231424952529,0.05434911723907062,-0.15922754147770912,-0.04467174465510271,-0.14189662276964168,0.10318651382987039,-0.1197017427507569,0.1360243337099245,-0.07100245665838903,0.16327016045788645,0.09858430754696969,-0.016270020530213546,-0.055601803681605666,-0.1078600396052117,0.07917141730335282,-0.02054520981904925,-0.008353430567470704,0.022983033222676436,0.09768436452660961,0.07816368243140653,-0.13223751323426505,-0.03327806800620196,-0.12373377882864932,-0.05739621138729489,0.05144285922572974,-0.04264324631293506,-0.16537683235002384,-0.07702347035737905,-0.1521357472048561,-0.07926817374232646,0.03742255464801871,-0.09276842003756398,-0.0907870941672585,0.17065861472487168,0.00611540566233172,0.047148356308066484,-0.1601900413123112,-0.17306688366601408,-0.13324908495841253,-0.11681764661949395,-0.03263608814015594,0.05575717822058945,0.0431556935746926,-0.011403547277348554,-0.10364498898163234,0.16546726445448723,-0.14115895829810865,0.16522007054965224,-0.1764700238153254,0.13627882072129963,-0.009097597565612762,0.0660020896606419,-0.12991286919770592,-0.0969377791925269,0.07202271441691821,-0.020717844458885658,0.06299214617086409,-0.1593700337872544,0.14555867647027024,-0.15063734574474563,-0.17018008876647484,-0.07672856833932816,-0.12028263056972846,0.017645307790727642,-0.15867548841196483,-0.15502100712983133,0.12256943630455112,0.0033425042567995595,0.11316550651288497,-0.17326434252579911,0.01788026914517577,-0.1384960331392457,0.07210036548194293,-0.12922580819561716,0.076133721855997,-0.12723874917543776,0.08083371449985292,0.04123313457557018,-0.06910889528319934,0.09701734856613331,0.12462191381035842,0.004766417018423646,0.059110266463022684,0.14593573572533233,-0.06023967060985188,0.08456565018287855,-0.10537163762906156,-0.1752116576798908,0.035652832466790185,-0.08613238877533114,0.019878505117209934,0.14541743025019904,-0.1677363820874878,-0.020662862750154283,-0.1400287234168762,0.04582123895228193,0.1341197200964883,-0.03650322872781234,0.05041841303951618,-0.08987491615265018,0.03835393795392069,0.05329729763577774,-0.049961769909586944,-0.050858806803479914,0.03022689217986561,0.12289160050341504,0.08887302361932771,-0.09671811835719933,0.06224573481010104,-0.1546432941976994,0.04834451282794789,-0.016085453100091258,0.12353285069671854,-0.13989031591061069,-0.05484563890234833,0.10605343966088081,0.09880760981767733,-0.13605297839948113,0.016993219466693386,-0.015739913964670435,-0.13665954478687162,-0.06093579829943297,-0.130083801280263,-0.04671862281213971,0.1289624333326864,-0.12845930622590507,0.11697259012134918,-0.09002053374800788,0.14943383292575005,0.15539386253091744,0.06193535490090603,-0.14344944271104115,0.10103529767775611,0.17106289428977953,-0.11897401991173141,-0.1331705455810156,0.08278632444490402,0.055735413108052495,0.09366914422490136,-0.029704623791065088,-0.08915514128210283,0.13098082223738802,0.14112315857533675,0.0014817153786107022,-0.0348303045238052,-0.06654076105634733,-0.13567499089154575,0.16403140713180744,-0.0023115737275243692,-0.06650216626418753,0.0004561603802442788,-0.045322363266262135,-0.03869550548555254,0.036957415357133996,0.06141133164690008,-0.05020996491254591,-0.15862048871896803,0.07952194293002487,-0.1648428522902785,0.12793216592857068,0.14568792311112946,0.07506116462326923,0.08851527555909568,-0.058869180624183906,-0.049940524321254294,0.1575938678416099,-0.027905379690851346,-0.13853794643641545,-0.11865168911857399,-0.014953249917507438,-0.16954095561157803,0.053256878104826294,-0.05221902719809555,0.12400320791339324,-0.10521116617096646,-0.1627831492972825,-0.12318428575604365,-0.15688475749149203,0.08598539445074785,-0.11077585330978099,0.11175667443736426,-0.15317190247990628,-0.1463139777591351,-0.0881503220609446,-0.09979598089099098,0.15497775224443125,-0.04916221305917794,0.16975088539536323,0.13496342696346972,-0.17228628277407493,0.038244946182259966,0.16917978230969394,-0.13464077221588994,0.1611624986004375,0.13547504555560164,0.17050112101549175,-0.0008409538361287129,-0.07008039484508082,0.08121143044026298,0.016480352067143825,0.007824461696429759,-0.09695579439254062,0.15754604546905354,-0.1578721931928018,-0.02569695801997785,-0.08566851426544778,-0.1609821918336043,-0.17378922141287143,0.09267466928486698,-0.13497149508022213,-0.13459982780088356,-0.16480251908517268,-0.039207893027884515,-0.09653746074242268,-0.125772946031037,-0.1596229026530006,-0.07755624299862823,-0.0516273554603578,0.13193061980758575,-0.013180480782691496,-0.007218664521339214,-0.05110303756642,-0.12822482350320036,0.12476390775835523,0.1480451175796999,-0.035053250368103646,-0.14034150361571532,-0.026317939540965063,-0.09675724404123585,0.03437463339068129,0.08502139583571404,-0.018335393135564912,-0.029428070966815312,-0.15409264440526568,-0.09824389259621029,-0.030279818933151355,-0.06634071077714944,-0.030935928662819908,-0.041071628907435286,-0.017869156003834753,-0.09912328496763766,0.09259528756523538,-0.05421697289799858,0.13370936322530513,0.009692872641090346,-0.09279334658168949,0.0363797691733519,0.15370357812778854,-0.053658399101431886,0.10536233084418105,-0.15880625554787456,0.1765565481975278,-0.09115496565639598,-0.1709068173303775,0.09377895580325096,0.06628735405305396,-0.021881307450498703,0.023476325518637462,-0.1332006595351373,0.028449452751407003,0.12353465729482936,0.010683475250880028,-0.12074083551327128,0.16841229518595777,-0.03873596364745284,-0.15558104128882563,-0.12100235156550498,0.15544115826382796,-0.04366586500791663,-0.030838594714481457,-0.04480159043595484,0.09229182670485388,-0.053453084357400434,0.09268600628237937,-0.07727408942248969,0.00534090098983186,-0.05152791384103861,-0.06893254423145655,-0.04233126179922062,0.1498840648083171,0.032248281771954365,-0.17609353189456087,-0.1269770160941465,-0.018054729742811262,0.045729685742587955,0.06835731319519951,-0.10027206070480098,-0.02049225984450044,-0.08754639566933832,0.01558149810781833,